{
  "format": "mnist_mlp_json_v1",
  "model": {
    "name": "MNISTMLP",
    "input_shape": [
      1,
      28,
      28
    ],
    "layers": [
      {
        "type": "Flatten"
      },
      {
        "type": "Linear",
        "in_features": 784,
        "out_features": 128
      },
      {
        "type": "ReLU"
      },
      {
        "type": "Linear",
        "in_features": 128,
        "out_features": 64
      },
      {
        "type": "ReLU"
      },
      {
        "type": "Linear",
        "in_features": 64,
        "out_features": 10
      }
    ],
    "outputs": {
      "classes": [
        0,
        1,
        2,
        3,
        4,
        5,
        6,
        7,
        8,
        9
      ],
      "activation": "softmax for probabilities"
    }
  },
  "preprocessing": {
    "input": "white ink on black background",
    "convert": "grayscale",
    "autocontrast": true,
    "crop_threshold": 20,
    "resize_ink_to_max": [
      20,
      20
    ],
    "output_shape": [
      1,
      28,
      28
    ],
    "scale": "pixel values divided by 255"
  },
  "checkpoint": {
    "source": "artifacts/mnist_mlp.pt",
    "test_accuracy": 0.9675
  },
  "tensors": {
    "network.1.weight": {
      "dtype": "float32",
      "shape": [
        128,
        784
      ],
      "data": [
        [
          -0.03028864599764347,
          0.012943042442202568,
          0.032025955617427826,
          0.013913947157561779,
          -0.006239065434783697,
          -0.027000006288290024,
          -0.014307819306850433,
          -0.0003658320347312838,
          0.010467423126101494,
          0.021274350583553314,
          0.011930892243981361,
          -0.008249721489846706,
          0.037982646375894547,
          -0.01994749717414379,
          0.03261187672615051,
          -0.015473741106688976,
          0.013884838670492172,
          -0.002215266227722168,
          -0.010902929119765759,
          0.015598349273204803,
          0.02065976709127426,
          -0.002123619895428419,
          0.0032310911919921637,
          0.03125825524330139,
          0.011583630926907063,
          0.0278818067163229,
          0.012764872051775455,
          -0.008971674367785454,
          0.007552828639745712,
          -0.029405003413558006,
          -0.025639977306127548,
          -0.03435391187667847,
          0.04623095318675041,
          0.06558115035295486,
          0.0338439904153347,
          0.026325954124331474,
          0.013806583359837532,
          0.004241165239363909,
          0.03619486838579178,
          0.02655147761106491,
          0.05628301948308945,
          0.08146164566278458,
          0.08640459924936295,
          0.07526113837957382,
          0.06599417328834534,
          0.07116782665252686,
          0.0895613506436348,
          0.10137136280536652,
          0.11514682322740555,
          0.0037742722779512405,
          0.07385886460542679,
          0.02457195334136486,
          -0.002500151051208377,
          -0.021321898326277733,
          -0.005167190916836262,
          0.005061124451458454,
          0.01326331589370966,
          -0.019603503867983818,
          0.03637231886386871,
          0.05129614844918251,
          0.02904062159359455,
          -0.004037000704556704,
          -0.012529276311397552,
          0.061313994228839874,
          -0.04843348264694214,
          -0.05517846345901489,
          -0.03763919696211815,
          -0.046022459864616394,
          0.010598133318126202,
          0.052489448338747025,
          0.04857868701219559,
          0.17677074670791626,
          0.22637787461280823,
          0.20959237217903137,
          0.14758753776550293,
          0.2157372087240219,
          0.1459256410598755,
          0.11942325532436371,
          0.15630362927913666,
          0.14420360326766968,
          0.010753218084573746,
          -0.0236775241792202,
          0.009405677206814289,
          0.010319113731384277,
          0.008450789377093315,
          -0.03311653435230255,
          0.08678950369358063,
          0.014326772652566433,
          0.07262858748435974,
          -0.030827751383185387,
          -0.03735892102122307,
          -0.06897497922182083,
          -0.13642536103725433,
          -0.13659049570560455,
          -0.13334453105926514,
          -0.16291430592536926,
          -0.10513796657323837,
          -0.014344255439937115,
          -0.03499816730618477,
          0.021973052993416786,
          0.08703038841485977,
          0.044189903885126114,
          0.13732947409152985,
          0.18146105110645294,
          0.11156997829675674,
          0.14471657574176788,
          0.11217328161001205,
          0.11823692917823792,
          0.004020477645099163,
          -0.011610997840762138,
          0.09221512079238892,
          0.02576788142323494,
          -0.014055882580578327,
          0.005501616280525923,
          0.014165782369673252,
          -0.015488057397305965,
          -0.06158643215894699,
          -0.1181114912033081,
          -0.14975731074810028,
          -0.19348406791687012,
          -0.19486674666404724,
          -0.13979150354862213,
          -0.06621957570314407,
          -0.11598900705575943,
          -0.08610387146472931,
          -0.014803875237703323,
          0.0008612890960648656,
          0.03289847820997238,
          0.02510003186762333,
          0.07830435037612915,
          0.03917616605758667,
          0.029350224882364273,
          0.01533039566129446,
          0.08409899473190308,
          0.055210985243320465,
          0.056248512119054794,
          0.054632365703582764,
          -0.0011405354598537087,
          0.03590993955731392,
          0.030904090031981468,
          -0.0021064579486846924,
          0.024140972644090652,
          0.06372057646512985,
          -0.055079568177461624,
          -0.138486847281456,
          -0.12682342529296875,
          -0.17758914828300476,
          -0.2593413293361664,
          -0.24850477278232574,
          -0.09760132431983948,
          -0.07873952388763428,
          -0.09747383743524551,
          -0.04509926959872246,
          -0.014908494427800179,
          0.02103225328028202,
          0.06532734632492065,
          0.060691747814416885,
          0.07794692367315292,
          0.059004396200180054,
          0.020812757313251495,
          0.04744340106844902,
          0.039762210100889206,
          0.06679531186819077,
          0.08947204053401947,
          0.09550072997808456,
          0.10492479801177979,
          0.09470468014478683,
          0.0668472945690155,
          -0.0013007649686187506,
          -0.0013057838659733534,
          0.011330341920256615,
          -0.12101411819458008,
          -0.14442874491214752,
          -0.16362828016281128,
          -0.18972305953502655,
          -0.17542847990989685,
          -0.1498107761144638,
          -0.13894566893577576,
          -0.03829455375671387,
          -0.025012653321027756,
          0.030943317338824272,
          0.01120317354798317,
          0.05735435336828232,
          0.09466990828514099,
          0.037458635866642,
          0.023569559678435326,
          0.06378934532403946,
          0.10177112370729446,
          0.055450696498155594,
          0.0016370248049497604,
          0.08406026661396027,
          0.07260707765817642,
          0.18174470961093903,
          0.18528896570205688,
          0.09188764542341232,
          0.042886462062597275,
          -0.020825332030653954,
          0.06028129532933235,
          -0.0711733028292656,
          -0.15994571149349213,
          -0.1653066724538803,
          -0.17908933758735657,
          -0.18758495151996613,
          -0.12762799859046936,
          -0.12676860392093658,
          -0.0652085617184639,
          -0.01222177129238844,
          0.0239516980946064,
          0.062704898416996,
          0.0269321296364069,
          0.1165751963853836,
          0.11928630620241165,
          0.06504620611667633,
          0.04700346663594246,
          0.07965100556612015,
          0.1106029748916626,
          0.12465796619653702,
          0.09127158671617508,
          0.05055202916264534,
          0.1316218376159668,
          0.14119204878807068,
          0.1278776079416275,
          0.036747004836797714,
          0.02108488604426384,
          -0.0069687156938016415,
          -0.01875559240579605,
          -0.08249064534902573,
          -0.1313687562942505,
          -0.1452113538980484,
          -0.11065426468849182,
          -0.07452508807182312,
          -0.01763128489255905,
          -0.08338144421577454,
          -0.028879784047603607,
          -0.006301653105765581,
          0.03239851072430611,
          0.09254028648138046,
          0.12509481608867645,
          0.06887709349393845,
          0.0361797958612442,
          0.026426050812005997,
          0.03754010424017906,
          -0.03284902125597,
          0.02662736549973488,
          0.07486236095428467,
          0.031118402257561684,
          0.07016722112894058,
          0.09291712939739227,
          0.10177679359912872,
          0.11592178791761398,
          0.03989112004637718,
          0.0337945818901062,
          0.017457107082009315,
          -0.04475630819797516,
          -0.09378712624311447,
          -0.10563503950834274,
          -0.14684726297855377,
          -0.15756180882453918,
          -0.10040175914764404,
          -0.008145174942910671,
          -0.03496868908405304,
          0.0036419141106307507,
          -0.01075606606900692,
          0.06577738374471664,
          0.08608484268188477,
          0.0619499608874321,
          0.07827223837375641,
          0.02624574862420559,
          -0.1273716688156128,
          -0.16513478755950928,
          -0.14530955255031586,
          -0.1824326366186142,
          -0.13717614114284515,
          -0.09493009001016617,
          -0.012488221749663353,
          0.00899192038923502,
          0.0928485319018364,
          0.17844732105731964,
          0.023644577711820602,
          0.026952823624014854,
          -0.035607531666755676,
          -0.05273634195327759,
          -0.10047291964292526,
          -0.09195513278245926,
          -0.12718184292316437,
          -0.13183550536632538,
          -0.10006742924451828,
          -0.058997657150030136,
          0.029617710039019585,
          0.033484041690826416,
          0.02158958651125431,
          0.07003279030323029,
          0.115081787109375,
          0.1266709268093109,
          0.08008168637752533,
          -0.05119207501411438,
          -0.21906568109989166,
          -0.21056534349918365,
          -0.22978590428829193,
          -0.2571633458137512,
          -0.2813904881477356,
          -0.23103579878807068,
          -0.19090427458286285,
          -0.13635529577732086,
          -0.008909421041607857,
          0.062405362725257874,
          0.12523500621318817,
          0.02347446233034134,
          0.012316731736063957,
          -0.017329778522253036,
          -0.02132481150329113,
          -0.08988345414400101,
          -0.11653652042150497,
          -0.05649018660187721,
          -0.030099477618932724,
          -0.04275605455040932,
          -0.0514519177377224,
          -0.030291782692074776,
          0.017207816243171692,
          -0.017441172152757645,
          0.0467841736972332,
          0.084516242146492,
          -0.014077829197049141,
          -0.06368586421012878,
          -0.13366489112377167,
          -0.19838561117649078,
          -0.1778644472360611,
          -0.20614878833293915,
          -0.2799808084964752,
          -0.33063507080078125,
          -0.34187576174736023,
          -0.2120765745639801,
          -0.14899541437625885,
          -0.04134147986769676,
          0.05431140586733818,
          0.027232524007558823,
          -0.028263697400689125,
          -0.06186417117714882,
          -0.07603767514228821,
          0.013350390829145908,
          -0.07582154124975204,
          -0.004335519392043352,
          -0.03532513231039047,
          -0.06968596577644348,
          -0.0443718247115612,
          -0.043309807777404785,
          -0.032823629677295685,
          -0.02424374595284462,
          0.029470928013324738,
          0.02231365628540516,
          0.016549890860915184,
          -0.10819899290800095,
          -0.1439637392759323,
          -0.09218025952577591,
          -0.09996932744979858,
          -0.1452322155237198,
          -0.20181411504745483,
          -0.2338387668132782,
          -0.2891992926597595,
          -0.28556621074676514,
          -0.1904558539390564,
          -0.11431542783975601,
          0.0023380271159112453,
          0.020289059728384018,
          0.08379300683736801,
          -0.02682063914835453,
          -0.02550813928246498,
          0.07276477664709091,
          -0.04112555459141731,
          -0.06919590383768082,
          -0.039929941296577454,
          -0.06092110276222229,
          -0.05365339294075966,
          -0.05519144609570503,
          -0.026243584230542183,
          -0.03495601564645767,
          0.029581133276224136,
          -0.007693341467529535,
          -0.002878711558878422,
          -0.02446778304874897,
          -0.10951174050569534,
          -0.028925597667694092,
          0.000947674096096307,
          -0.00573775265365839,
          -0.03479267656803131,
          -0.08319047838449478,
          -0.23598311841487885,
          -0.22358402609825134,
          -0.23073449730873108,
          -0.1320660561323166,
          -0.08137783408164978,
          0.0026469710282981396,
          0.049309685826301575,
          -0.06015809625387192,
          -0.055497847497463226,
          0.0018999548628926277,
          -0.02609522081911564,
          -0.04024728387594223,
          -0.04659665748476982,
          -0.06832428276538849,
          -0.05264951288700104,
          -0.0023249699734151363,
          0.01633705571293831,
          -0.040242817252874374,
          -0.024210264906287193,
          -0.03011702187359333,
          0.02381051890552044,
          -0.006161794066429138,
          -0.0093346843495965,
          -0.058456771075725555,
          0.04925888031721115,
          0.04217299073934555,
          0.0604470856487751,
          -0.008831800892949104,
          -0.13416825234889984,
          -0.16592973470687866,
          -0.18724462389945984,
          -0.06933853775262833,
          -0.055512722581624985,
          -0.0074181691743433475,
          0.05237022042274475,
          -0.04497063532471657,
          -0.06871110945940018,
          0.00014446749992202967,
          -0.03726840391755104,
          -0.07106698304414749,
          -0.035088155418634415,
          -0.030395327135920525,
          0.0182926207780838,
          -0.03396614268422127,
          0.010409829206764698,
          -0.02376393787562847,
          -0.022036325186491013,
          0.009814108721911907,
          0.015321280807256699,
          -0.0015449423808604479,
          -0.006103849038481712,
          -0.03851582482457161,
          0.007527942769229412,
          0.03319046273827553,
          0.026013405993580818,
          0.03334041312336922,
          -0.09180537611246109,
          -0.14138160645961761,
          -0.1240299716591835,
          -0.099323570728302,
          -0.10041452944278717,
          -0.07541715353727341,
          -0.012066780589520931,
          -0.04083509370684624,
          -0.034782543778419495,
          0.07050895690917969,
          -0.029533058404922485,
          -0.043548304587602615,
          -0.06995199620723724,
          -0.043242163956165314,
          -0.019176511093974113,
          -0.03708256781101227,
          0.009055535309016705,
          0.03277374804019928,
          -0.034020375460386276,
          0.043840862810611725,
          0.09148263931274414,
          -0.016315771266818047,
          -0.04961928725242615,
          -0.0846424251794815,
          0.0006823169533163309,
          -0.007958677597343922,
          -0.00014184696192387491,
          0.02723723277449608,
          -0.0575118362903595,
          -0.17314301431179047,
          -0.13605663180351257,
          -0.12472105026245117,
          -0.04185723140835762,
          -0.041056763380765915,
          0.01398533210158348,
          -0.0651935487985611,
          -0.027533872053027153,
          0.10634090006351471,
          0.03273117169737816,
          -0.012644988484680653,
          -0.035640791058540344,
          0.04414263740181923,
          0.028265776112675667,
          -0.011441126465797424,
          -0.06954409182071686,
          -0.009863899089396,
          -0.06847881525754929,
          0.04280594736337662,
          0.04338454082608223,
          0.0065058632753789425,
          -0.03393251448869705,
          -0.03968198224902153,
          0.03107575885951519,
          0.06502880156040192,
          0.0482797808945179,
          0.03283531963825226,
          -0.007837076671421528,
          -0.11573753505945206,
          -0.1182335615158081,
          -0.16148291528224945,
          -0.03318622708320618,
          -0.06910953670740128,
          0.002252001781016588,
          -0.028091588988900185,
          -0.031079784035682678,
          0.14698372781276703,
          0.08858026564121246,
          0.04461530223488808,
          0.011880326084792614,
          0.013651139102876186,
          -0.04131140187382698,
          -0.022357024252414703,
          -0.11303737014532089,
          -0.12643079459667206,
          -0.044175710529088974,
          0.038532841950654984,
          0.015922600403428078,
          0.0011924967402592301,
          -0.02218281477689743,
          0.001977735897526145,
          0.016290996223688126,
          0.071867935359478,
          0.07343840599060059,
          0.04221102595329285,
          -0.053001221269369125,
          -0.09211121499538422,
          -0.05564975365996361,
          -0.09343087673187256,
          -0.05153290182352066,
          -0.04200272262096405,
          0.001571957371197641,
          -0.03452441096305847,
          0.08778607845306396,
          0.09627068787813187,
          0.09853614121675491,
          0.04816511273384094,
          0.07637250423431396,
          0.04367446526885033,
          -0.008505399338901043,
          -0.003481975058093667,
          -0.08507516980171204,
          -0.024817805737257004,
          0.02436172030866146,
          0.008200207725167274,
          0.019059428945183754,
          0.10031627863645554,
          0.051520418375730515,
          0.027416694909334183,
          0.1022275909781456,
          0.07705293595790863,
          0.05387410894036293,
          0.059957243502140045,
          -0.0184653177857399,
          0.010265277698636055,
          0.027128780260682106,
          0.021513892337679863,
          -0.08844437450170517,
          -0.010566845536231995,
          0.0034427857026457787,
          -0.03334297984838486,
          0.037978559732437134,
          0.04569430649280548,
          0.05922381952404976,
          -0.017426474019885063,
          0.0593826025724411,
          0.03354888781905174,
          0.08200542628765106,
          0.047149453312158585,
          0.022342296317219734,
          0.008834726177155972,
          0.055522337555885315,
          0.010270885191857815,
          0.04899444058537483,
          0.06970617920160294,
          0.0860360711812973,
          0.08040104806423187,
          0.10571083426475525,
          0.09279071539640427,
          0.06879325211048126,
          0.049650877714157104,
          0.04635860025882721,
          0.021253230050206184,
          0.026070179417729378,
          -0.0020922424737364054,
          0.04584634304046631,
          -0.016881659626960754,
          0.019776726141572,
          -0.04771809279918671,
          -0.08509084582328796,
          0.03065732680261135,
          0.14833857119083405,
          0.010082898661494255,
          0.04241315647959709,
          -0.0026806206442415714,
          0.01627439819276333,
          0.07145906984806061,
          0.04019470512866974,
          0.06162550300359726,
          0.05125120282173157,
          0.02796304225921631,
          0.023097729310393333,
          0.09288657456636429,
          0.0855531096458435,
          0.11699662357568741,
          0.11405530571937561,
          0.0894404724240303,
          0.09047234058380127,
          0.11461538076400757,
          0.06213010475039482,
          0.0037204911932349205,
          -0.003289714688435197,
          -0.07839363813400269,
          -0.06141075864434242,
          -0.021615082398056984,
          0.06221088767051697,
          0.01767701469361782,
          -0.06407401710748672,
          0.05633998662233353,
          0.1625490039587021,
          0.05794062837958336,
          -0.059086624532938004,
          -0.07806295901536942,
          0.006802727002650499,
          -0.009475471451878548,
          0.044638168066740036,
          0.0261335838586092,
          0.007403997238725424,
          -0.009588023647665977,
          0.07145996391773224,
          0.10796889662742615,
          0.11184016615152359,
          0.1104353815317154,
          0.07047009468078613,
          0.0623130276799202,
          0.05480249598622322,
          0.007759622298181057,
          -0.05437697470188141,
          -0.002863900503143668,
          -0.06753627210855484,
          0.010915789753198624,
          0.053630754351615906,
          -0.02388344705104828,
          0.0016080865170806646,
          -0.017559319734573364,
          -0.009556328877806664,
          0.02745354361832142,
          0.1307375431060791,
          0.11382294446229935,
          -0.009294714778661728,
          -0.09250950068235397,
          -0.05536702275276184,
          -0.04239411652088165,
          -0.003143831854686141,
          0.024462392553687096,
          0.035860590636730194,
          0.032941073179244995,
          0.033361442387104034,
          0.06558270752429962,
          0.09113891422748566,
          0.0914890468120575,
          0.053841304033994675,
          0.04946983605623245,
          0.08393790572881699,
          -0.08146065473556519,
          -0.07641422003507614,
          -0.10125985741615295,
          -0.09410341829061508,
          -0.0448349229991436,
          0.0785260945558548,
          -0.03380705788731575,
          0.024117160588502884,
          -0.026120731607079506,
          0.01577911153435707,
          0.03165283054113388,
          0.010176759213209152,
          0.0038202297873795033,
          0.04999883472919464,
          -0.00681459391489625,
          -0.0035952171310782433,
          0.043932851403951645,
          -0.006486610043793917,
          -0.019828731194138527,
          0.020157761871814728,
          -0.022540215402841568,
          -0.007601732388138771,
          0.016719672828912735,
          0.019793856889009476,
          0.03181398659944534,
          0.06278721988201141,
          0.01977146603167057,
          -0.004806392826139927,
          -0.05136654153466225,
          -0.03382648900151253,
          -0.10615258663892746,
          -0.05133229121565819,
          0.03150924667716026,
          0.05329040810465813,
          -0.032141827046871185,
          -0.021588535979390144,
          0.020497774705290794,
          0.029579931870102882,
          0.07132520526647568,
          0.025641784071922302,
          -0.008423544466495514,
          -0.006935928948223591,
          -0.0026884134858846664,
          -0.024718303233385086,
          0.028070712462067604,
          -0.045085374265909195,
          -0.026159560307860374,
          0.056241706013679504,
          0.024542365223169327,
          0.0002424387348582968,
          -0.0223069004714489,
          -0.03634721785783768,
          0.0590347982943058,
          0.06456466764211655,
          0.0900086835026741,
          0.05522594973444939,
          0.00885775312781334,
          0.05009228736162186,
          -0.03019087389111519,
          -0.0176981333643198,
          0.041811536997556686,
          0.016889473423361778,
          -0.031863220036029816,
          0.005046248435974121,
          -0.026746533811092377,
          -0.024513760581612587,
          0.009159556590020657,
          -0.007690001744776964,
          -0.06213532015681267,
          -0.052105098962783813,
          -0.036891765892505646,
          -0.04412528872489929,
          -0.007017234805971384,
          -0.05195997655391693,
          0.028934113681316376,
          -0.05323002487421036,
          -0.0888468399643898,
          -0.1338314563035965,
          -0.09635038673877716,
          -0.05807017907500267,
          -0.014357184059917927,
          0.0009690930601209402,
          -0.013252738863229752,
          -0.01816526986658573,
          0.07237314432859421,
          0.04742422699928284,
          -0.012731350027024746,
          0.032722216099500656,
          -0.03637783229351044,
          0.019911741837859154,
          -0.007608963176608086,
          -0.012460666708648205,
          -0.03482744097709656,
          -0.027751298621296883,
          -0.001736538833938539,
          0.009944205172359943,
          -0.015855232253670692,
          -0.012994219549000263,
          -0.03644486516714096,
          -0.029822831973433495,
          -0.007622588891535997,
          -0.04514547064900398,
          -0.01508972980082035,
          -0.01003913301974535,
          -0.01848815567791462,
          -0.0538087822496891,
          -0.008905470371246338,
          -0.08042915910482407,
          -0.11347384750843048,
          -0.05665648728609085,
          -0.04166224226355553,
          -0.029514901340007782,
          -0.037186913192272186,
          -0.03777627274394035,
          -0.02120920643210411,
          0.022010596469044685,
          -0.010020039044320583,
          -0.01659340225160122,
          -0.03381502628326416
        ],
        [
          0.02132461406290531,
          -0.00805500615388155,
          0.012634162791073322,
          -0.010048279538750648,
          -0.026420798152685165,
          -0.02344379387795925,
          -0.022573668509721756,
          -0.017758911475539207,
          -0.02969326451420784,
          -0.009383845143020153,
          0.0117357037961483,
          -0.013768278062343597,
          -0.051714856177568436,
          -0.0097343809902668,
          0.07552830129861832,
          0.017286205664277077,
          0.03569547086954117,
          0.008080478757619858,
          0.002939126454293728,
          0.006287374999374151,
          0.011824757792055607,
          -0.03420925885438919,
          -0.027433188632130623,
          0.027073243632912636,
          0.017953014001250267,
          0.015179353766143322,
          -0.00158246501814574,
          -0.005492393858730793,
          -0.018876975402235985,
          0.010896410793066025,
          0.01245205756276846,
          0.006086017470806837,
          0.018945131450891495,
          -0.006992258597165346,
          -0.017844393849372864,
          -0.033511683344841,
          -0.014985415153205395,
          -0.024968551471829414,
          -0.0741877630352974,
          -0.13846638798713684,
          -0.09610525518655777,
          -0.1100727841258049,
          -0.07304951548576355,
          -0.08267621695995331,
          0.04587637260556221,
          -0.0448434017598629,
          -0.0882546529173851,
          -0.12610024213790894,
          -0.12353005260229111,
          -0.11667934060096741,
          -0.10517820715904236,
          -0.036862753331661224,
          0.017350904643535614,
          -0.028945984318852425,
          0.029204443097114563,
          -0.0077894460409879684,
          -0.014342994429171085,
          -0.023150095716118813,
          0.006140423938632011,
          -0.021055931225419044,
          -0.07421085238456726,
          -0.05476619303226471,
          -0.06041201204061508,
          -0.0633765161037445,
          -0.04846251755952835,
          -0.013228317722678185,
          -0.08772435784339905,
          -0.09707842022180557,
          -0.08841590583324432,
          -0.1486371010541916,
          -0.12550656497478485,
          -0.14085432887077332,
          -0.10048658400774002,
          -0.07837085425853729,
          -0.06469027698040009,
          -0.2100742757320404,
          -0.1796644628047943,
          -0.10726538300514221,
          -0.12281189113855362,
          -0.09192623943090439,
          0.042947348207235336,
          0.041515231132507324,
          0.012483985163271427,
          0.015213396400213242,
          -0.01967526413500309,
          0.01239028200507164,
          0.055047810077667236,
          -0.08054482191801071,
          -0.05360090360045433,
          -0.06220192834734917,
          -0.08643855154514313,
          -0.03915137052536011,
          -0.07249833643436432,
          -0.0631554126739502,
          -0.11824191361665726,
          -0.05799425020813942,
          -0.09197627753019333,
          -0.15228474140167236,
          -0.17631928622722626,
          -0.21890148520469666,
          -0.1466917097568512,
          -0.19929222762584686,
          -0.1708192527294159,
          -0.2497798055410385,
          -0.2258566915988922,
          -0.2024390995502472,
          -0.044504377990961075,
          -0.016975149512290955,
          -0.023994965478777885,
          -0.019868452101945877,
          -0.06837211549282074,
          0.03389381244778633,
          -0.01084789726883173,
          -0.0013295285170897841,
          0.09806773066520691,
          -0.03810162469744682,
          -0.0627562403678894,
          -0.0980846956372261,
          -0.023661432787775993,
          -0.0008059674873948097,
          -0.05557572469115257,
          -0.06427084654569626,
          -0.07911138981580734,
          0.01800038479268551,
          -0.002956426003947854,
          -0.02591083198785782,
          -0.05760708451271057,
          -0.07846445590257645,
          -0.09517361968755722,
          -0.14626717567443848,
          -0.09577001631259918,
          -0.12163130193948746,
          -0.11358760297298431,
          -0.11457982659339905,
          -0.034035325050354004,
          -0.12534725666046143,
          -0.1126197874546051,
          0.022095821797847748,
          0.0027765019331127405,
          -0.01133174728602171,
          0.011643806472420692,
          -0.010345634073019028,
          -0.05304069444537163,
          0.025799885392189026,
          0.08134306222200394,
          -0.019891412928700447,
          -0.013492830097675323,
          -0.04059242084622383,
          0.05333953723311424,
          0.08304671943187714,
          0.03741054981946945,
          0.11875899136066437,
          0.05485401302576065,
          0.05294923856854439,
          -0.012928838841617107,
          -0.0319124311208725,
          -0.03746332228183746,
          -0.07522297650575638,
          -0.08895564079284668,
          -0.11359667778015137,
          -0.10289070755243301,
          -0.06354797631502151,
          -0.061366017907857895,
          -0.05818896368145943,
          -0.05951043590903282,
          0.027376113459467888,
          -0.09012218564748764,
          -0.058904290199279785,
          0.03249998390674591,
          -0.06737767159938812,
          -0.027833659201860428,
          0.07347138971090317,
          0.010054165497422218,
          -0.04612702131271362,
          -0.01926666684448719,
          0.010429899208247662,
          0.017239762470126152,
          0.06206774711608887,
          0.07112914323806763,
          0.0335075743496418,
          0.03219793736934662,
          0.07631022483110428,
          0.06465983390808105,
          0.0341225229203701,
          0.07398585230112076,
          0.05639570578932762,
          0.01551371905952692,
          -0.07402033358812332,
          -0.05535881966352463,
          0.015068129636347294,
          -0.09215953946113586,
          -0.1563045084476471,
          -0.12648865580558777,
          -0.05943543463945389,
          -0.060605738312006,
          -0.04055197909474373,
          0.038664206862449646,
          -0.041542645543813705,
          0.12015105783939362,
          0.07285238802433014,
          -0.05894704908132553,
          -0.09407851099967957,
          -0.014779150485992432,
          -0.011812293902039528,
          -0.020478883758187294,
          0.05390605330467224,
          0.014009174890816212,
          0.026119936257600784,
          0.05892886593937874,
          0.06833513081073761,
          0.09408319741487503,
          0.047997646033763885,
          0.11646829545497894,
          0.054560139775276184,
          0.028048627078533173,
          0.015408528968691826,
          -0.03928516432642937,
          -0.0065565891563892365,
          -0.07411697506904602,
          -0.09691647440195084,
          -0.14597409963607788,
          -0.060322508215904236,
          -0.039730001240968704,
          -0.012533610686659813,
          -0.05062413960695267,
          0.07523743808269501,
          0.013355814851820469,
          -0.05128055438399315,
          0.0024131874088197947,
          -0.020338932052254677,
          0.027537427842617035,
          0.02074553817510605,
          0.07027173787355423,
          0.02795315906405449,
          0.03534526377916336,
          -0.016999157145619392,
          0.04762379452586174,
          0.05053506791591644,
          0.11017866432666779,
          0.12283768504858017,
          0.06387731432914734,
          0.047987762838602066,
          0.05577635392546654,
          -0.03344586864113808,
          -0.08036964386701584,
          -0.09607026726007462,
          -0.05571134388446808,
          -0.06355104595422745,
          -0.1273840367794037,
          -0.08016316592693329,
          -0.007831965573132038,
          0.00598805071786046,
          0.049331922084093094,
          0.07098197937011719,
          -0.012556584551930428,
          -0.016981588676571846,
          -0.07012457400560379,
          0.05561694875359535,
          0.055641356855630875,
          -0.03936607018113136,
          -0.024426065385341644,
          0.06684322655200958,
          0.05787086859345436,
          0.024582436308264732,
          0.04202872887253761,
          0.09651942551136017,
          0.07775525003671646,
          0.10186805576086044,
          0.09448650479316711,
          0.08514709770679474,
          0.10097382962703705,
          0.041306402534246445,
          -0.02906963974237442,
          -0.15829585492610931,
          -0.10078740119934082,
          -0.07533272355794907,
          -0.06763824820518494,
          -0.0310212355107069,
          0.02102074772119522,
          0.05690094456076622,
          0.0286379624158144,
          0.03692613169550896,
          0.09922323375940323,
          -0.06004263088107109,
          -0.04589518532156944,
          0.044902704656124115,
          0.07263211160898209,
          0.04095962271094322,
          0.018015997484326363,
          0.09014031291007996,
          0.06944365054368973,
          0.10914258658885956,
          0.10400073230266571,
          0.06647256016731262,
          0.11419640481472015,
          0.14136038720607758,
          0.11185380071401596,
          0.11231836676597595,
          0.12508068978786469,
          0.045566100627183914,
          -0.07521258294582367,
          -0.1128370612859726,
          -0.1571483165025711,
          -0.15416215360164642,
          -0.08937989920377731,
          -0.027637645602226257,
          -0.003506419248878956,
          0.042865194380283356,
          0.06964061409235,
          0.002833363600075245,
          0.030658835545182228,
          -0.09692927449941635,
          -0.02149309776723385,
          0.03780718147754669,
          0.02125721424818039,
          0.08242817223072052,
          0.04827309772372246,
          0.07644087076187134,
          0.06037009507417679,
          0.10498987883329391,
          -0.0005581603618338704,
          0.02015279233455658,
          0.062020786106586456,
          0.09349455684423447,
          0.09491487592458725,
          0.10080157965421677,
          0.13235972821712494,
          0.060304105281829834,
          -0.015335023403167725,
          -0.1254803091287613,
          -0.1169167309999466,
          -0.13666892051696777,
          -0.06321223825216293,
          -0.028631065040826797,
          0.007487025111913681,
          0.029000956565141678,
          0.050576504319906235,
          0.07239681482315063,
          0.045273419469594955,
          -0.05245014280080795,
          0.043127287179231644,
          0.00204153242520988,
          -0.008796853013336658,
          0.013178429566323757,
          0.03593786433339119,
          0.01029908750206232,
          -0.02529696747660637,
          -0.0707693099975586,
          -0.10511299967765808,
          -0.06864340603351593,
          0.023458274081349373,
          0.12649211287498474,
          0.09617844223976135,
          0.15402166545391083,
          0.10505305975675583,
          0.04960744082927704,
          -0.03730195015668869,
          -0.15196621417999268,
          -0.19236496090888977,
          -0.11965738236904144,
          -0.086236372590065,
          -0.025780756026506424,
          0.022710300981998444,
          0.12214525789022446,
          -0.02593878284096718,
          0.040651556104421616,
          0.07385221868753433,
          -0.021725468337535858,
          0.021012766286730766,
          -0.04531741514801979,
          -0.07210297137498856,
          -0.030480433255434036,
          -0.028560731559991837,
          -0.07161975651979446,
          -0.07263900339603424,
          -0.0630788803100586,
          -0.10827433317899704,
          -0.053788136690855026,
          0.03279979154467583,
          0.07012900710105896,
          0.12396618723869324,
          0.12998974323272705,
          0.09975302219390869,
          -0.013065842911601067,
          -0.11824821680784225,
          -0.15140262246131897,
          -0.17056377232074738,
          -0.10060751438140869,
          0.0008247991790995002,
          0.09222748875617981,
          0.157464861869812,
          0.09622080624103546,
          -0.020659396424889565,
          0.03850056976079941,
          0.03704795241355896,
          -0.03952886164188385,
          -0.04425929859280586,
          -0.0682816132903099,
          -0.08956973254680634,
          -0.04906873777508736,
          -0.08161886781454086,
          -0.14266745746135712,
          -0.08650242537260056,
          -0.05476825311779976,
          -0.06002230569720268,
          0.0005855481722392142,
          0.02455923892557621,
          0.06260544806718826,
          0.09366676211357117,
          0.11222352087497711,
          0.06673112511634827,
          -0.01785297505557537,
          -0.13706053793430328,
          -0.1689264476299286,
          -0.10253756493330002,
          -0.003173862351104617,
          -0.023551682010293007,
          0.060086000710725784,
          0.1371934562921524,
          0.05572161823511124,
          0.010961494408547878,
          -0.007539595477283001,
          -0.07313244044780731,
          -0.050132717937231064,
          -0.02080446667969227,
          -0.10165806859731674,
          -0.07887881994247437,
          -0.07242169231176376,
          -0.05761338397860527,
          -0.07518430054187775,
          -0.05134492740035057,
          -0.06842294335365295,
          -0.048451125621795654,
          0.012573713436722755,
          -0.0008825414115563035,
          0.10556219518184662,
          0.1055179089307785,
          0.07277614623308182,
          0.03325201943516731,
          -0.055364251136779785,
          -0.07355321198701859,
          -0.07223927229642868,
          -0.08015599101781845,
          -0.02519732527434826,
          -0.055506765842437744,
          -0.018097711727023125,
          0.12714678049087524,
          0.038096919655799866,
          0.03988900035619736,
          -0.015410068444907665,
          -0.0025617177598178387,
          -0.08437542617321014,
          -0.028504343703389168,
          -0.06648247689008713,
          -0.057289060205221176,
          -0.04263412207365036,
          -0.004868779797106981,
          0.012338265776634216,
          0.0038852039724588394,
          0.02631693333387375,
          0.05571666732430458,
          0.030955854803323746,
          0.02222796157002449,
          0.06011855974793434,
          0.1010434627532959,
          0.035643570125103,
          -0.05255000665783882,
          -0.12793469429016113,
          -0.04878345504403114,
          -0.0356411375105381,
          -0.0027865166775882244,
          -0.05558006837964058,
          -0.015708593651652336,
          0.04022898152470589,
          0.16043604910373688,
          0.1145557314157486,
          0.02194434590637684,
          -0.07216054201126099,
          -0.06327330321073532,
          -0.09200002253055573,
          -0.11855760216712952,
          -0.07869941741228104,
          -0.11050014942884445,
          -0.024401063099503517,
          -0.0011611090740188956,
          0.03413888439536095,
          0.030297208577394485,
          0.012849557213485241,
          0.06325992196798325,
          0.07943364232778549,
          0.06917896121740341,
          0.04917614907026291,
          0.004439086187630892,
          -0.01863664574921131,
          -0.11058676987886429,
          -0.13725706934928894,
          -0.07812529802322388,
          -0.002837754786014557,
          -0.015080352313816547,
          0.018966009840369225,
          0.01142378244549036,
          0.10604848712682724,
          0.126671701669693,
          0.13668328523635864,
          0.037498392164707184,
          -0.01730801910161972,
          -0.002252860926091671,
          -0.0332343727350235,
          -0.08149018883705139,
          -0.1577834188938141,
          -0.036297619342803955,
          0.017774764448404312,
          0.03738271817564964,
          0.014084679074585438,
          0.0008356949547305703,
          0.04045500606298447,
          0.04428071156144142,
          0.06745705008506775,
          0.058517325669527054,
          -0.014612636528909206,
          -0.039777979254722595,
          -0.051426202058792114,
          -0.06646833568811417,
          -0.033534400165081024,
          -0.004338092636317015,
          -0.0017706311773508787,
          0.03950095549225807,
          -0.011416054330766201,
          0.022070281207561493,
          0.01933487132191658,
          0.13127493858337402,
          0.10346803814172745,
          -0.019626492634415627,
          0.02049705572426319,
          -0.07604348659515381,
          -0.06021283194422722,
          -0.02939707413315773,
          -0.19496308267116547,
          -0.14549529552459717,
          0.020671654492616653,
          -0.012083490379154682,
          0.03776409476995468,
          0.04842856153845787,
          0.028974132612347603,
          0.02884780429303646,
          0.08626696467399597,
          0.02049657143652439,
          -0.03893955796957016,
          -0.03793880343437195,
          -0.0454946868121624,
          -0.04087400436401367,
          -0.05529485270380974,
          -0.03464232385158539,
          0.017794320359826088,
          -0.018511109054088593,
          0.06478868424892426,
          -0.060745131224393845,
          -0.01702769473195076,
          0.09055788069963455,
          -0.001520995399914682,
          0.013803576119244099,
          -0.03173445165157318,
          -0.07986193150281906,
          -0.009337379597127438,
          -0.046481214463710785,
          -0.171444371342659,
          -0.11631879210472107,
          -0.004895723424851894,
          0.04868583008646965,
          0.03839051350951195,
          0.043618522584438324,
          -0.002840982982888818,
          0.01469507161527872,
          0.04076681658625603,
          -0.05998030677437782,
          -0.0630180835723877,
          -0.05924608185887337,
          -0.046450238674879074,
          -0.12464569509029388,
          -0.038905300199985504,
          0.022608179599046707,
          -0.0015712319873273373,
          -0.03420526534318924,
          -0.006001864559948444,
          0.04764040559530258,
          0.0012869257479906082,
          0.09279540181159973,
          -0.03732931241393089,
          -0.0327640026807785,
          0.004634977784007788,
          -0.03304215520620346,
          -0.13571520149707794,
          -0.08461463451385498,
          -0.1988551914691925,
          -0.16229498386383057,
          -0.1000465452671051,
          0.020557504147291183,
          0.029557451605796814,
          0.06397441774606705,
          0.02656349539756775,
          0.02565998025238514,
          -0.011540224775671959,
          -0.09180241823196411,
          -0.05032029747962952,
          -0.03883301094174385,
          -0.06782939285039902,
          -0.0239624734967947,
          -0.0020696409046649933,
          0.014537676237523556,
          0.041213229298591614,
          -0.00811157375574112,
          0.0015544737689197063,
          0.022919252514839172,
          -0.06202203780412674,
          -0.03017313778400421,
          -0.03378691151738167,
          -0.004041675012558699,
          -0.018447311595082283,
          -0.03484787791967392,
          -0.07320601493120193,
          -0.11218332499265671,
          -0.11134642362594604,
          -0.10218938440084457,
          -0.016329282894730568,
          0.018556738272309303,
          0.0464312843978405,
          0.06760532408952713,
          0.02203981950879097,
          0.015700921416282654,
          -0.028618641197681427,
          -0.034110840409994125,
          -0.027766946703195572,
          -0.05994294956326485,
          -0.0355699397623539,
          -0.026835720986127853,
          -0.015569555573165417,
          -0.020528797060251236,
          0.033504731953144073,
          0.023711280897259712,
          -0.015822596848011017,
          0.04127024486660957,
          0.01925591379404068,
          -0.10355356335639954,
          0.012681336142122746,
          0.016231797635555267,
          -0.012280566617846489,
          -0.0250166654586792,
          -0.10388759523630142,
          -0.12663455307483673,
          -0.06173641234636307,
          -0.011086740531027317,
          0.052990999072790146,
          -0.0026207820046693087,
          0.031431231647729874,
          0.011984053067862988,
          0.02622270956635475,
          -6.488301733043045e-05,
          -0.02487112767994404,
          -0.022668566554784775,
          0.0018163726199418306,
          -0.05523913353681564,
          -0.0515098012983799,
          -0.009760252200067043,
          -0.0002883139532059431,
          -0.007269994355738163,
          0.08157552778720856,
          0.10341224819421768,
          0.05212415009737015,
          0.050286080688238144,
          -0.03717336431145668,
          -0.0744306668639183,
          0.03217729181051254,
          0.014216266572475433,
          0.006858808919787407,
          -0.025470731779932976,
          -0.05410876125097275,
          0.041940703988075256,
          0.08682925254106522,
          -0.002580305328592658,
          0.07009472697973251,
          0.05949682369828224,
          -0.06271824985742569,
          -0.03414241969585419,
          -0.039685092866420746,
          -0.07889539003372192,
          -0.09105883538722992,
          -0.1083340272307396,
          -0.05701904743909836,
          -0.05259205028414726,
          0.023675229400396347,
          -0.04458217695355415,
          0.0020434840116649866,
          0.04759484902024269,
          0.07760994136333466,
          0.04083733260631561,
          0.04247073456645012,
          0.09883590787649155,
          0.06466855853796005,
          0.0059950384311378,
          -0.030861422419548035,
          0.014785963110625744,
          0.012226786464452744,
          -0.009598016738891602,
          -0.008791414089500904,
          0.08427099883556366,
          0.07238639146089554,
          0.046210695058107376,
          0.05817003548145294,
          0.09968648105859756,
          0.010912773199379444,
          0.043499719351530075,
          0.05114671587944031,
          -0.00545332720503211,
          -0.012227889150381088,
          0.04499400779604912,
          0.014911254867911339,
          -0.008111681789159775,
          0.017512984573841095,
          -0.01014773640781641,
          0.014511770568788052,
          -0.0024188070092350245,
          -0.026756526902318,
          -0.08672680705785751,
          -0.03185354918241501,
          -0.08369707316160202,
          0.06994140893220901,
          -0.00017643555474933237,
          -0.03366435319185257,
          0.02736356109380722,
          -0.006574311759322882,
          -0.012484465725719929,
          -0.021729115396738052,
          0.02416546270251274,
          0.052706651389598846,
          0.06279250979423523,
          0.12044600397348404,
          0.17337043583393097,
          0.219975084066391,
          0.10831038653850555,
          0.07693716883659363,
          0.07367697358131409,
          0.11679720878601074,
          0.16289673745632172,
          0.13780401647090912,
          0.10609390586614609,
          0.14503213763237,
          0.10206057131290436,
          0.08030813187360764,
          0.0879197046160698,
          0.03873786702752113,
          0.02673955261707306,
          -0.0027601406909525394,
          0.0838584154844284,
          0.04652709141373634,
          -0.01944773644208908,
          -0.01445594523102045,
          0.032655853778123856,
          -0.025495892390608788,
          0.002595867495983839,
          -0.01943126879632473,
          0.042579375207424164,
          0.05136929079890251,
          0.0965353474020958,
          0.07533269375562668,
          0.057485777884721756,
          0.09919091314077377,
          0.1395091563463211,
          0.0517892949283123,
          0.07413902133703232,
          0.10238815099000931,
          0.15954287350177765,
          0.167330801486969,
          0.09156076610088348,
          0.14021946489810944,
          0.16551466286182404,
          0.10730835795402527,
          0.012593104504048824,
          0.08183905482292175,
          0.08560645580291748,
          0.04573285952210426,
          -0.007310705725103617,
          -0.01285556424409151,
          -0.006473486311733723,
          -0.0068301050923764706
        ],
        [
          0.02172187902033329,
          -0.018484963104128838,
          -0.01417834497988224,
          0.031766049563884735,
          0.0211812574416399,
          0.03373049944639206,
          -0.028730742633342743,
          -0.03444425389170647,
          -0.01735968329012394,
          -0.012221652083098888,
          0.029458502307534218,
          0.008175820112228394,
          -0.04413461685180664,
          -0.0037627469282597303,
          0.03780623525381088,
          0.005869869142770767,
          0.015342675149440765,
          0.024118853732943535,
          -0.013217748142778873,
          -0.017235824838280678,
          -0.029690075665712357,
          -0.027977991849184036,
          0.009559712372720242,
          -0.0012266424018889666,
          -0.011555570177733898,
          0.0008231104002334177,
          -0.020261872559785843,
          -0.011424031108617783,
          -0.00527622876688838,
          -0.012506145052611828,
          -0.001242569531314075,
          -0.027789266780018806,
          -0.02580678090453148,
          -0.05716130882501602,
          -0.03269881010055542,
          -0.08425909280776978,
          -0.03405730426311493,
          -0.10390816628932953,
          -0.06339594721794128,
          -0.09052885323762894,
          -0.0978183001279831,
          -0.11378420889377594,
          0.05750248581171036,
          0.0076898266561329365,
          -0.08514808118343353,
          -0.06700775027275085,
          -0.10256877541542053,
          -0.11481186747550964,
          -0.11870887875556946,
          -0.061555709689855576,
          -0.056379616260528564,
          -0.0636046975851059,
          0.010458636097609997,
          -0.02375943399965763,
          0.01892549730837345,
          -0.016054924577474594,
          0.03381457179784775,
          -0.008293326944112778,
          0.009615913964807987,
          -0.00390617735683918,
          -0.025585990399122238,
          -0.015715217217803,
          -0.06135556101799011,
          -0.13691937923431396,
          -0.1486634463071823,
          -0.11774040758609772,
          -0.18772126734256744,
          -0.15394297242164612,
          -0.16466322541236877,
          -0.13230054080486298,
          -0.13303236663341522,
          -0.03110099397599697,
          -0.036975983530282974,
          -0.08461819589138031,
          -0.07052811980247498,
          -0.12225502729415894,
          -0.11861689388751984,
          -0.1381773203611374,
          -0.0622122660279274,
          -0.09884855151176453,
          0.021857958287000656,
          0.0236576646566391,
          -0.018389621749520302,
          0.015260386280715466,
          0.018310781568288803,
          0.026143377646803856,
          0.06957706063985825,
          0.014276093803346157,
          -0.016136273741722107,
          -0.00742226280272007,
          0.009504110552370548,
          -0.06867745518684387,
          -0.11690583825111389,
          -0.12951885163784027,
          -0.1085113137960434,
          -0.08580600470304489,
          -0.07201285660266876,
          -0.10763278603553772,
          -0.07932033389806747,
          -0.019866017624735832,
          -0.04507869482040405,
          -0.0033154322300106287,
          0.017554879188537598,
          -0.04278730973601341,
          -0.029888879507780075,
          -0.04630282148718834,
          -0.07210414111614227,
          -0.048555873334407806,
          -0.0398101843893528,
          0.01777552254498005,
          -0.05637297406792641,
          0.006071640178561211,
          -0.025761401280760765,
          0.0043901437893509865,
          0.09751209616661072,
          0.02794712409377098,
          0.04085337743163109,
          0.06415072083473206,
          0.00866025872528553,
          -0.03386067599058151,
          -0.028631551191210747,
          -0.06425777822732925,
          -0.04301970452070236,
          -0.0462203212082386,
          -0.015683401376008987,
          -0.016829034313559532,
          0.019270317628979683,
          0.05891316756606102,
          0.04213280603289604,
          1.8598162569105625e-05,
          0.023443318903446198,
          -0.01894383691251278,
          -0.041535910218954086,
          -0.06949523091316223,
          -0.07738639414310455,
          -0.10789033770561218,
          0.006114749703556299,
          0.025630049407482147,
          0.06671871989965439,
          -0.03801814094185829,
          -0.016624553129076958,
          0.02342914789915085,
          0.04576703533530235,
          0.08124636113643646,
          0.028743747621774673,
          0.08673158288002014,
          0.05647210404276848,
          0.03170355409383774,
          -0.023293234407901764,
          -0.027782363817095757,
          0.003021514741703868,
          0.02860133908689022,
          0.024708135053515434,
          0.02330567128956318,
          0.04576297849416733,
          0.05725056678056717,
          0.03331083059310913,
          -0.00684705562889576,
          -0.044455334544181824,
          -0.028685150668025017,
          -0.02516850270330906,
          -0.017086591571569443,
          -0.08596180379390717,
          -0.07895185053348541,
          -0.08560291677713394,
          0.04607516899704933,
          -0.0468381904065609,
          0.007301360368728638,
          0.017378855496644974,
          0.049155715852975845,
          0.006251214537769556,
          0.06455916911363602,
          0.013985170982778072,
          0.01796751469373703,
          0.034712668508291245,
          -0.013092254288494587,
          0.045070305466651917,
          0.006554005201905966,
          0.02977561391890049,
          0.045948680490255356,
          0.056391458958387375,
          0.035861555486917496,
          0.014250027015805244,
          -0.0004383077030070126,
          0.02324778027832508,
          -0.032684437930583954,
          0.000624725769739598,
          -0.03951917588710785,
          0.0142129585146904,
          -0.042756445705890656,
          -0.04449453949928284,
          -0.028120407834649086,
          -0.029784834012389183,
          0.020646285265684128,
          0.04520651698112488,
          0.019694754853844643,
          -0.01580975390970707,
          0.023775508627295494,
          -0.013050737790763378,
          0.05380341038107872,
          0.1280989646911621,
          0.06217847764492035,
          0.043918561190366745,
          0.03293187543749809,
          0.038255318999290466,
          0.03945952653884888,
          0.05292767658829689,
          0.017502561211586,
          0.012576867826282978,
          0.026852713897824287,
          0.0235972348600626,
          -0.012118641287088394,
          -0.013335292227566242,
          -0.010145759209990501,
          0.0017770411213859916,
          0.029589351266622543,
          -0.012542110867798328,
          -0.03328346461057663,
          -0.00935435015708208,
          0.00947237852960825,
          -0.05821777135133743,
          -0.0037814993411302567,
          0.028719404712319374,
          -0.002765720011666417,
          -0.028583088889718056,
          -0.10408749431371689,
          0.026781411841511726,
          0.053574614226818085,
          0.08018819987773895,
          0.08815459907054901,
          0.03865302354097366,
          0.058515168726444244,
          0.007064067292958498,
          0.03434380143880844,
          0.02184315398335457,
          -0.04319552332162857,
          0.022680697962641716,
          0.008836529217660427,
          -0.04116126522421837,
          0.03132421895861626,
          -0.03243475407361984,
          -0.009929029271006584,
          0.036930639296770096,
          0.06224069744348526,
          0.029703613370656967,
          0.047577355057001114,
          0.019226310774683952,
          0.004464870318770409,
          0.028917601332068443,
          0.0765683501958847,
          0.12992852926254272,
          0.031331829726696014,
          -0.040344443172216415,
          -0.1061345785856247,
          0.04122789949178696,
          0.06041586399078369,
          0.09554368257522583,
          0.009924789890646935,
          0.08931050449609756,
          0.05238494277000427,
          0.04426734894514084,
          -0.0037815498653799295,
          0.007904276251792908,
          -0.06776759773492813,
          -0.050335533916950226,
          -0.008006826043128967,
          -0.031799256801605225,
          0.03730873763561249,
          0.03362319990992546,
          0.06173866242170334,
          0.039985738694667816,
          0.03809438645839691,
          0.07086552679538727,
          0.05013609305024147,
          0.08132640272378922,
          0.03697165474295616,
          -0.03278730809688568,
          0.07043404132127762,
          0.1575459986925125,
          -0.07879053801298141,
          -0.02367253601551056,
          -0.02049093134701252,
          -0.05143316462635994,
          0.0528472363948822,
          0.07499038428068161,
          -0.010861759074032307,
          0.020842617377638817,
          0.012139450758695602,
          -0.00956798531115055,
          -0.033053770661354065,
          -0.014998567290604115,
          -0.04773138090968132,
          -0.030748531222343445,
          -0.003154774196445942,
          0.034027229994535446,
          0.0724901407957077,
          0.0321163684129715,
          0.023250699043273926,
          0.05193041265010834,
          0.056127775460481644,
          0.05452034994959831,
          0.020545214414596558,
          0.07272645086050034,
          0.060637105256319046,
          -0.014559884555637836,
          0.06295888125896454,
          0.0195004902780056,
          0.03792395442724228,
          -0.019468966871500015,
          -0.06369742006063461,
          -0.05856799706816673,
          0.07542316615581512,
          -0.0062326667830348015,
          -0.05509471520781517,
          -0.07019784301519394,
          -0.010254202410578728,
          -0.0397048220038414,
          -0.003743068315088749,
          0.002992290537804365,
          0.02733970433473587,
          0.06752070039510727,
          0.08045128732919693,
          0.058538686484098434,
          0.09363166242837906,
          -0.016666045412421227,
          0.027145883068442345,
          0.03051169589161873,
          0.031184904277324677,
          0.038771577179431915,
          -0.03245599940419197,
          -0.01281170267611742,
          0.011519258841872215,
          0.09807094186544418,
          0.1260583996772766,
          0.13338205218315125,
          0.014496095478534698,
          -0.014138342812657356,
          -0.04709566757082939,
          -0.08275153487920761,
          0.02590414136648178,
          -0.004398736637085676,
          -0.029724761843681335,
          -0.06940269470214844,
          0.01743195578455925,
          -0.05264294147491455,
          0.0013485681265592575,
          0.03610534965991974,
          0.06490887701511383,
          0.09097675234079361,
          0.1137804165482521,
          0.10661144554615021,
          0.0912940576672554,
          0.027908718213438988,
          0.0042687105014920235,
          -0.0035514761693775654,
          0.041729386895895004,
          0.01302922423928976,
          -0.028678491711616516,
          -0.061797525733709335,
          0.01354819256812334,
          0.05149383470416069,
          0.07309093326330185,
          0.03963516280055046,
          -0.01729353331029415,
          0.018808765336871147,
          -0.0752682015299797,
          -0.11184415966272354,
          -0.02561924420297146,
          -0.03465968370437622,
          -0.06747254729270935,
          -0.03264778107404709,
          -0.017346026375889778,
          0.006943477317690849,
          0.08968338370323181,
          0.021254535764455795,
          0.10811858624219894,
          0.06449783593416214,
          0.09749378263950348,
          0.1269974410533905,
          0.10434116423130035,
          0.05255318805575371,
          0.09597360342741013,
          0.06284473091363907,
          -0.0264190211892128,
          -0.007789197377860546,
          0.030187319964170456,
          0.003185211680829525,
          -0.0461566187441349,
          -0.011035822331905365,
          0.08418761193752289,
          0.038645073771476746,
          -0.033898573368787766,
          0.014504726976156235,
          0.0023929441813379526,
          -0.08233825117349625,
          -0.002601361135020852,
          -0.030956139788031578,
          -0.08402273803949356,
          -0.08335200697183609,
          -0.06468074768781662,
          -0.012135065160691738,
          -0.0009208943811245263,
          0.019521750509738922,
          0.05759203061461449,
          0.09672670066356659,
          0.11410451680421829,
          0.10228457301855087,
          0.1314968466758728,
          0.0841044932603836,
          0.12829066812992096,
          0.06885655224323273,
          -0.043062012642621994,
          -0.04217546433210373,
          0.02660314179956913,
          -0.03775520250201225,
          -0.022915666922926903,
          -0.04050338268280029,
          0.06649810820817947,
          0.015933964401483536,
          -0.04696651175618172,
          -0.04386167973279953,
          0.06164833903312683,
          0.08364404737949371,
          0.027163635939359665,
          -0.05350582301616669,
          -0.13216237723827362,
          -0.10414937883615494,
          -0.08156344294548035,
          -0.04598739743232727,
          0.026638289913535118,
          0.027988092973828316,
          0.0494287833571434,
          0.09003883600234985,
          0.136478453874588,
          0.17135074734687805,
          0.1201029121875763,
          0.13679897785186768,
          0.0513552725315094,
          -0.01024489663541317,
          -0.04394030570983887,
          -0.009009283035993576,
          -0.01474226638674736,
          0.044745150953531265,
          0.05329078808426857,
          -0.030649268999695778,
          0.022516755387187004,
          0.08406836539506912,
          -0.031460314989089966,
          -0.03109334222972393,
          0.09629922360181808,
          0.0828794315457344,
          0.0449790395796299,
          -0.018493417650461197,
          -0.09414134919643402,
          -0.06896962970495224,
          -0.06872840970754623,
          -0.0679967850446701,
          -0.032251082360744476,
          -0.03372199460864067,
          -0.03132800757884979,
          0.07679970562458038,
          0.14063668251037598,
          0.16809223592281342,
          0.10138584673404694,
          0.06641749292612076,
          -0.006852710619568825,
          -0.03568278253078461,
          -0.05462031066417694,
          -0.06553718447685242,
          -0.04585808143019676,
          0.02870425581932068,
          0.06372859328985214,
          0.060258664190769196,
          -0.05797496438026428,
          -0.0180475115776062,
          -0.072968028485775,
          -0.020291781052947044,
          0.0707741528749466,
          0.0599885992705822,
          0.05384222790598869,
          0.01406310498714447,
          -0.0304210614413023,
          -0.05843617022037506,
          -0.0350126288831234,
          -0.03881660848855972,
          -0.09118802845478058,
          -0.13152605295181274,
          -0.07763117551803589,
          0.05274612084031105,
          0.05925986170768738,
          0.0550101101398468,
          0.04663467779755592,
          0.0026513617485761642,
          -0.0684180036187172,
          -0.07509129494428635,
          -0.005320347845554352,
          -0.07377150654792786,
          0.00834790151566267,
          0.04395151138305664,
          0.019538987427949905,
          0.06090850755572319,
          -0.17267365753650665,
          -0.020650120452046394,
          -0.03586786240339279,
          -0.06814218312501907,
          0.028068387880921364,
          0.052935268729925156,
          0.06871095299720764,
          -0.010031172074377537,
          0.0007328145438805223,
          0.00968012772500515,
          -0.033421121537685394,
          -0.05618071183562279,
          -0.10033971071243286,
          -0.1281575858592987,
          -0.10951068252325058,
          -0.06770297884941101,
          -0.05609950050711632,
          0.0031409449875354767,
          -0.042641229927539825,
          -0.015064522624015808,
          -0.038056813180446625,
          -0.08292365819215775,
          -0.030264994129538536,
          0.010225096717476845,
          -0.021948317065835,
          0.04959576949477196,
          -0.02792096883058548,
          -0.056648507714271545,
          -0.14894737303256989,
          -0.0533495657145977,
          -0.08823254704475403,
          0.02850515954196453,
          -0.09088483452796936,
          -0.028061047196388245,
          0.0417795293033123,
          0.006542494986206293,
          0.034078437834978104,
          0.0030140371527522802,
          -0.035327740013599396,
          -0.09933146089315414,
          -0.049575697630643845,
          -0.09558571130037308,
          -0.1998247653245926,
          -0.1586426943540573,
          -0.10477795451879501,
          -0.11129981279373169,
          -0.0902603417634964,
          0.0014591730432584882,
          -0.028202174231410027,
          -0.015792760998010635,
          -0.015085691586136818,
          -0.05574032664299011,
          -0.020545262843370438,
          -0.0004195485671516508,
          0.032837867736816406,
          -0.051071975380182266,
          -0.04540350288152695,
          -0.03606553375720978,
          -0.004095955286175013,
          -0.02845386601984501,
          0.01067188661545515,
          -0.044032249599695206,
          0.032418131828308105,
          0.03671536222100258,
          0.029829131439328194,
          0.03922382369637489,
          0.020577920600771904,
          -0.058410000056028366,
          -0.03375998139381409,
          -0.1283489167690277,
          -0.15013177692890167,
          -0.14463651180267334,
          -0.12149497121572495,
          -0.09225694835186005,
          -0.0340292789041996,
          -0.01046261377632618,
          0.03586824610829353,
          0.0074447933584451675,
          0.01093327160924673,
          0.00760818924754858,
          0.0028202729299664497,
          0.00226817699149251,
          0.017069587484002113,
          -0.06735031306743622,
          -0.039478790014982224,
          -0.028103159740567207,
          -0.017342491075396538,
          -0.021336348727345467,
          0.0410073958337307,
          0.043408431112766266,
          0.028476586565375328,
          0.029194869101047516,
          0.02510485053062439,
          0.08071699738502502,
          0.06207611411809921,
          0.002509591868147254,
          -0.0319637656211853,
          -0.06978882849216461,
          -0.04166736826300621,
          -0.09496112167835236,
          -0.07772281020879745,
          -0.01833067648112774,
          9.132970444625244e-05,
          0.0024243060033768415,
          -0.015247879549860954,
          -0.0016081591602414846,
          0.023848695680499077,
          -0.016908688470721245,
          -0.02145705185830593,
          -0.016903001815080643,
          -0.0638626292347908,
          -0.1301523894071579,
          -0.07110104709863663,
          -0.06967275589704514,
          -0.02423887699842453,
          -0.021317966282367706,
          0.0026344801299273968,
          0.02711636573076248,
          0.031255871057510376,
          0.012696911580860615,
          0.04996673762798309,
          0.05502310022711754,
          0.04482467845082283,
          0.03025173768401146,
          0.02315274067223072,
          0.002702344674617052,
          0.002102874917909503,
          -0.01470217015594244,
          -0.038277726620435715,
          -0.016231372952461243,
          0.023541893810033798,
          -0.021222012117505074,
          0.00930376723408699,
          0.035453006625175476,
          0.0011257161386311054,
          -0.008389200083911419,
          0.018963729962706566,
          -0.03378967195749283,
          -0.04728811979293823,
          -0.11099471896886826,
          -0.0384780652821064,
          -0.08931135386228561,
          -0.0269983671605587,
          -0.0011671185493469238,
          0.029547637328505516,
          0.026022471487522125,
          0.12269973754882812,
          0.09495189040899277,
          0.006992989219725132,
          0.06386398524045944,
          0.048019975423812866,
          -0.009209885261952877,
          0.012481564655900002,
          0.0018429934279993176,
          0.04927347972989082,
          -0.018600165843963623,
          0.019379571080207825,
          0.010141842998564243,
          0.021739322692155838,
          0.01565544120967388,
          0.05666932091116905,
          0.02033715695142746,
          0.04639841988682747,
          -0.010503609664738178,
          -0.03868916258215904,
          -0.05469924211502075,
          -0.07437697798013687,
          -0.08610700815916061,
          -0.08856986463069916,
          -0.017728764563798904,
          0.006073304917663336,
          -0.0002264125068904832,
          0.02917122095823288,
          0.04695981740951538,
          0.08924751728773117,
          0.11999955773353577,
          0.060564469546079636,
          0.09041929990053177,
          0.10420200973749161,
          0.040731240063905716,
          0.04885226860642433,
          0.07336513698101044,
          0.0596991702914238,
          0.04052925482392311,
          0.0711321160197258,
          0.048117365688085556,
          0.030381260439753532,
          0.05513796955347061,
          -0.01365125086158514,
          -0.07737820595502853,
          -0.04229070246219635,
          0.023195257410407066,
          -0.011776523664593697,
          0.0006996670854277909,
          0.054761312901973724,
          -0.15016913414001465,
          -0.03400224447250366,
          -0.06312795728445053,
          -0.03247794136404991,
          0.01971101015806198,
          0.020623918622732162,
          0.03119666501879692,
          -0.08056102693080902,
          -0.05734981223940849,
          0.06894413381814957,
          0.09783830493688583,
          0.0734243243932724,
          0.1390257179737091,
          0.16890303790569305,
          0.10177843272686005,
          0.061551813036203384,
          0.10236476361751556,
          0.06640439480543137,
          0.05273435637354851,
          -0.0008918141247704625,
          0.0012191780842840672,
          -0.025256555527448654,
          0.028912127017974854,
          0.04063328728079796,
          0.04485131800174713,
          -0.040835507214069366,
          -0.08965545892715454,
          -0.030422747135162354,
          -0.0857635885477066,
          -0.06374872475862503,
          -0.013870324939489365,
          0.01431927178055048,
          0.023819604888558388,
          0.01812049373984337,
          -0.0019970026332885027,
          -0.020480889827013016,
          0.05931220203638077,
          0.06132261082530022,
          0.031864430755376816,
          0.03940366953611374,
          -0.0060320147313177586,
          0.030271785333752632,
          0.06852010637521744,
          0.04089862480759621,
          0.03178587928414345,
          -0.041547682136297226,
          0.0050661698915064335,
          -0.02864057756960392,
          -0.012906627729535103,
          0.004059863276779652,
          -0.018515463918447495,
          -0.08239561319351196,
          -0.08929962664842606,
          -0.05214954540133476,
          -0.08272102475166321,
          0.018088212236762047,
          0.07705003023147583,
          0.00016706626047380269,
          0.006068468559533358,
          -0.034495849162340164,
          0.005006521940231323,
          -0.0049081360921263695,
          0.004184305667877197,
          0.0016969102434813976,
          -0.03628891706466675,
          -0.06261039525270462,
          -0.007631626911461353,
          -0.01910633035004139,
          -0.02778400294482708,
          -0.06009051203727722,
          -0.07992240786552429,
          0.016855891793966293,
          0.033050063997507095,
          -0.044600002467632294,
          -0.05300135165452957,
          0.024114467203617096,
          -0.030920816585421562,
          -0.03706057369709015,
          -0.019337840378284454,
          -0.06377807259559631,
          -0.0634627491235733,
          -0.020735973492264748,
          -0.022703610360622406,
          -0.03040291555225849,
          0.0326807014644146,
          0.019572854042053223,
          0.0014220562297850847,
          -0.02065283991396427
        ],
        [
          -0.028494201600551605,
          -0.007570820394903421,
          -0.027506515383720398,
          -0.02325977198779583,
          -0.002501794369891286,
          -0.01111083384603262,
          0.024097885936498642,
          0.03283365070819855,
          0.02740354835987091,
          0.02859843336045742,
          -0.006072180811315775,
          -0.012981010600924492,
          -0.08899478614330292,
          -0.07733483612537384,
          0.022252969443798065,
          0.050799380987882614,
          0.018702704459428787,
          -0.012236271984875202,
          0.024197621271014214,
          -0.033267367631196976,
          0.00045318264164961874,
          -0.022689782083034515,
          0.004750839434564114,
          0.027964074164628983,
          0.031788818538188934,
          0.026457566767930984,
          -0.027807317674160004,
          0.02070874534547329,
          0.012129826471209526,
          -0.02495626173913479,
          2.842715912265703e-05,
          -0.01392278540879488,
          -0.02698439732193947,
          -0.05348138138651848,
          -0.07715830951929092,
          -0.07357139140367508,
          -0.08747123926877975,
          -0.09443595260381699,
          -0.14285410940647125,
          -0.15295836329460144,
          -0.1289210468530655,
          -0.10245352983474731,
          0.0037177009508013725,
          -0.050379347056150436,
          0.02308451198041439,
          -0.0326143242418766,
          -0.0897177904844284,
          -0.17926320433616638,
          -0.16861775517463684,
          -0.06412439793348312,
          -0.030958104878664017,
          -0.059274956583976746,
          0.01886923424899578,
          -0.01863832212984562,
          -0.020311027765274048,
          -0.02864813059568405,
          0.007972721941769123,
          0.029937805607914925,
          -0.002062175888568163,
          -0.04365774616599083,
          -0.12079459428787231,
          -0.05866864323616028,
          -0.049090463668107986,
          -0.1582953780889511,
          -0.023186512291431427,
          0.056071314960718155,
          0.01963476464152336,
          -0.018418164923787117,
          -0.022145135328173637,
          -0.05396376922726631,
          0.02184838056564331,
          -0.06107615306973457,
          -0.01945371739566326,
          -0.03535075858235359,
          -0.049724139273166656,
          -0.14912346005439758,
          -0.056729428470134735,
          -0.12592989206314087,
          -0.15405941009521484,
          -0.15046952664852142,
          0.02440034970641136,
          0.0035623086150735617,
          0.011931705288589,
          -0.0020192181691527367,
          -0.03113737888634205,
          0.02319214679300785,
          -0.04111848771572113,
          -0.07465342432260513,
          -0.1269216388463974,
          0.014964691363275051,
          0.03029107116162777,
          0.06047164648771286,
          0.08675927668809891,
          0.04400506243109703,
          0.05473107099533081,
          0.11024598032236099,
          0.06902170926332474,
          0.04652891308069229,
          0.04351923242211342,
          0.06776463240385056,
          0.03994831442832947,
          0.023356102406978607,
          0.0065614995546638966,
          -0.017091115936636925,
          -0.050108183175325394,
          -0.0609869547188282,
          -0.05076773837208748,
          -0.08680426329374313,
          -0.04004017636179924,
          0.03466023877263069,
          -0.05558495223522186,
          0.015233623795211315,
          -0.012763368897140026,
          0.03668723627924919,
          0.011042551137506962,
          -0.002542954869568348,
          -0.020848913118243217,
          0.07944806665182114,
          0.09068254381418228,
          0.0878421813249588,
          0.06488686054944992,
          0.08555115759372711,
          0.04076772928237915,
          0.04641568660736084,
          0.05220777541399002,
          0.004879539366811514,
          0.014172251336276531,
          0.012308484874665737,
          0.0679885521531105,
          0.07513149082660675,
          0.03473585844039917,
          0.05084975063800812,
          -0.007002428639680147,
          -0.026243314146995544,
          -0.04060697555541992,
          -0.0994245707988739,
          0.017708459869027138,
          0.11827412247657776,
          0.05757981538772583,
          -0.0102598387748003,
          -0.03520660847425461,
          0.0042263357900083065,
          0.0368017740547657,
          0.04277608543634415,
          0.04676395282149315,
          0.025822341442108154,
          0.02285880781710148,
          0.010157306678593159,
          -0.03001268208026886,
          -0.049567218869924545,
          -0.05029475688934326,
          -0.04175948724150658,
          -0.026946766301989555,
          -0.0375131331384182,
          -0.007430633530020714,
          0.006709111854434013,
          0.05322239175438881,
          0.09190681576728821,
          0.04024605453014374,
          0.0880545824766159,
          0.04997273162007332,
          0.07515936344861984,
          0.09709815680980682,
          0.00909291673451662,
          0.08301947265863419,
          0.13005991280078888,
          -0.05871005728840828,
          -0.003295153146609664,
          -0.034607209265232086,
          0.05458610877394676,
          0.002907529706135392,
          0.0013698128750547767,
          0.028260737657546997,
          0.04935358837246895,
          -0.023597940802574158,
          -0.0003028858045581728,
          -0.05076931044459343,
          -0.029628317803144455,
          -0.05028606951236725,
          -0.06922734528779984,
          -0.09359350800514221,
          -0.05725989118218422,
          -0.03136322274804115,
          -0.025826312601566315,
          -0.017923148348927498,
          0.017891215160489082,
          0.027722014114260674,
          0.0531853511929512,
          0.058178722858428955,
          0.0011963228462263942,
          0.07451824098825455,
          0.08022894710302353,
          0.10713666677474976,
          0.042800094932317734,
          0.004966724663972855,
          0.008338017389178276,
          -0.04155149683356285,
          0.08101855963468552,
          -0.025774149224162102,
          -0.032783374190330505,
          0.12373048067092896,
          0.08753155171871185,
          0.03924587741494179,
          -0.039066169410943985,
          -0.03995814919471741,
          -0.04446195438504219,
          -0.07282181084156036,
          -0.07585515826940536,
          -0.022561533376574516,
          -0.014914648607373238,
          -0.0033891734201461077,
          -0.041530791670084,
          -0.0440305657684803,
          -0.021913845092058182,
          -0.02218833565711975,
          0.03847827762365341,
          -0.019159452989697456,
          0.02941722609102726,
          0.050357624888420105,
          0.07194188982248306,
          0.04385891556739807,
          0.11993453651666641,
          0.07524900883436203,
          -0.0013129373546689749,
          0.027650965377688408,
          -0.056058838963508606,
          0.03860129415988922,
          -0.011583874933421612,
          0.0532749742269516,
          -0.004970367066562176,
          -0.03192092850804329,
          -0.05672428011894226,
          -0.05667382478713989,
          -0.06232544407248497,
          -0.017450232058763504,
          -0.01958344131708145,
          0.029571812599897385,
          0.03516904637217522,
          0.04607274755835533,
          -0.008050845004618168,
          0.02235039882361889,
          0.04419279471039772,
          0.05282588303089142,
          0.046960677951574326,
          0.03603754937648773,
          0.015428770333528519,
          0.08502963930368423,
          0.05843256041407585,
          0.01121984701603651,
          0.08248608559370041,
          0.1516060084104538,
          0.1027345135807991,
          -0.027619222179055214,
          -0.037651579827070236,
          0.009328224696218967,
          -0.0019514629384502769,
          0.017768094316124916,
          0.039849795401096344,
          0.0007980444352142513,
          -0.0536520853638649,
          -0.0447789765894413,
          -0.06809873878955841,
          -0.04695276916027069,
          -0.014272306114435196,
          0.05057825520634651,
          0.0613187812268734,
          0.04522152990102768,
          0.04586603119969368,
          0.07272635400295258,
          0.07494036108255386,
          0.06781051307916641,
          0.055176492780447006,
          0.09164480119943619,
          0.03859890252351761,
          0.04100722819566727,
          0.07131414115428925,
          -0.036647260189056396,
          0.0483894906938076,
          0.026027612388134003,
          -0.06727191805839539,
          -0.011064092628657818,
          -0.04770265519618988,
          -0.027511022984981537,
          0.015610219910740852,
          0.014999259263277054,
          0.024246567860245705,
          -0.025740623474121094,
          -0.07171614468097687,
          -0.06907135993242264,
          -0.09103133529424667,
          -0.07770921289920807,
          -0.013349125161767006,
          0.04017970338463783,
          0.017989402636885643,
          0.007547476794570684,
          -0.0009184691589325666,
          0.052711907774209976,
          0.036403872072696686,
          0.06935541331768036,
          0.07056380063295364,
          0.01589038409292698,
          0.009554439224302769,
          0.053183332085609436,
          0.016081124544143677,
          -0.07463428378105164,
          -0.07020998746156693,
          -0.011362692341208458,
          -0.03275925666093826,
          -0.04844965040683746,
          -0.008818530477583408,
          -0.096019446849823,
          0.03250611573457718,
          -0.0010715024545788765,
          0.0011007535504177213,
          -0.028502944856882095,
          -0.035273026674985886,
          -0.0731223076581955,
          -0.07726332545280457,
          -0.060736238956451416,
          -0.011296920478343964,
          0.0807931125164032,
          -0.004902214743196964,
          -0.040130212903022766,
          -0.026793263852596283,
          -0.044880423694849014,
          0.004706353880465031,
          0.011166254058480263,
          0.059947140514850616,
          -0.018215643242001534,
          -0.021692870184779167,
          -0.027090534567832947,
          -0.07018698751926422,
          -0.025834882631897926,
          0.10028325766324997,
          0.06354372203350067,
          -0.036889150738716125,
          -0.0345044769346714,
          -0.09273485839366913,
          -0.05619211494922638,
          -0.043629005551338196,
          -0.05705680698156357,
          -0.023708045482635498,
          -0.037314265966415405,
          -0.09937357902526855,
          -0.12110660970211029,
          -0.010997597128152847,
          0.0060736034065485,
          0.08007476478815079,
          0.14316749572753906,
          0.06980627030134201,
          0.05698295682668686,
          -0.025867249816656113,
          0.007350004743784666,
          -0.03427208587527275,
          -0.0033565256744623184,
          0.014471800066530704,
          -0.027787966653704643,
          -0.054898619651794434,
          -0.06906299293041229,
          -0.11597677320241928,
          0.002166996244341135,
          0.0671222060918808,
          0.03669816628098488,
          -0.018181992694735527,
          0.0025797009002417326,
          -0.05564119666814804,
          -0.1138777807354927,
          -0.01636793464422226,
          -0.09756895899772644,
          -0.02462689019739628,
          -0.057449642568826675,
          -0.09717923402786255,
          -0.009550975635647774,
          0.0058279200457036495,
          -0.02324644848704338,
          0.10307580232620239,
          0.10635725408792496,
          0.14041580259799957,
          0.08551554381847382,
          0.004451814107596874,
          0.0271061509847641,
          0.03872193396091461,
          0.060769397765398026,
          0.004277782514691353,
          -0.0037917259614914656,
          -0.061942048370838165,
          -0.018972400575876236,
          -0.02927139401435852,
          0.009901800192892551,
          0.09748558700084686,
          0.10011628270149231,
          0.06893938779830933,
          -0.04024190828204155,
          -0.012953895144164562,
          -0.11095216125249863,
          -0.039441999047994614,
          -0.024260329082608223,
          -0.050443097949028015,
          -0.053696196526288986,
          -0.011216966435313225,
          0.0054084304720163345,
          0.01022314839065075,
          0.046227164566516876,
          0.0831625834107399,
          0.06691557168960571,
          0.12512488663196564,
          0.09540598839521408,
          0.04017136991024017,
          0.04234883189201355,
          0.01924133487045765,
          0.044797081500291824,
          0.03332613781094551,
          -0.04423151910305023,
          -0.007044782862067223,
          -0.09525256603956223,
          -0.11896895617246628,
          -0.026616234332323074,
          0.05873153731226921,
          0.1153208389878273,
          0.054968852549791336,
          -0.01791144721210003,
          0.05821704491972923,
          0.05416998639702797,
          0.015113215893507004,
          0.10620138794183731,
          0.058129698038101196,
          -0.012276418507099152,
          0.012859704904258251,
          -0.005774574354290962,
          0.011141444556415081,
          -0.010369724594056606,
          0.04859212413430214,
          0.03856688737869263,
          0.1062859371304512,
          0.057865794748067856,
          0.0777161493897438,
          0.06489154696464539,
          0.0593014694750309,
          0.008715326897799969,
          0.058194562792778015,
          -0.03804580867290497,
          -0.022381333634257317,
          0.0012766097206622362,
          0.013449414633214474,
          0.01935887150466442,
          0.11672568321228027,
          0.1696363240480423,
          0.06308703869581223,
          -0.012323749251663685,
          0.0968974381685257,
          0.05734777823090553,
          0.12543396651744843,
          0.10734482854604721,
          0.01637185923755169,
          0.019680416211485863,
          0.0012775512877851725,
          0.021052125841379166,
          0.06706652045249939,
          0.02372155338525772,
          0.057824086397886276,
          0.10752460360527039,
          0.0717538520693779,
          0.05018973350524902,
          0.08155419677495956,
          0.05143476650118828,
          0.030446425080299377,
          0.07972719520330429,
          0.059583161026239395,
          0.026780499145388603,
          0.035036150366067886,
          0.04126232862472534,
          0.09627058357000351,
          0.12207558006048203,
          0.1066911369562149,
          0.14995618164539337,
          0.04494713246822357,
          -0.0332350879907608,
          0.03388318046927452,
          0.05819866433739662,
          0.12109160423278809,
          0.12652947008609772,
          0.08749071508646011,
          0.033026207238435745,
          0.10948199778795242,
          0.04524071142077446,
          0.08283240348100662,
          0.051534928381443024,
          0.034958843141794205,
          0.08858127146959305,
          0.061214629560709,
          0.032812632620334625,
          0.02796744741499424,
          0.03737571835517883,
          0.05941268801689148,
          0.03798862174153328,
          0.07843410968780518,
          -0.00023463685647584498,
          0.03205469250679016,
          0.01729162596166134,
          0.02516927383840084,
          0.03641507402062416,
          0.038239460438489914,
          0.07841990143060684,
          0.01996258832514286,
          -0.041343625634908676,
          0.010894632898271084,
          0.028770271688699722,
          0.11045308411121368,
          0.11226081103086472,
          0.09684181213378906,
          0.14766104519367218,
          0.03754730150103569,
          0.06078507378697395,
          0.006144407670944929,
          0.034729812294244766,
          0.03993135318160057,
          0.04289611056447029,
          0.009857635013759136,
          0.005735053680837154,
          0.047948598861694336,
          0.09549713134765625,
          0.031780995428562164,
          0.06305275857448578,
          -0.0014731043484061956,
          0.022305507212877274,
          0.033842962235212326,
          0.027692031115293503,
          0.03967202082276344,
          0.0041130357421934605,
          0.045956213027238846,
          0.0228507649153471,
          0.11035247147083282,
          -0.004307051654905081,
          -0.059783950448036194,
          -0.02676236256957054,
          0.0319577157497406,
          0.07417502999305725,
          0.10669546574354172,
          0.11374752223491669,
          0.07546615600585938,
          0.036137115210294724,
          0.019301999360322952,
          0.03731923550367355,
          0.005684274714440107,
          0.008739855140447617,
          0.0376167893409729,
          0.02890724688768387,
          0.03441431373357773,
          0.06406601518392563,
          0.058681849390268326,
          0.06455027312040329,
          0.01891683228313923,
          -0.024787461385130882,
          0.05980673432350159,
          0.042667798697948456,
          0.04597233235836029,
          -0.050682757049798965,
          -0.025503959506750107,
          0.0500466451048851,
          -0.006766042206436396,
          0.0014365188544616103,
          -0.0215532798320055,
          0.020789628848433495,
          0.05236709117889404,
          0.05446555092930794,
          0.03775236755609512,
          0.06890902668237686,
          0.1226261556148529,
          0.054676372557878494,
          0.05749700590968132,
          0.017995189875364304,
          -0.010587889701128006,
          -0.019155321642756462,
          0.01566876657307148,
          0.02149106375873089,
          -0.0033274306915700436,
          0.04824339970946312,
          0.016680026426911354,
          0.028058473020792007,
          0.028542999178171158,
          0.07561011612415314,
          0.02841649018228054,
          0.06537619233131409,
          0.03751475736498833,
          -0.08540809899568558,
          -0.05630171298980713,
          0.0029309282545000315,
          -0.045790690928697586,
          -0.059961769729852676,
          0.04446348920464516,
          0.1224721223115921,
          0.11857230216264725,
          -0.013516456820070744,
          0.008183042518794537,
          0.03096006251871586,
          0.07489769905805588,
          -0.010690446943044662,
          -0.005440004635602236,
          -0.016211628913879395,
          0.02356770634651184,
          -0.0498514361679554,
          0.00506123760715127,
          -0.01728932186961174,
          -0.025520073249936104,
          -0.015003832057118416,
          0.05812199413776398,
          0.01873047836124897,
          0.020754879340529442,
          0.009324444457888603,
          -0.008696818724274635,
          0.05158860236406326,
          0.0906023308634758,
          -0.037945691496133804,
          -0.09254569560289383,
          -0.008848544210195541,
          0.004828302655369043,
          -0.030224332585930824,
          0.007588271517306566,
          0.09586331993341446,
          0.11663266271352768,
          -0.031902000308036804,
          -0.05080112814903259,
          0.00907545629888773,
          0.010935342870652676,
          -0.0021850629709661007,
          0.004755943547934294,
          -0.0033263915684074163,
          0.03480435907840729,
          0.021297339349985123,
          0.014641358517110348,
          -0.011644139885902405,
          -0.01826525293290615,
          -0.03708349168300629,
          -0.0015480763977393508,
          0.022932756692171097,
          0.04509295895695686,
          0.03542431443929672,
          0.051903486251831055,
          0.03694264590740204,
          0.06345456093549728,
          0.021330637857317924,
          -0.044700395315885544,
          -0.08375542610883713,
          -0.015400444157421589,
          -0.016038039699196815,
          0.01835239864885807,
          0.04601242020726204,
          0.10536526888608932,
          0.016884695738554,
          -0.04191654548048973,
          -0.03187878057360649,
          0.04983670637011528,
          0.04667602479457855,
          0.04228917136788368,
          0.04491814598441124,
          0.01815621368587017,
          -0.005847522523254156,
          0.012399275787174702,
          -0.026743454858660698,
          -0.0341019332408905,
          0.010921548120677471,
          0.02410498633980751,
          0.10726305097341537,
          0.04528441280126572,
          0.08743761479854584,
          0.07954143732786179,
          0.022454675287008286,
          0.07512211799621582,
          0.004082116298377514,
          -0.005589858163148165,
          -0.055281125009059906,
          -0.03079807385802269,
          -0.008355950005352497,
          0.020889125764369965,
          0.02215588092803955,
          0.041352760046720505,
          0.0047046588733792305,
          -0.05618196725845337,
          -0.019697239622473717,
          0.04768902808427811,
          0.01625315472483635,
          0.012819926254451275,
          -0.011229989118874073,
          0.031014708802103996,
          0.03134028613567352,
          0.050610076636075974,
          0.054682761430740356,
          0.025341395288705826,
          0.04835949093103409,
          -0.0035100155510008335,
          0.01812918670475483,
          0.030106736347079277,
          0.0035929991863667965,
          0.02862834930419922,
          -0.0026890612207353115,
          0.019298257306218147,
          0.052096035331487656,
          0.0901414155960083,
          0.04980035871267319,
          -0.02440655790269375,
          -0.020403970032930374,
          0.018529139459133148,
          0.052116524428129196,
          -0.08441218733787537,
          -0.07575852423906326,
          -0.01007254607975483,
          0.015348953194916248,
          0.017859475687146187,
          -0.027811631560325623,
          0.022065984085202217,
          0.01648975908756256,
          0.012953830882906914,
          -0.022930579259991646,
          0.016428982838988304,
          0.02934163808822632,
          -0.018131600692868233,
          0.0115838423371315,
          0.021340981125831604,
          -0.004550393205136061,
          -0.018193792551755905,
          -0.07778400182723999,
          -0.07121401280164719,
          -0.03519346937537193,
          0.011714105494320393,
          -0.05591978877782822,
          0.036586031317710876,
          -0.0003101971233263612,
          -0.001183705753646791,
          -0.029069574549794197,
          -0.0171065591275692,
          -0.02360234223306179,
          -0.03986174240708351,
          -0.006980100646615028,
          0.03151681274175644,
          -0.041178688406944275,
          -0.08834336698055267,
          -0.07808492332696915,
          -0.11594695597887039,
          -0.055585600435733795,
          -0.041985806077718735,
          -0.08598737418651581,
          -0.08340062201023102,
          -0.13889318704605103,
          -0.09639635682106018,
          -0.0845792144536972,
          -0.0886724516749382,
