{
  "format": "mnist_mlp_json_v1",
  "model": {
    "name": "MNISTMLP",
    "input_shape": [
      1,
      28,
      28
    ],
    "layers": [
      {
        "type": "Flatten"
      },
      {
        "type": "Linear",
        "in_features": 784,
        "out_features": 128
      },
      {
        "type": "ApproximateGELU",
        "coefficients": {
          "constant": 0.0676209,
          "linear": 0.5,
          "quadratic": 0.48257484,
          "quartic": -0.06659632
        }
      },
      {
        "type": "Linear",
        "in_features": 128,
        "out_features": 64
      },
      {
        "type": "ApproximateGELU",
        "coefficients": {
          "constant": 0.0676209,
          "linear": 0.5,
          "quadratic": 0.48257484,
          "quartic": -0.06659632
        }
      },
      {
        "type": "Linear",
        "in_features": 64,
        "out_features": 10
      }
    ],
    "outputs": {
      "classes": [
        0,
        1,
        2,
        3,
        4,
        5,
        6,
        7,
        8,
        9
      ],
      "activation": "softmax for probabilities"
    }
  },
  "preprocessing": {
    "input": "white ink on black background",
    "convert": "grayscale",
    "autocontrast": true,
    "crop_threshold": 20,
    "resize_ink_to_max": [
      20,
      20
    ],
    "output_shape": [
      1,
      28,
      28
    ],
    "scale": "pixel values divided by 255"
  },
  "checkpoint": {
    "source": "artifacts/mnist_mlp.pt",
    "test_accuracy": 0.9649
  },
  "tensors": {
    "network.1.weight": {
      "dtype": "float32",
      "shape": [
        128,
        784
      ],
      "data": [
        [
          0.031577616930007935,
          0.015005397610366344,
          -0.00379889365285635,
          0.015984944999217987,
          0.035146862268447876,
          0.031383104622364044,
          -0.0033505773171782494,
          -0.010148270055651665,
          0.024503342807292938,
          0.018686985597014427,
          0.03239315003156662,
          0.021086284890770912,
          0.12195237725973129,
          0.11362963169813156,
          0.01558850146830082,
          0.004926665220409632,
          -0.024184104055166245,
          0.024732476100325584,
          -0.014156095683574677,
          0.019871916621923447,
          -0.006500661838799715,
          -0.03092893213033676,
          -0.034211914986371994,
          -0.024631572887301445,
          -0.018862295895814896,
          -0.006242858711630106,
          -0.0034153079614043236,
          0.0017131142085418105,
          -0.013997865840792656,
          0.013508882373571396,
          -0.0006652006413787603,
          0.014831083826720715,
          0.04345095530152321,
          0.09558577835559845,
          0.2918878495693207,
          0.10944105684757233,
          0.1653410792350769,
          0.05156466364860535,
          0.14964145421981812,
          0.16342726349830627,
          0.16324709355831146,
          0.08240596204996109,
          -0.07270969450473785,
          0.35468047857284546,
          0.3187389373779297,
          0.35270562767982483,
          0.33114346861839294,
          0.2851262092590332,
          0.21071664988994598,
          0.07361029088497162,
          0.03998846933245659,
          0.14806559681892395,
          -0.02415546402335167,
          -0.030185462906956673,
          0.003007876221090555,
          -0.018110327422618866,
          -0.02697800099849701,
          0.002402688842266798,
          0.046341557055711746,
          0.09058211743831635,
          0.27675163745880127,
          0.237631157040596,
          0.23687279224395752,
          0.35583558678627014,
          0.13259342312812805,
          -0.03869408369064331,
          0.03544967249035835,
          0.16630671918392181,
          0.15737323462963104,
          0.21541355550289154,
          0.11115328967571259,
          0.12846393883228302,
          0.17278717458248138,
          0.04955931007862091,
          0.04526205360889435,
          0.05857982486486435,
          0.06312917172908783,
          0.13962064683437347,
          0.09573354572057724,
          0.25689253211021423,
          0.03057597205042839,
          -0.026997681707143784,
          0.028397664427757263,
          -0.008218973875045776,
          -0.030722524970769882,
          -0.006737918127328157,
          0.20468397438526154,
          0.2951701283454895,
          0.00656123599037528,
          0.045144468545913696,
          0.2534716725349426,
          0.1775389462709427,
          0.03756393864750862,
          -0.054487962275743484,
          -0.07336907088756561,
          -0.06770320981740952,
          -0.06890586018562317,
          -0.023505454882979393,
          -0.15262341499328613,
          -0.028329387307167053,
          0.01815927028656006,
          0.05926784500479698,
          0.030526652932167053,
          0.09156619012355804,
          0.19017742574214935,
          0.14925353229045868,
          0.15922220051288605,
          -0.00612326106056571,
          -0.34939733147621155,
          -0.2535003423690796,
          -0.22870264947414398,
          -0.031222060322761536,
          -0.008326700888574123,
          0.0020765794906765223,
          0.15316952764987946,
          0.1212618499994278,
          -0.0022720678243786097,
          -0.12183550745248795,
          -0.025741565972566605,
          -0.07263403385877609,
          -0.093528613448143,
          -0.0785330981016159,
          -0.008454757742583752,
          -0.13477662205696106,
          -0.08853434026241302,
          -0.05111520364880562,
          0.0024746113922446966,
          -0.006270800717175007,
          -0.03752243146300316,
          -0.02793388068675995,
          0.0035117329098284245,
          0.08934871852397919,
          0.031056316569447517,
          0.014107445254921913,
          -0.09818201512098312,
          -0.19659915566444397,
          -0.31482696533203125,
          -0.2151688039302826,
          0.06000794842839241,
          0.20081564784049988,
          0.023044442757964134,
          0.012843613512814045,
          0.3397916853427887,
          -0.2586650550365448,
          -0.2300761193037033,
          -0.07559792697429657,
          -0.019606055691838264,
          -0.033241141587495804,
          -0.06676727533340454,
          -0.10148805379867554,
          -0.07278548181056976,
          -0.07331225275993347,
          -0.0011586035834625363,
          -0.00949812587350607,
          -0.015709225088357925,
          -0.024775318801403046,
          -0.002111359965056181,
          -0.030052337795495987,
          0.013849027454853058,
          0.007631308399140835,
          -0.01604774035513401,
          0.04533212631940842,
          0.01760529913008213,
          -0.009444382973015308,
          -0.028252726420760155,
          -0.13433276116847992,
          -0.13050472736358643,
          0.1487155258655548,
          0.006029563490301371,
          -0.07182995229959488,
          -0.04467201605439186,
          0.06566909700632095,
          0.021192587912082672,
          0.010675650089979172,
          -0.054586343467235565,
          -0.06897157430648804,
          -0.05543190613389015,
          -0.03850032016634941,
          -0.018761303275823593,
          -0.011998224072158337,
          0.031165145337581635,
          0.03339337557554245,
          0.06311524659395218,
          0.04343617334961891,
          0.03877616673707962,
          -0.01361717190593481,
          0.038635626435279846,
          0.011947540566325188,
          0.02976621314883232,
          0.003897659946233034,
          -0.026064816862344742,
          -0.05835653468966484,
          -0.023235280066728592,
          -0.03914185240864754,
          -0.2958337962627411,
          -0.1652061492204666,
          0.008043492212891579,
          -0.09755630046129227,
          -0.13430051505565643,
          0.01878163032233715,
          -0.008347244001924992,
          0.010605885647237301,
          -0.029964393004775047,
          -0.06471125036478043,
          -0.1073918342590332,
          -0.05926535651087761,
          -0.01993485540151596,
          0.03206658363342285,
          0.061581145972013474,
          0.08917353302240372,
          0.06283241510391235,
          0.016786281019449234,
          0.0037390340585261583,
          -0.018098006024956703,
          -0.031096357852220535,
          -0.012552797794342041,
          0.010957597754895687,
          -0.007891297340393066,
          -0.04411568120121956,
          -0.10465352237224579,
          -0.08156481385231018,
          -0.16313126683235168,
          -0.2394869476556778,
          -0.23948468267917633,
          -0.06627216935157776,
          -0.005063504911959171,
          -0.17441998422145844,
          -0.0396755151450634,
          -0.07413065433502197,
          -0.01814616657793522,
          -0.025860542431473732,
          -0.0077669876627624035,
          -0.05648471415042877,
          -0.03211125731468201,
          0.024620238691568375,
          0.05296644568443298,
          0.03986448049545288,
          0.054583966732025146,
          0.0293814018368721,
          -0.02036927081644535,
          -0.10592564195394516,
          -0.06317342072725296,
          -0.0750550776720047,
          -0.042725902050733566,
          -0.021280989050865173,
          -0.06584246456623077,
          -0.025575360283255577,
          -0.05624103173613548,
          -0.053476233035326004,
          -0.14462144672870636,
          0.013796437531709671,
          -0.21038784086704254,
          -0.09787371009588242,
          0.03814436122775078,
          -0.13644029200077057,
          0.007102850824594498,
          -0.07345625758171082,
          -0.011748552322387695,
          -0.013360489159822464,
          0.047626253217458725,
          0.03518137335777283,
          0.04640491306781769,
          0.07266511768102646,
          0.04913817718625069,
          0.05942300707101822,
          0.037871744483709335,
          0.03659345954656601,
          -0.044394638389348984,
          -0.06683190166950226,
          -0.10311388969421387,
          -0.0879368707537651,
          -0.05858942121267319,
          -0.10181212425231934,
          -0.08311472833156586,
          -0.07403314113616943,
          -0.05754721164703369,
          -0.025070907548069954,
          -0.05315898731350899,
          0.09132310003042221,
          0.18570290505886078,
          -0.048403073102235794,
          0.05126892402768135,
          -0.04662360996007919,
          -0.03178054466843605,
          -0.043803226202726364,
          0.04267865791916847,
          0.03896353021264076,
          0.053348906338214874,
          0.008107942529022694,
          0.018128564581274986,
          0.009652292355895042,
          0.015693210065364838,
          -0.005297270603477955,
          0.06836044043302536,
          0.002963149221614003,
          0.03581669554114342,
          -0.04611232131719589,
          -0.011694774962961674,
          -0.09111518412828445,
          -0.043839991092681885,
          -0.06383772939443588,
          -0.04059887304902077,
          -0.008209634572267532,
          -0.06857670098543167,
          -0.08814689517021179,
          0.01453233603388071,
          0.11040478944778442,
          0.1528317928314209,
          -0.07956140488386154,
          0.009251613169908524,
          -0.028973910957574844,
          -0.020145678892731667,
          0.04128095507621765,
          0.09223282337188721,
          0.0301127340644598,
          0.08479046821594238,
          0.016686083748936653,
          0.030253399163484573,
          0.054976850748062134,
          0.023214714601635933,
          -0.023293092846870422,
          0.08188733458518982,
          0.09915732592344284,
          0.051483895629644394,
          0.04898893088102341,
          -0.008084725588560104,
          -0.022699328139424324,
          0.020005708560347557,
          0.012198630720376968,
          0.02932986617088318,
          0.008678660728037357,
          0.0017675480339676142,
          -0.00825440976768732,
          -0.14211514592170715,
          -0.1875447928905487,
          0.28072693943977356,
          -0.08725298941135406,
          -0.07223881036043167,
          0.03084799088537693,
          0.08101723343133926,
          0.1199483796954155,
          0.06691975891590118,
          0.060149211436510086,
          0.027527855709195137,
          0.04257502779364586,
          0.07506075501441956,
          -0.04911753162741661,
          -0.034814588725566864,
          0.008664505556225777,
          0.06493641436100006,
          0.09364026039838791,
          0.023255594074726105,
          0.023287804797291756,
          0.034437261521816254,
          -0.0029303489718586206,
          0.030594130977988243,
          0.03861489146947861,
          0.06511010974645615,
          0.09244148433208466,
          0.04668247327208519,
          0.06422966718673706,
          -0.16070686280727386,
          -0.19363127648830414,
          0.33899784088134766,
          0.15458907186985016,
          0.002316372701898217,
          0.0732375755906105,
          0.10754203051328659,
          0.06927388161420822,
          0.042817600071430206,
          0.03619436174631119,
          -0.01766350492835045,
          0.028985880315303802,
          -0.002674109535291791,
          0.01333465613424778,
          -0.08928485959768295,
          -0.065593421459198,
          0.03798038139939308,
          0.019247151911258698,
          0.0016640933463349938,
          -0.03067394159734249,
          0.005181170534342527,
          0.00665301363915205,
          0.056064777076244354,
          -0.024824725463986397,
          0.051968544721603394,
          0.08828406035900116,
          0.07097949832677841,
          0.07513114809989929,
          -0.15404100716114044,
          -0.3045811951160431,
          0.07293053716421127,
          -0.13509923219680786,
          -0.015707019716501236,
          0.09654022008180618,
          0.04122239351272583,
          -0.05465817078948021,
          -0.042820025235414505,
          0.03409367427229881,
          0.03320715203881264,
          0.031106313690543175,
          0.04419143497943878,
          0.00799088180065155,
          -0.05360996350646019,
          -0.03827741742134094,
          0.036207448691129684,
          0.000145927129779011,
          0.018456479534506798,
          -0.04046386107802391,
          -0.09650687873363495,
          -0.011103487573564053,
          -0.010544898919761181,
          0.0272637028247118,
          0.012264599092304707,
          0.08816803991794586,
          0.07907197624444962,
          0.01024861354380846,
          -0.06291943043470383,
          -0.057884808629751205,
          0.021716028451919556,
          -0.11339583247900009,
          -0.11596793681383133,
          -0.15362633764743805,
          0.037838228046894073,
          -0.1411786824464798,
          -0.009047710336744785,
          0.011485095135867596,
          -0.06360763311386108,
          0.005837845150381327,
          -0.02515820972621441,
          -0.02894124574959278,
          -0.060951896011829376,
          -0.036139149218797684,
          0.01452332641929388,
          -0.005680691450834274,
          -0.03920045122504234,
          -0.04556890204548836,
          -0.05777774751186371,
          -0.0012562598567456007,
          -0.026052171364426613,
          0.0899161696434021,
          0.10182831436395645,
          0.05566132441163063,
          0.03424474969506264,
          -0.005766245070844889,
          -0.10735291987657547,
          -0.2763775885105133,
          -0.08848991990089417,
          0.19942061603069305,
          -0.06186920031905174,
          0.008498670533299446,
          0.009760385379195213,
          -0.03929571434855461,
          0.03659562021493912,
          -0.033679988235235214,
          0.005810167640447617,
          0.009407591074705124,
          -0.04189099743962288,
          -0.05617191269993782,
          -0.07142487168312073,
          -0.02664077654480934,
          -0.027597526088356972,
          0.03473138064146042,
          -0.05179902911186218,
          -0.018822282552719116,
          -0.03082985430955887,
          -0.03427683189511299,
          0.027269266545772552,
          0.05789090320467949,
          0.04985645040869713,
          0.0575050450861454,
          -0.012152301147580147,
          -0.015294849872589111,
          -0.07148680090904236,
          0.005147518124431372,
          -0.005298093892633915,
          -0.026041248813271523,
          -0.07628384232521057,
          -0.04604581743478775,
          -0.019109591841697693,
          -0.011009818874299526,
          0.015282494947314262,
          -0.03970159962773323,
          -0.0479823499917984,
          -0.07045873999595642,
          -0.0737927034497261,
          0.009866391308605671,
          0.007727770134806633,
          0.009949157014489174,
          0.047323599457740784,
          0.030671728774905205,
          -0.020877594128251076,
          -0.02102285623550415,
          -0.03422069177031517,
          0.04401608556509018,
          0.030020317062735558,
          0.06546121090650558,
          0.019187862053513527,
          0.06603773683309555,
          -0.05121855437755585,
          -0.06531447172164917,
          -0.20179809629917145,
          0.19191138446331024,
          0.20067353546619415,
          -0.10485492646694183,
          -0.13602447509765625,
          -0.032064974308013916,
          0.008785788901150227,
          -0.05357227101922035,
          -0.032061222940683365,
          -0.017925433814525604,
          -0.02529890462756157,
          -0.03270409628748894,
          -0.025857077911496162,
          0.0595090389251709,
          0.052054207772016525,
          0.003140551270917058,
          0.041369035840034485,
          0.001964164199307561,
          0.002188724232837558,
          -0.027514595538377762,
          0.026295898482203484,
          0.05614115670323372,
          0.051565930247306824,
          -0.01758364960551262,
          -0.05858254432678223,
          0.002338465303182602,
          -0.05462850257754326,
          -0.11806125938892365,
          -0.04415992274880409,
          0.24788972735404968,
          0.1237604022026062,
          0.09124922007322311,
          0.29528307914733887,
          0.0797710120677948,
          0.016681039705872536,
          -0.019818641245365143,
          -0.04981055110692978,
          -0.00938661303371191,
          -0.04359426721930504,
          -0.013966056518256664,
          -0.02161065675318241,
          -0.014349349774420261,
          0.015988359227776527,
          0.06009414792060852,
          0.03278562054038048,
          0.014800766482949257,
          -0.04743032529950142,
          0.007902414537966251,
          -0.01323909405618906,
          0.05266822874546051,
          0.011097992770373821,
          -0.0496661402285099,
          -0.03205199912190437,
          -0.08207769691944122,
          -0.05509687587618828,
          -0.06179738789796829,
          -0.05136248096823692,
          0.05782538279891014,
          0.15418429672718048,
          0.01248384453356266,
          0.11716864258050919,
          0.04619330167770386,
          0.013774115592241287,
          -0.05451985076069832,
          -0.07839050143957138,
          -0.021345505490899086,
          -0.03365622088313103,
          -0.004288479685783386,
          -0.002677871845662594,
          0.02777021750807762,
          0.01039195153862238,
          0.07918542623519897,
          -0.013652956113219261,
          0.02790185622870922,
          -0.023310521617531776,
          0.027544179931282997,
          0.03919104114174843,
          0.07457602024078369,
          0.005161150358617306,
          -0.07371313124895096,
          -0.06106995418667793,
          -0.04091818630695343,
          -0.07977143675088882,
          -0.013259596191346645,
          -0.06591807305812836,
          0.11065282672643661,
          0.2205362170934677,
          0.16216522455215454,
          -0.16132918000221252,
          -0.1570054441690445,
          -0.0760987177491188,
          -0.09390126913785934,
          -0.04272611811757088,
          -0.028412863612174988,
          -0.03730056807398796,
          0.039415545761585236,
          0.02086701989173889,
          0.0814923569560051,
          0.04714712128043175,
          0.0674448311328888,
          0.038781940937042236,
          0.06508251279592514,
          0.047641295939683914,
          0.03327292203903198,
          0.05445876345038414,
          0.06089317798614502,
          -0.022615157067775726,
          0.004204898606985807,
          2.349979695281945e-06,
          -0.03006911277770996,
          -0.005636405199766159,
          0.011421400122344494,
          -0.011343427002429962,
          0.01472755242139101,
          -0.20446819067001343,
          0.14234887063503265,
          -0.03739964962005615,
          -0.2605881989002228,
          -0.01991678588092327,
          -0.05030066519975662,
          -0.015830624848604202,
          -0.0950976237654686,
          -0.039341673254966736,
          0.02789132110774517,
          -0.01629296876490116,
          0.03888217359781265,
          -0.05313460901379585,
          -0.011341318488121033,
          -0.001810409827157855,
          0.05855056270956993,
          0.049548204988241196,
          0.06392017006874084,
          0.03430696576833725,
          0.04374295845627785,
          0.0438784584403038,
          0.03813118115067482,
          0.015923473984003067,
          0.008028649725019932,
          0.02139376290142536,
          0.016914768144488335,
          0.05397212505340576,
          0.05271540582180023,
          -0.22382961213588715,
          -0.028317997232079506,
          0.014449400827288628,
          -0.1495177149772644,
          -0.08925022184848785,
          -0.10218395292758942,
          -0.06090036407113075,
          -0.01746298186480999,
          0.015828732401132584,
          0.0187065526843071,
          0.03910106420516968,
          -0.012958528473973274,
          -0.06585434824228287,
          -0.05179385095834732,
          -0.03204834833741188,
          0.030173173174262047,
          0.03038937784731388,
          0.03233359381556511,
          0.04115170240402222,
          0.02644936554133892,
          0.02719740942120552,
          0.004515959415584803,
          -0.069284588098526,
          -0.002818251494318247,
          -0.0582306869328022,
          -0.04539530351758003,
          -0.09895728528499603,
          0.13510063290596008,
          0.0173947811126709,
          0.031969308853149414,
          -0.031893059611320496,
          -0.11164700239896774,
          -0.1785374879837036,
          -0.0349716916680336,
          -0.03231164813041687,
          -0.18957358598709106,
          -0.07691696286201477,
          -0.0459456667304039,
          -0.006611529737710953,
          -0.05895981192588806,
          -0.14798501133918762,
          -0.13982275128364563,
          -0.11332368105649948,
          -0.05786353722214699,
          -0.009965196251869202,
          -0.01631147600710392,
          0.09077233076095581,
          -0.0293714702129364,
          -0.05602376163005829,
          0.05354006960988045,
          0.03692029416561127,
          0.01470859907567501,
          0.07614915072917938,
          0.22355994582176208,
          0.20507009327411652,
          0.23587198555469513,
          0.015329446643590927,
          -0.00408981554210186,
          -0.02985844574868679,
          0.06695770472288132,
          -0.020181169733405113,
          0.21902181208133698,
          0.09866085648536682,
          -0.029537711292505264,
          -0.1335897594690323,
          -0.019939791411161423,
          -0.13473443686962128,
          -0.1712404489517212,
          -0.15199267864227295,
          -0.1100369468331337,
          -0.11317288130521774,
          0.06284860521554947,
          -0.00889925379306078,
          0.03838608041405678,
          0.0008808784768916667,
          -0.0018426596652716398,
          0.07080593705177307,
          0.021524665877223015,
          0.07240604609251022,
          0.03246169909834862,
          -0.02932441048324108,
          -0.08703833818435669,
          0.19006380438804626,
          0.03651080280542374,
          0.013023036532104015,
          -0.009199355728924274,
          -0.020655270665884018,
          0.017860766500234604,
          -0.048931051045656204,
          0.15940232574939728,
          0.17700514197349548,
          0.23737844824790955,
          0.1785886436700821,
          -0.020433146506547928,
          0.00024362340627703816,
          0.1077803298830986,
          0.2354055643081665,
          0.017959237098693848,
          -0.001640831003896892,
          0.1826917678117752,
          0.04070606455206871,
          0.06614454835653305,
          0.05778566002845764,
          0.1507619172334671,
          0.17496949434280396,
          0.18890786170959473,
          0.12364170700311661,
          0.08971627801656723,
          0.21829690039157867,
          0.19607919454574585,
          0.043166786432266235,
          -0.009592789225280285,
          -0.025663388893008232,
          -0.020974798128008842,
          0.00459622498601675,
          0.028790930286049843,
          -0.013768337666988373,
          -0.057914476841688156,
          -0.08378516137599945,
          -0.12130506336688995,
          -0.08546830713748932,
          -0.08140269666910172,
          -0.01500251516699791,
          0.22730858623981476,
          0.1979684680700302,
          0.16630250215530396,
          0.055999062955379486,
          0.10249227285385132,
          -0.07912122458219528,
          0.16688819229602814,
          0.07892777770757675,
          0.014536073431372643,
          0.18656431138515472,
          0.11656469851732254,
          0.24513567984104156,
          0.013248811475932598,
          0.03544392064213753,
          -0.019537534564733505,
          -0.010551917366683483,
          0.03554777055978775,
          -0.0029611545614898205
        ],
        [
          0.019901344552636147,
          -0.013813415542244911,
          -0.0129935871809721,
          -0.017087988555431366,
          0.004344991408288479,
          0.024708429351449013,
          -0.01931661367416382,
          -0.015116279013454914,
          -0.005874783266335726,
          0.018288208171725273,
          -0.014231452718377113,
          -0.03289834409952164,
          0.07673393934965134,
          0.09931416809558868,
          0.05236099287867546,
          0.03176794946193695,
          -0.02789878100156784,
          0.0018213051371276379,
          0.02550829015672207,
          0.02484424225986004,
          0.032248616218566895,
          -0.015446783043444157,
          -0.024534333497285843,
          -0.013607826083898544,
          0.032298967242240906,
          0.03465535119175911,
          -0.030584927648305893,
          0.008864049799740314,
          -0.005135928280651569,
          0.016988635063171387,
          0.02770315483212471,
          0.006260999944061041,
          0.04811937361955643,
          -0.01770612597465515,
          0.005305162630975246,
          0.027270445600152016,
          0.039631955325603485,
          -0.048829782754182816,
          -0.07825540006160736,
          -0.05316410958766937,
          -0.007004767656326294,
          -0.0047875456511974335,
          -0.04592965170741081,
          -0.0769725888967514,
          0.012998299673199654,
          0.01541292853653431,
          0.13289237022399902,
          0.09795268625020981,
          0.12803103029727936,
          0.05687110126018524,
          0.07535792142152786,
          0.0835818499326706,
          0.020924266427755356,
          -0.018489724025130272,
          -0.014512995257973671,
          -0.014814573340117931,
          -0.030683651566505432,
          0.035545311868190765,
          0.17356635630130768,
          0.08251555263996124,
          0.22958198189735413,
          -5.985993266222067e-05,
          -0.1332785040140152,
          -0.05707778036594391,
          -0.055505529046058655,
          -0.009407177567481995,
          0.022885987535119057,
          0.05689834803342819,
          -0.029431499540805817,
          -0.07034064829349518,
          -0.1999293714761734,
          -0.06572677940130234,
          -0.07460546493530273,
          -0.12463832646608353,
          -0.0517798475921154,
          0.204498291015625,
          0.147081196308136,
          0.030758557841181755,
          0.043329913169145584,
          0.16975174844264984,
          0.006841425783932209,
          0.03996511176228523,
          0.0034508707467466593,
          -0.01019836775958538,
          -0.02384634129703045,
          0.029510440304875374,
          -0.22332684695720673,
          0.10455534607172012,
          0.12734141945838928,
          0.070304274559021,
          0.011671661399304867,
          0.04009898006916046,
          -0.030655937269330025,
          -0.07803785055875778,
          -0.01437375694513321,
          0.03637765347957611,
          0.03363976627588272,
          -0.12457351386547089,
          -0.026117123663425446,
          -0.04682694002985954,
          -0.0033947385381907225,
          0.0857221707701683,
          0.01754704862833023,
          0.027447409927845,
          0.18651962280273438,
          -0.036820460110902786,
          -0.15376895666122437,
          -0.11484745144844055,
          -0.0450921356678009,
          -0.1657152622938156,
          0.08632875233888626,
          0.03486674278974533,
          -0.01987377740442753,
          0.009710255078971386,
          -0.11376623064279556,
          -0.0332307368516922,
          -0.16503384709358215,
          0.045934468507766724,
          0.017745304852724075,
          -0.040268268436193466,
          -0.10433187335729599,
          -0.1154458224773407,
          -0.08043879270553589,
          -0.06091766431927681,
          -0.032212190330028534,
          -0.005046063102781773,
          -0.09361483156681061,
          -0.007813624106347561,
          -0.005866172257810831,
          0.014114059507846832,
          0.008987551555037498,
          -0.015515402890741825,
          0.0321209542453289,
          -0.05597332492470741,
          -0.10966683179140091,
          -0.07022563368082047,
          0.05065721645951271,
          0.057479485869407654,
          0.015123407356441021,
          0.04988515004515648,
          0.029749024659395218,
          0.010916820727288723,
          -0.0026837456971406937,
          0.012179994955658913,
          -0.07626692205667496,
          0.05894703045487404,
          0.006596086546778679,
          -0.06518843024969101,
          -0.02956254780292511,
          -0.028256960213184357,
          -0.010508214123547077,
          -0.05775895714759827,
          -0.06245024874806404,
          -0.03288992866873741,
          -0.058671750128269196,
          0.0018026201287284493,
          0.08121342957019806,
          0.01106773316860199,
          0.08249295502901077,
          0.026033323258161545,
          -0.038106050342321396,
          -0.09308658540248871,
          -0.011809068731963634,
          0.019188588485121727,
          -0.007825138978660107,
          -0.11020788550376892,
          0.04702800139784813,
          0.17794197797775269,
          -0.02374817244708538,
          0.0728049948811531,
          0.1762818545103073,
          0.1503061205148697,
          0.03087760880589485,
          0.016367755830287933,
          -0.023615336045622826,
          -0.023804282769560814,
          -0.01276659220457077,
          -0.007624866906553507,
          -0.08602223545312881,
          -0.014865306206047535,
          -0.06948382407426834,
          -0.009758190251886845,
          -0.01521897129714489,
          -0.04134446009993553,
          -0.0272007267922163,
          -0.051055725663900375,
          -0.037072766572237015,
          -0.03494984656572342,
          -0.03953501954674721,
          -0.07066594064235687,
          0.022948140278458595,
          0.0013120328076183796,
          0.09811332076787949,
          0.03501894697546959,
          -0.04170984774827957,
          0.019434116780757904,
          0.02025713585317135,
          0.15655440092086792,
          -0.06206876412034035,
          0.17739064991474152,
          -0.000969241198617965,
          0.03011064976453781,
          0.054739512503147125,
          0.03193090111017227,
          0.0621582567691803,
          -0.0036840783432126045,
          -0.04310411214828491,
          -0.03440285846590996,
          -0.027834990993142128,
          -0.04308692738413811,
          -0.0025523127987980843,
          -0.0061949617229402065,
          -0.012024064548313618,
          -0.01275626104325056,
          -0.01757444441318512,
          -0.01705373451113701,
          -0.05408674106001854,
          -0.08615288138389587,
          -0.03383796289563179,
          0.01682903803884983,
          0.08810245990753174,
          0.2023857980966568,
          0.011780817061662674,
          -0.020954091101884842,
          0.3029097020626068,
          -0.0825604796409607,
          -0.3206656277179718,
          -0.009014797396957874,
          -0.07019467651844025,
          -0.002251890953630209,
          0.055158063769340515,
          0.01295500248670578,
          -0.024478953331708908,
          -0.03880133852362633,
          -0.05715670809149742,
          -0.006275421939790249,
          0.001642524148337543,
          -0.04616266489028931,
          -0.022580958902835846,
          0.007454375270754099,
          -0.060447756201028824,
          -0.044021133333444595,
          -0.06731457263231277,
          -0.007517198100686073,
          0.0023396392352879047,
          0.02018212527036667,
          -0.0051328931003808975,
          0.02748248353600502,
          0.1099780946969986,
          0.18886178731918335,
          -0.15732300281524658,
          -0.07164058089256287,
          -0.04958384111523628,
          -0.18329697847366333,
          -0.3361350893974304,
          -0.005685396958142519,
          0.007449890021234751,
          -0.005134881008416414,
          -0.030311016365885735,
          -0.017610372975468636,
          -0.02190883830189705,
          -0.046682585030794144,
          -0.060088496655225754,
          -0.012240312062203884,
          -0.038385648280382156,
          0.007597543299198151,
          0.03845908120274544,
          -0.02803076058626175,
          -0.03976764902472496,
          -0.06394875049591064,
          -0.08118125796318054,
          -0.0232930276542902,
          -0.0014589104102924466,
          3.334591747261584e-05,
          -0.011091290973126888,
          -0.001616629888303578,
          0.01319490373134613,
          -0.14713825285434723,
          0.023556649684906006,
          -0.05885583907365799,
          -0.10818462073802948,
          -0.06089925765991211,
          -0.12999051809310913,
          0.0014460320817306638,
          -0.009503587149083614,
          0.00020262980251573026,
          0.008615374565124512,
          -0.011237047612667084,
          -0.04110391438007355,
          -0.059259966015815735,
          -0.10873080044984818,
          -0.05763740465044975,
          -0.08868085592985153,
          0.06380030512809753,
          0.02164122276008129,
          0.02956380322575569,
          -0.003876352682709694,
          -0.0347723662853241,
          -0.023724500089883804,
          -0.025195131078362465,
          0.032884661108255386,
          0.05566932633519173,
          0.0440550334751606,
          0.018822552636265755,
          0.08803386241197586,
          0.05013614520430565,
          -0.053325314074754715,
          -0.28893548250198364,
          -0.02690058760344982,
          0.14803043007850647,
          -0.02506796270608902,
          0.0272256750613451,
          -0.017141981050372124,
          -0.056070782244205475,
          -0.04716305434703827,
          -0.017236407846212387,
          -0.024945050477981567,
          -0.13514530658721924,
          -0.026199419051408768,
          -0.07382018864154816,
          0.05268511548638344,
          0.06027303636074066,
          0.0717262476682663,
          0.041348569095134735,
          -0.041937798261642456,
          -0.08336483687162399,
          -0.003285992657765746,
          0.04159993305802345,
          0.01222842838615179,
          -0.04243294149637222,
          0.024062346667051315,
          -0.08121922612190247,
          -0.03596264496445656,
          0.19281889498233795,
          -0.16134513914585114,
          -0.11300759017467499,
          0.0166870579123497,
          -0.12322196364402771,
          -0.3416825234889984,
          -0.025001659989356995,
          -0.017798151820898056,
          -0.03394059091806412,
          -0.030817054212093353,
          0.03055250458419323,
          0.03462079167366028,
          -0.032769907265901566,
          0.031876228749752045,
          0.07096752524375916,
          0.15133246779441833,
          0.2089785486459732,
          0.1258256584405899,
          0.024484185501933098,
          0.016862336546182632,
          -0.018564820289611816,
          -0.05145152285695076,
          -0.026927541941404343,
          -0.04401761293411255,
          -0.027800338342785835,
          -0.07379353046417236,
          -0.096709243953228,
          -0.12256581336259842,
          0.026547683402895927,
          0.05723940208554268,
          0.004812604747712612,
          0.028428617864847183,
          -0.09548822790384293,
          -0.20609289407730103,
          0.04146212711930275,
          0.014206075109541416,
          -0.052703678607940674,
          -0.0085567282512784,
          0.026259832084178925,
          0.03419121727347374,
          -0.019699783995747566,
          0.10245190560817719,
          0.0445876345038414,
          0.13304509222507477,
          0.08414393663406372,
          0.003145141527056694,
          -0.06606671214103699,
          0.01975475624203682,
          0.04229554161429405,
          0.05271032080054283,
          -0.02107282355427742,
          -0.06115317717194557,
          -0.06910774111747742,
          -0.10299716889858246,
          -0.028875965625047684,
          -0.017710760235786438,
          0.06697767227888107,
          -0.00177576276473701,
          0.11931193619966507,
          0.1728496104478836,
          -0.014615407213568687,
          -0.09985478222370148,
          0.06927000731229782,
          0.03331856429576874,
          -0.018673574551939964,
          0.04039798304438591,
          0.08857978880405426,
          0.041372865438461304,
          0.002958892146125436,
          0.026237521320581436,
          -0.025967737659811974,
          0.04463203623890877,
          -0.0533909946680069,
          -0.06225213035941124,
          -0.03171183168888092,
          -0.02243456058204174,
          0.04168245941400528,
          0.031128032132983208,
          0.03350135311484337,
          -0.018439535051584244,
          0.013413580134510994,
          -0.038048893213272095,
          -0.017970582470297813,
          0.06188307702541351,
          -0.016561800613999367,
          -0.016138920560479164,
          -0.04609409347176552,
          0.17531026899814606,
          -0.015373200178146362,
          -0.02494031935930252,
          0.03433430194854736,
          0.04865533858537674,
          -0.006128670647740364,
          0.02232068032026291,
          -0.024252554401755333,
          -0.004547147545963526,
          -0.03553767129778862,
          -0.041013047099113464,
          -0.03255034610629082,
          0.027760403230786324,
          -0.11116266995668411,
          -0.09324504435062408,
          0.010586823336780071,
          0.013415022753179073,
          0.04261479526758194,
          0.07469529658555984,
          0.029745908454060555,
          0.023476704955101013,
          0.04965014383196831,
          -0.0031789173372089863,
          0.038744863122701645,
          0.09051964432001114,
          -0.0023257953580468893,
          0.06702259927988052,
          0.07455426454544067,
          -0.13476431369781494,
          0.005563684273511171,
          -0.09227705001831055,
          0.009262763895094395,
          0.06400260329246521,
          0.01068115420639515,
          -0.10308618098497391,
          -0.03533538430929184,
          -0.08626940846443176,
          -0.08857431262731552,
          -0.08870453387498856,
          -0.07995101809501648,
          -0.06383049488067627,
          -0.012731521390378475,
          -0.03578739985823631,
          -0.0139061463996768,
          0.00010823344200616702,
          0.09928209334611893,
          0.0606209971010685,
          0.03157047554850578,
          0.0935656875371933,
          0.06983575969934464,
          0.039989035576581955,
          0.007612303830683231,
          0.0016086040996015072,
          0.014077902771532536,
          0.18810142576694489,
          0.0014788586413487792,
          -0.01711086370050907,
          0.027362849563360214,
          -0.15246309340000153,
          -0.01887340471148491,
          0.03391942009329796,
          0.03490031138062477,
          0.015231847763061523,
          -0.014364068396389484,
          -0.016641894355416298,
          -0.06696990132331848,
          -0.032096441835165024,
          0.003190201474353671,
          -0.05896448716521263,
          -0.04714878275990486,
          -0.03458959609270096,
          -0.0012577393790706992,
          0.016113366931676865,
          0.09558074921369553,
          0.0368511937558651,
          0.03374282643198967,
          -0.017809772863984108,
          -0.020668378099799156,
          0.010978751815855503,
          0.008872084319591522,
          -0.09076322615146637,
          -0.3187008500099182,
          -0.22354689240455627,
          0.10432512313127518,
          -0.3711276650428772,
          0.09639625996351242,
          -0.13236568868160248,
          0.04427487775683403,
          0.01855512335896492,
          0.06289419531822205,
          0.0183324683457613,
          -0.005270177498459816,
          0.057741180062294006,
          0.04263977333903313,
          0.009790950454771519,
          0.016723135486245155,
          -0.019448552280664444,
          0.024341734126210213,
          0.05495373159646988,
          0.06283783912658691,
          0.07658883929252625,
          0.035857293754816055,
          0.02354934625327587,
          -0.014455651864409447,
          -0.0613238699734211,
          -0.042248670011758804,
          0.02395814284682274,
          0.019661283120512962,
          -0.05942245200276375,
          -0.26697859168052673,
          -0.3127705752849579,
          -0.10928864777088165,
          0.07407128065824509,
          -0.09045512974262238,
          0.029067138209939003,
          -0.06291323155164719,
          -0.02926958166062832,
          0.041784968227148056,
          0.00458449125289917,
          0.04271150007843971,
          0.10689067840576172,
          0.03949194401502609,
          0.10131034255027771,
          0.05496280640363693,
          0.04432525113224983,
          0.0517955906689167,
          0.07654037326574326,
          0.023803304880857468,
          0.04827377572655678,
          0.018256524577736855,
          0.05305204913020134,
          0.0196303129196167,
          -0.05816185474395752,
          -0.056614477187395096,
          0.0033006658777594566,
          0.05803511291742325,
          -0.03950490057468414,
          -0.19283948838710785,
          -0.1506410539150238,
          -0.11438877880573273,
          -0.01933186873793602,
          -0.01909782737493515,
          -0.007438714150339365,
          0.002542451722547412,
          -0.04241221025586128,
          -0.031826406717300415,
          -0.042800672352313995,
          0.058734066784381866,
          0.10933925956487656,
          0.0738615021109581,
          0.08720606565475464,
          0.08291246742010117,
          0.06137681379914284,
          0.04654430225491524,
          0.02896757796406746,
          0.029308967292308807,
          0.011294903233647346,
          -0.030826358124613762,
          0.003826915053650737,
          -0.03278772160410881,
          -0.04122958332300186,
          -0.0005758078768849373,
          0.06484322249889374,
          0.09822529554367065,
          -0.052822504192590714,
          -0.2808389961719513,
          -0.039817728102207184,
          0.10717777907848358,
          0.019056176766753197,
          -0.017111340537667274,
          -0.1390758752822876,
          -0.11141962558031082,
          -0.034138746559619904,
          0.001242692000232637,
          -0.030371423810720444,
          0.0011075902730226517,
          0.015920640900731087,
          0.004980483558028936,
          0.016634676605463028,
          0.011452619917690754,
          0.07192139327526093,
          0.006656109355390072,
          0.021935109049081802,
          -0.009329377673566341,
          -0.04444976896047592,
          0.03588292747735977,
          0.022569360211491585,
          -0.06602934002876282,
          -0.07397796213626862,
          0.009018801152706146,
          0.010230578482151031,
          0.07359886169433594,
          -0.048659563064575195,
          -0.31827548146247864,
          0.33428579568862915,
          0.029939645901322365,
          0.03274087980389595,
          -0.06569824367761612,
          -0.05513466149568558,
          -0.09024360775947571,
          -0.15166138112545013,
          -0.003626331454142928,
          -0.032970212399959564,
          -0.020651668310165405,
          -0.04590725898742676,
          0.06830330938100815,
          0.0472644567489624,
          0.008430047892034054,
          0.023804230615496635,
          -0.09024965018033981,
          -0.019534539431333542,
          -0.061455316841602325,
          -0.04913388192653656,
          -0.022326700389385223,
          -0.008257371373474598,
          -0.06251474469900131,
          -0.0373513326048851,
          0.00785374641418457,
          0.023935982957482338,
          0.11534693837165833,
          -0.11451718211174011,
          -0.3450615406036377,
          0.07816155254840851,
          0.00048301758943125606,
          -0.0020126872695982456,
          -0.009789731353521347,
          0.29753661155700684,
          0.16808436810970306,
          -0.13897615671157837,
          -0.021544719114899635,
          0.025836719200015068,
          0.012495145201683044,
          -0.02165980450809002,
          -0.01129821129143238,
          0.05625338479876518,
          -0.032540466636419296,
          -0.07162658870220184,
          -0.07982119172811508,
          0.015978747978806496,
          -0.041589461266994476,
          -0.06200164183974266,
          -0.03526601940393448,
          -0.012086992152035236,
          -0.03755974397063255,
          0.03609979525208473,
          0.028425540775060654,
          -0.0414617583155632,
          0.05834023281931877,
          -0.045241840183734894,
          -0.3234579563140869,
          0.0014067841693758965,
          0.006177838426083326,
          -0.03521530702710152,
          0.004215828143060207,
          -0.08258266001939774,
          0.09325428307056427,
          -0.09872522950172424,
          0.17448751628398895,
          0.005057436414062977,
          0.047368258237838745,
          0.02746233344078064,
          0.0723864808678627,
          0.06500393152236938,
          0.009970985352993011,
          -0.05083075538277626,
          0.05159963667392731,
          0.051741089671850204,
          -0.0007081464282236993,
          -0.0013374967966228724,
          -0.02457839623093605,
          -0.023711148649454117,
          -0.05438932776451111,
          0.015848971903324127,
          0.0990075096487999,
          0.00839665625244379,
          0.06217779219150543,
          0.01787903718650341,
          0.014010482467710972,
          -0.20434892177581787,
          -0.022945575416088104,
          0.0037427162751555443,
          -0.013857705518603325,
          0.12120070308446884,
          -0.02633814327418804,
          -0.04316720739006996,
          -0.10010232031345367,
          -0.21670706570148468,
          -0.1271323710680008,
          -0.21314150094985962,
          -0.01031332928687334,
          -0.06459501385688782,
          -0.02207951992750168,
          -0.1026034727692604,
          -0.01663045957684517,
          0.0068510654382407665,
          -0.0278096292167902,
          -0.045475296676158905,
          -0.08856650441884995,
          -0.1002839058637619,
          -0.028552735224366188,
          -0.009354854002594948,
          -0.012621955014765263,
          0.014063108712434769,
          0.15231697261333466,
          0.12098612636327744,
          -0.1611587405204773,
          -0.1125299260020256,
          -0.027111943811178207,
          0.016537148505449295,
          -0.018726520240306854,
          -0.012227148748934269,
          0.0023839911445975304,
          -0.17085441946983337,
          -0.12166154384613037,
          -0.30984753370285034,
          -0.3572978079319,
          -0.26262322068214417,
          -0.17960751056671143,
          0.08051083236932755,
          0.0015763698611408472,
          -0.09628470987081528,
          -0.14738744497299194,
          -0.23981064558029175,
          -0.2634582817554474,
          -0.06621740758419037,
          -0.11535805463790894,
          -0.12144865095615387,
          -0.030805246904492378,
          0.05792536959052086,
          -0.06015559658408165,
          0.08734048902988434,
          -0.23719322681427002,
          -0.19250115752220154,
          0.07126044481992722,
          -0.015499286353588104,
          -0.004296268802136183,
          -0.012749532237648964,
          -0.016954269260168076,
          0.014281554147601128,
          -0.034011758863925934,
          0.030278727412223816,
          0.030087564140558243,
          -0.07902286946773529,
          -0.019574197009205818,
          -0.02112814038991928,
          -0.09958818554878235,
          -0.28508055210113525,
          -0.19959944486618042,
          -0.1631747931241989,
          -0.0538545586168766,
          -0.3308342397212982,
          -0.3478442430496216,
          -0.13155560195446014,
          0.03702911362051964,
          -0.07112275809049606,
          -0.07850035279989243,
          -0.1694183647632599,
          -0.1460740715265274,
          -0.15282028913497925,
          -0.10884392261505127,
          -0.03252167999744415,
          0.0035590743646025658,
          -0.01365986093878746,
          0.0023521825205534697
        ],
        [
          0.026792233809828758,
          0.007341840770095587,
          0.030742906033992767,
          0.014279553666710854,
          0.00715600186958909,
          0.00569082610309124,
          -0.007440320216119289,
          -0.02807547152042389,
          -0.014944413676857948,
          0.028742872178554535,
          0.024467239156365395,
          -0.03384813293814659,
          -0.008839327841997147,
          -0.0781673714518547,
          -0.024199848994612694,
          -0.0025668528396636248,
          0.029839934781193733,
          0.026841934770345688,
          -0.03138146549463272,
          -0.025255881249904633,
          0.03233803063631058,
          -0.009846210479736328,
          0.021705491468310356,
          -0.03247077018022537,
          -0.006263967137783766,
          0.035354942083358765,
          0.02123427949845791,
          -0.0316615030169487,
          0.022236419841647148,
          0.004578649997711182,
          -0.01090188603848219,
          -0.02919703908264637,
          -0.007815440185368061,
          -0.006786944344639778,
          -0.13844676315784454,
          0.07034888863563538,
          0.17020012438297272,
          0.09076029807329178,
          0.076548270881176,
          -6.7836583184544e-05,
          0.025600330904126167,
          -0.0018810785841196775,
          0.12132085114717484,
          0.09200094640254974,
          0.023037731647491455,
          0.05316966772079468,
          -0.00500927958637476,
          0.09684847295284271,
          0.1387452930212021,
          0.007653240580111742,
          0.06902619451284409,
          0.19919948279857635,
          0.0301792174577713,
          0.007787449285387993,
          0.006725043524056673,
          -0.027242299169301987,
          -0.02133060432970524,
          -0.029718222096562386,
          -0.035248883068561554,
          -0.17184698581695557,
          0.07781172543764114,
          -0.01625264622271061,
          0.03885188698768616,
          0.10407855361700058,
          0.0849485769867897,
          0.08409295231103897,
          0.07688063383102417,
          0.04214152321219444,
          0.10592547059059143,
          -0.007076191250234842,
          -0.12322498857975006,
          -0.0946054458618164,
          -0.043986257165670395,
          -0.09393896907567978,
          -0.05372653156518936,
          -0.04535854980349541,
          -0.04453615844249725,
          -0.05723753571510315,
          0.003372133942320943,
          0.04267275333404541,
          0.023987237364053726,
          -0.018613655120134354,
          0.028678154572844505,
          -0.014290469698607922,
          0.03390853479504585,
          -0.03518786281347275,
          -0.03354528546333313,
          -0.07012879848480225,
          0.16515009105205536,
          -0.22339484095573425,
          -0.2004610002040863,
          -0.06499231606721878,
          0.04278847947716713,
          0.09006812423467636,
          0.1510678380727768,
          0.007647595833986998,
          0.030298473313450813,
          0.08227581530809402,
          0.15745769441127777,
          0.11395033448934555,
          0.08430017530918121,
          0.10634130984544754,
          -0.0652451440691948,
          0.019804958254098892,
          0.11287581920623779,
          -0.049447350203990936,
          -0.1421290934085846,
          -0.038886334747076035,
          0.15591539442539215,
          0.016568271443247795,
          -0.13846276700496674,
          0.0010106776608154178,
          -0.03144948184490204,
          -0.011729508638381958,
          0.01579781249165535,
          0.07027294486761093,
          -0.030473511666059494,
          -0.10848671942949295,
          -0.008019881322979927,
          0.09276995807886124,
          0.16158850491046906,
          0.16117405891418457,
          0.04452090710401535,
          0.04754329100251198,
          -0.03257476165890694,
          0.0619131475687027,
          0.04784732684493065,
          0.0976182222366333,
          0.11075807362794876,
          0.06943608075380325,
          0.08631746470928192,
          0.06484070420265198,
          -0.028464067727327347,
          0.033486876636743546,
          0.15585476160049438,
          0.15226300060749054,
          -0.1739634871482849,
          -0.2667548358440399,
          0.03976759687066078,
          -0.13914501667022705,
          0.026369551196694374,
          0.015964219346642494,
          -0.07498202472925186,
          0.024226682260632515,
          -0.04521225765347481,
          0.0007549247238785028,
          0.022977450862526894,
          0.03727232292294502,
          0.058701448142528534,
          0.04201136529445648,
          -0.023083927109837532,
          -0.002324734115973115,
          0.052603863179683685,
          0.0828695222735405,
          0.0548718199133873,
          -0.01047520712018013,
          0.02262469381093979,
          0.06512667238712311,
          0.063148632645607,
          0.042190514504909515,
          0.03906020149588585,
          0.02509402669966221,
          0.043602582067251205,
          0.04869547113776207,
          -0.0241050086915493,
          0.014521106146275997,
          0.057708799839019775,
          -0.13612881302833557,
          0.012618253007531166,
          0.048757635056972504,
          0.12190478295087814,
          0.11971326172351837,
          0.02351735532283783,
          0.043526772409677505,
          0.06702218949794769,
          0.10519278049468994,
          0.05775023251771927,
          0.019152723252773285,
          0.06705300509929657,
          0.004686654079705477,
          0.009315557777881622,
          0.04342677444219589,
          0.02807850018143654,
          0.05501643568277359,
          0.03061804361641407,
          0.020655272528529167,
          0.02904028818011284,
          -0.011701356619596481,
          0.02700699493288994,
          0.027005687355995178,
          -0.004542267415672541,
          -0.003170833457261324,
          0.020047709345817566,
          0.0882781520485878,
          -0.03415583819150925,
          -0.06299587339162827,
          -0.07398027181625366,
          0.138441264629364,
          -0.06029917299747467,
          0.06631629914045334,
          0.04121209681034088,
          0.03676312416791916,
          0.06086134538054466,
          0.05674675852060318,
          0.03339506685733795,
          -0.03200500085949898,
          -0.007361742667853832,
          0.002217319328337908,
          -0.03605454042553902,
          -0.007495028432458639,
          0.0632781982421875,
          0.048393432050943375,
          0.034497711807489395,
          0.045137595385313034,
          0.055188994854688644,
          0.04058493301272392,
          0.014439730904996395,
          0.016292177140712738,
          -0.035532355308532715,
          -0.01646397076547146,
          -0.0004482366784941405,
          0.06591792404651642,
          0.039944879710674286,
          0.007147111464291811,
          0.33081483840942383,
          0.23078800737857819,
          -0.06940119713544846,
          0.043622810393571854,
          -0.03895192593336105,
          0.04580935463309288,
          -0.014580605551600456,
          -0.0586528517305851,
          -0.003551070811226964,
          -0.028046678751707077,
          -0.0674867182970047,
          -0.002438056282699108,
          0.03762926906347275,
          -0.026315193623304367,
          0.03941785916686058,
          0.03625180944800377,
          0.0497797355055809,
          0.022626450285315514,
          0.04840674623847008,
          -0.03287315368652344,
          -0.0022021473851054907,
          -0.0028879367746412754,
          0.034441083669662476,
          0.036024462431669235,
          -0.07988793402910233,
          -0.15307052433490753,
          0.08031997084617615,
          -0.11243145167827606,
          0.07925347983837128,
          0.11427275091409683,
          -0.06356478482484818,
          -0.034507811069488525,
          0.01533004455268383,
          0.08174144476652145,
          -0.012014877051115036,
          -0.01809760183095932,
          -0.004470181185752153,
          0.0012131895637139678,
          -0.009379224851727486,
          -0.012686308473348618,
          0.04569324105978012,
          0.012220555916428566,
          0.004376940429210663,
          0.03721735626459122,
          0.002350700320675969,
          -0.0071470062248408794,
          0.03857840970158577,
          0.015250053256750107,
          -0.05979933217167854,
          -0.07003992050886154,
          0.0047753844410181046,
          -0.015048163942992687,
          0.01833968795835972,
          -0.04960685223340988,
          -0.2594541311264038,
          -0.18266476690769196,
          0.11076559126377106,
          0.07005585730075836,
          0.06750453263521194,
          0.0007104310789145529,
          0.023086659610271454,
          0.08775211125612259,
          0.0081575782969594,
          0.008875003084540367,
          -0.012354311533272266,
          -0.020757470279932022,
          0.011774221435189247,
          0.018585016950964928,
          0.060898471623659134,
          0.04285712540149689,
          -0.009913219138979912,
          -0.03349350765347481,
          0.03773677349090576,
          0.06001637876033783,
          0.0008596498519182205,
          0.020825164392590523,
          0.015557226724922657,
          0.024072127416729927,
          0.038221415132284164,
          -0.007607759442180395,
          0.011500589549541473,
          -0.010107398964464664,
          -0.009971707127988338,
          -0.1711643785238266,
          0.020001286640763283,
          0.15719328820705414,
          0.06771912425756454,
          0.03665520250797272,
          -0.0404217429459095,
          -0.04980067163705826,
          -0.02185671776533127,
          -0.009855284355580807,
          -0.04248916357755661,
          -0.006539750378578901,
          -0.010703889653086662,
          0.012590693309903145,
          0.0389532595872879,
          -0.06129271537065506,
          -0.19111834466457367,
          -0.04149257764220238,
          -0.030826492235064507,
          0.055235471576452255,
          0.06311772018671036,
          0.043261535465717316,
          -0.018141010776162148,
          0.02800619974732399,
          -0.02842731960117817,
          -0.07245700806379318,
          -0.039658140391111374,
          0.08299251645803452,
          0.17115364968776703,
          -0.13561463356018066,
          -0.15766161680221558,
          0.03549986705183983,
          -0.04548430070281029,
          0.012340456247329712,
          0.022748123854398727,
          -0.03012731857597828,
          0.0547330342233181,
          0.005069166421890259,
          -0.008167889900505543,
          -0.0272744782269001,
          0.022221283987164497,
          0.04763936996459961,
          0.04493708908557892,
          -0.13860952854156494,
          -0.1620253026485443,
          -0.11266877502202988,
          -0.03135133534669876,
          0.04274123162031174,
          0.07413827627897263,
          0.03278527781367302,
          0.015696078538894653,
          -0.018663037568330765,
          -0.03717034310102463,
          -0.07647252082824707,
          -0.03154779598116875,
          0.034867580980062485,
          -0.017926320433616638,
          -0.3447463810443878,
          -0.06339265406131744,
          0.011735491454601288,
          0.0002848920994438231,
          0.03287656232714653,
          -0.02984250709414482,
          -0.045376699417829514,
          0.036767784506082535,
          0.013782596215605736,
          -0.0009825339075177908,
          0.021443843841552734,
          0.06152202934026718,
          -0.007185323629528284,
          0.015913967043161392,
          -0.0645206868648529,
          -0.10489079356193542,
          -0.12205079197883606,
          -0.006625071633607149,
          -9.466777555644512e-06,
          0.021599609404802322,
          0.026387972757220268,
          0.02760191820561886,
          0.01331158448010683,
          -0.06526484340429306,
          -0.04316120594739914,
          -0.031622156500816345,
          0.09306182712316513,
          -0.027551572769880295,
          -0.15019448101520538,
          0.16232241690158844,
          -0.00476252194494009,
          0.16968736052513123,
          0.05511920899152756,
          0.038373202085494995,
          0.02133801020681858,
          0.046049173921346664,
          -0.0050991978496313095,
          -0.09976296871900558,
          -0.0648973137140274,
          0.023725295439362526,
          -0.05220963433384895,
          -0.013014587573707104,
          -0.09501351416110992,
          -0.08570728451013565,
          -0.08182600885629654,
          -0.04163011908531189,
          -0.038985732942819595,
          0.030568208545446396,
          0.006491663865745068,
          0.01613912731409073,
          -0.026663782075047493,
          -0.038030605763196945,
          -0.053194399923086166,
          -0.03780186176300049,
          -0.05368601158261299,
          0.05519285425543785,
          -0.10871575772762299,
          0.1927567720413208,
          -0.20358873903751373,
          -0.02544649876654148,
          0.052658289670944214,
          0.075417160987854,
          -0.007757518440485001,
          0.0004266891919542104,
          -0.002786631928756833,
          -0.029824230819940567,
          -0.028171075507998466,
          4.374476702651009e-05,
          -0.04491211101412773,
          -0.04074971750378609,
          -0.12768614292144775,
          -0.10236760228872299,
          -0.07792489230632782,
          -0.008622619323432446,
          -0.03639194369316101,
          -0.0037838711868971586,
          -0.03869106248021126,
          -0.031457915902137756,
          -0.008690417744219303,
          -0.015435339882969856,
          -0.03791444003582001,
          0.02484399825334549,
          -0.16618122160434723,
          0.012175066396594048,
          0.12213162332773209,
          0.10429441928863525,
          -0.12365318089723587,
          -0.19131772220134735,
          0.08066052198410034,
          0.07782252132892609,
          -0.009163855575025082,
          -0.06476140767335892,
          -0.06302889436483383,
          -0.08283534646034241,
          0.005302950274199247,
          -0.041921116411685944,
          -0.04478861391544342,
          -0.020390106365084648,
          -0.06897640228271484,
          -0.09099779278039932,
          -0.018800044432282448,
          -0.03737827390432358,
          -0.035630613565444946,
          -0.0026688172947615385,
          -0.021237825974822044,
          -0.0041261278092861176,
          -0.007675529923290014,
          -0.00926010962575674,
          -0.051033273339271545,
          -0.00428953068330884,
          -0.09050609916448593,
          -0.03488166630268097,
          0.07882367074489594,
          -0.022728998214006424,
          -0.04195421561598778,
          -0.23420849442481995,
          0.1481550633907318,
          0.10070286691188812,
          -0.05227217823266983,
          -0.05685766041278839,
          -0.038387563079595566,
          -0.04067336022853851,
          -0.031160453334450722,
          0.01589660532772541,
          -0.04753178358078003,
          -0.04833213612437248,
          -0.06498510390520096,
          -0.062467001378536224,
          0.0034343183506280184,
          -0.018906814977526665,
          0.036952510476112366,
          -0.021342366933822632,
          -0.0589030459523201,
          0.01979631930589676,
          0.0028686849400401115,
          0.037525374442338943,
          -0.015681682154536247,
          0.016867198050022125,
          0.20653027296066284,
          0.14169420301914215,
          -0.08628826588392258,
          0.26082009077072144,
          0.0278474148362875,
          -0.11800309270620346,
          0.10523702949285507,
          0.06939446926116943,
          -0.07445833832025528,
          -0.02051413059234619,
          -0.02737157978117466,
          -0.022533949464559555,
          -0.06933660805225372,
          -0.021369464695453644,
          -0.009388009086251259,
          -0.09798401594161987,
          -0.0996861383318901,
          -0.13081592321395874,
          -0.03629295900464058,
          -0.06393137574195862,
          -0.05962478742003441,
          -0.06455929577350616,
          -0.02935684099793434,
          -0.0030939660500735044,
          0.011534126475453377,
          0.03126407414674759,
          -0.002149038016796112,
          0.02131745219230652,
          -0.013694020919501781,
          0.01115861814469099,
          -0.2103070467710495,
          0.036566171795129776,
          0.2993752658367157,
          0.14197492599487305,
          0.07993524521589279,
          0.05198848992586136,
          -0.06455323845148087,
          -0.05474419519305229,
          -0.06300316005945206,
          -0.01918216049671173,
          -0.06164219602942467,
          -0.06494788825511932,
          -0.020993828773498535,
          0.004013441503047943,
          -0.03182213008403778,
          -0.029580963775515556,
          -0.01970648765563965,
          -0.09112513810396194,
          -0.059661392122507095,
          -0.0833951085805893,
          -0.05078144371509552,
          0.002828131429851055,
          0.014521767385303974,
          0.008219871670007706,
          -0.03507580608129501,
          -0.00955826137214899,
          -0.1481975018978119,
          0.02046709693968296,
          -0.13252203166484833,
          -0.005204005166888237,
          0.0481087751686573,
          0.06807215511798859,
          0.020859356969594955,
          0.07082240283489227,
          -0.005035028792917728,
          -0.008417924866080284,
          -0.04780968651175499,
          -0.017438644543290138,
          0.013896334916353226,
          -0.019767003133893013,
          0.08140888065099716,
          0.09460742771625519,
          0.05071517452597618,
          0.03838369622826576,
          -0.03747733682394028,
          -0.014813568443059921,
          -0.03873135894536972,
          -0.06217437982559204,
          0.0048427945002913475,
          -0.028259016573429108,
          0.026324165984988213,
          0.006235309410840273,
          -0.07292450964450836,
          -0.010150781832635403,
          -0.13701018691062927,
          0.14475221931934357,
          0.09577229619026184,
          0.030785279348492622,
          -0.0040110256522893906,
          -0.0062566716223955154,
          -0.014965813606977463,
          0.07536867260932922,
          -0.008104954846203327,
          0.042359527200460434,
          -0.0005304584628902376,
          0.003326830454170704,
          0.011130036786198616,
          0.05252080783247948,
          0.08857269585132599,
          0.09649293124675751,
          0.0957295149564743,
          0.038505781441926956,
          0.06499338895082474,
          -0.021202003583312035,
          -0.06550388038158417,
          -0.010979258455336094,
          0.025526138022542,
          0.03326918184757233,
          -0.0016103374073281884,
          0.05434737354516983,
          0.046808984130620956,
          0.16375602781772614,
          0.06554817408323288,
          0.13942420482635498,
          -0.03810866177082062,
          0.003738339990377426,
          -0.09802272170782089,
          0.0610002800822258,
          -0.053525786846876144,
          -0.12740953266620636,
          0.05949302017688751,
          0.008746246807277203,
          -0.02353145368397236,
          0.04254300892353058,
          0.09941314905881882,
          0.07818085700273514,
          0.03920209780335426,
          0.027788272127509117,
          0.07773180305957794,
          0.04633908346295357,
          0.0963626280426979,
          0.03477463871240616,
          0.008670772425830364,
          0.05414637550711632,
          0.02399013750255108,
          0.0020432481542229652,
          0.07196878641843796,
          0.06947271525859833,
          0.05794587358832359,
          0.0002385100960964337,
          -0.1802009642124176,
          -0.14810329675674438,
          -0.06987985968589783,
          0.03146319091320038,
          -0.01784328930079937,
          0.0343877449631691,
          -0.030565736815333366,
          -0.023343252018094063,
          0.04893593117594719,
          0.05965732783079147,
          -0.04105265811085701,
          -0.012858490459620953,
          0.02770758420228958,
          0.04635155573487282,
          0.06754466146230698,
          0.06786727160215378,
          0.06953063607215881,
          0.07970215380191803,
          0.0887083113193512,
          0.03508557751774788,
          0.10382076352834702,
          0.04892036318778992,
          0.06361070275306702,
          0.004280477296561003,
          0.07473137974739075,
          -0.010412712581455708,
          -0.04404117912054062,
          -0.04773969575762749,
          -0.1571619212627411,
          -0.09470760077238083,
          0.03540980815887451,
          -0.0065365987829864025,
          -0.035239145159721375,
          0.02753058820962906,
          0.08843467384576797,
          0.18813328444957733,
          0.18353372812271118,
          0.16180332005023956,
          0.12025217711925507,
          0.06304694712162018,
          0.04585718736052513,
          -0.016167908906936646,
          -0.0519261509180069,
          0.010645587928593159,
          0.0013276612153276801,
          0.013457159511744976,
          0.08615414798259735,
          0.07433740049600601,
          0.1658162772655487,
          0.06330717355012894,
          0.059988271445035934,
          -0.007870250381529331,
          0.003692349884659052,
          0.10009849071502686,
          0.05594855919480324,
          0.27620381116867065,
          -0.14360132813453674,
          -0.09560374170541763,
          0.0285628754645586,
          -0.009281201288104057,
          -0.009917187504470348,
          -0.07865685969591141,
          0.07319522649049759,
          0.4331058859825134,
          0.11693929880857468,
          0.03512043133378029,
          0.1243072897195816,
          0.22693879902362823,
          0.16172614693641663,
          0.00478822086006403,
          0.07645207643508911,
          0.08612456917762756,
          0.17721711099147797,
          0.007184403948485851,
          -0.0487564317882061,
          -0.008287710137665272,
          -0.0478769987821579,
          -0.004955571610480547,
          0.03356773406267166,
          0.038692329078912735,
          0.061193011701107025,
          0.06265199184417725,
          0.13775847852230072,
          0.3173862099647522,
          -0.0483628585934639,
          -0.09615243971347809,
          -0.03128702566027641,
          0.032901059836149216,
          -0.01525912620127201,
          -0.03456609696149826,
          -0.06464187800884247,
          0.21314656734466553,
          -0.012881155125796795,
          -0.037763867527246475,
          -0.05646258220076561,
          0.05879174917936325,
          -0.03926906734704971,
          -0.023004865273833275,
          0.01856077089905739,
          0.05957013741135597,
          0.01026171911507845,
          -0.09118784219026566,
          0.04333003982901573,
          0.11133033037185669,
          -0.0958927646279335,
          -0.028160998597741127,
          0.1718791127204895,
          0.03428895026445389,
          0.08672948181629181,
          0.20799696445465088,
          0.03993445634841919,
          0.030075160786509514,
          0.032114412635564804,
          0.03241755813360214,
          0.031675733625888824,
          -0.02187570184469223,
          0.03115040250122547,
          0.03303569555282593,
          0.018994038924574852,
          0.03157968446612358,
          0.10150592029094696,
          -0.009020758792757988,
          -0.023922670632600784,
          0.07246571779251099,
          0.06972116231918335,
          0.006873213220387697,
          0.026745213195681572,
          -0.01849168911576271,
          0.24250464141368866,
          0.17564575374126434,
          0.005204589106142521,
          0.003525502048432827,
          0.19025222957134247,
          0.06342266499996185,
          0.0825490653514862,
          -0.02274990826845169,
          0.06587833911180496,
          0.006422879174351692,
          0.1400848776102066,
          -0.026344185695052147,
          0.017731066793203354,
          0.03186657652258873,
          0.005294532049447298
        ],
        [
          -0.022395705804228783,
          0.024692757055163383,
          -0.01148978341370821,
          0.02004276029765606,
          0.01493242010474205,
          -0.0026663842145353556,
          -0.004530693870037794,
          -0.03221927955746651,
          -0.028245339170098305,
          0.025498224422335625,
          -0.01209731213748455,
          0.0018078174907714128,
          0.0228816419839859,
          0.03909442946314812,
          0.05326101556420326,
          0.06515925377607346,
          -0.0026269087102264166,
          0.0021777921356260777,
          -0.005170315504074097,
          -0.007946010679006577,
          -0.030621156096458435,
          0.02883698046207428,
          0.013158445246517658,
          -0.013577070087194443,
          -0.03500169515609741,
          -0.003135430160909891,
          0.025531208142638206,
          0.010432989336550236,
          -0.02585699036717415,
          0.010633056052029133,
          0.02962956391274929,
          0.03469120338559151,
          -0.06081850826740265,
          -0.040590982884168625,
          -0.009487208910286427,
          -0.014518109150230885,
          -0.05129951611161232,
          -0.058825377374887466,
          -0.03757917135953903,
          -0.15578024089336395,
          -0.20434340834617615,
          -0.1181754320859909,
          0.09230668097734451,
          -0.057656217366456985,
          -0.14307034015655518,
          -0.19440427422523499,
          -0.04721364751458168,
          -0.03798723965883255,
          -0.016319671645760536,
          0.026332160457968712,
          -0.02227870747447014,
          -0.16831788420677185,
          -0.004122044425457716,
          0.025795307010412216,
          0.0018494130345061421,
          -0.021531693637371063,
          -0.011100578121840954,
          -0.02250460349023342,
          -0.029546482488512993,
          -0.13161826133728027,
          -0.20933318138122559,
          -0.0924205407500267,
          -0.039372075349092484,
          -0.035436537116765976,
          -0.10975684225559235,
          -0.061308834701776505,
          -0.06513461470603943,
          0.0184360072016716,
          0.07454218715429306,
          0.18145883083343506,
          0.06796309351921082,
          0.06340667605400085,
          0.10494189709424973,
          0.015180046670138836,
          0.05037269741296768,
          -0.15384963154792786,
          -0.020208733156323433,
          0.0023369307164102793,
          -0.01537321973592043,
          -0.14999604225158691,
          0.07002750784158707,
          -0.0018683800008147955,
          0.031267907470464706,
          0.029933998361229897,
          0.010735789313912392,
          -0.019290078431367874,
          0.12392520159482956,
          -0.21949800848960876,
          -0.2860105037689209,
          -0.013376669958233833,
          0.03830505907535553,
          0.040924880653619766,
          -0.04073188081383705,
          -0.013017126359045506,
          0.002858487656340003,
          -0.06483810395002365,
          -0.08265017718076706,
          -0.013072744011878967,
          -0.007827796041965485,
          -0.011676729656755924,
          0.036766912788152695,
          0.04728087782859802,
          0.12513673305511475,
          0.06477820128202438,
          -0.06612376123666763,
          0.01623048447072506,
          0.011524527333676815,
          0.07678607106208801,
          0.030796879902482033,
          0.06826240569353104,
          -0.005112202372401953,
          0.02008829452097416,
          0.017113545909523964,
          0.013966746628284454,
          0.15329979360103607,
          -0.06022736430168152,
          0.13464336097240448,
          0.024061188101768494,
          0.011030946858227253,
          0.00302194245159626,
          0.00162698223721236,
          0.08250188082456589,
          0.042226944118738174,
          0.02319985255599022,
          -0.002482229145243764,
          -0.010126745328307152,
          0.08435988426208496,
          0.06702031940221786,
          0.044188957661390305,
          -0.006366364657878876,
          -0.023690950125455856,
          0.04515192285180092,
          0.08359970152378082,
          0.028176067396998405,
          0.10983370244503021,
          -0.09935276955366135,
          -0.04114332050085068,
          -0.0273269135504961,
          0.03321013227105141,
          -0.05373190715909004,
          -0.008470514789223671,
          -0.010171852074563503,
          0.21994851529598236,
          -0.013286159373819828,
          0.021508459001779556,
          0.003356359666213393,
          0.0014830892905592918,
          -0.029465461149811745,
          0.007021599914878607,
          -0.004618849139660597,
          0.003018456045538187,
          0.01279360055923462,
          -0.022070089355111122,
          0.0096781300380826,
          -0.036904964596033096,
          -0.02241201139986515,
          0.0029284998308867216,
          -0.032667431980371475,
          -0.0011020058300346136,
          0.040707506239414215,
          0.022342821583151817,
          0.011232144199311733,
          0.05823870748281479,
          0.18707767128944397,
          0.1498192548751831,
          0.14143715798854828,
          0.04658561572432518,
          -0.14064790308475494,
          0.0033054309897124767,
          0.06645981967449188,
          -0.05843755975365639,
          0.00342801702208817,
          0.029928861185908318,
          -0.0671219527721405,
          -0.017916889861226082,
          -0.05787024274468422,
          -0.045808497816324234,
          0.03962310776114464,
          0.012755072675645351,
          0.009356623515486717,
          -0.0026689842343330383,
          -0.02447812259197235,
          -0.023797277361154556,
          0.005930761341005564,
          0.026804225519299507,
          0.02742069773375988,
          -0.03214987367391586,
          -0.025215139612555504,
          -0.004436680115759373,
          -0.023263368755578995,
          -0.011223135516047478,
          0.009449788369238377,
          0.021060975268483162,
          0.1366354078054428,
          -0.047808945178985596,
          0.19800183176994324,
          -0.042050909250974655,
          -0.051486533135175705,
          0.12010616064071655,
          0.025622406974434853,
          0.015898779034614563,
          -0.05175556614995003,
          -0.037505634129047394,
          -0.052444327622652054,
          -0.020698515698313713,
          0.005689852871000767,
          -0.03075232543051243,
          0.005278090480715036,
          -0.014200213365256786,
          -0.009233079850673676,
          -0.03260011225938797,
          -0.006067468784749508,
          0.0006827514735050499,
          -0.0029661234002560377,
          0.014712666161358356,
          0.0015031971270218492,
          -0.02232029102742672,
          -0.012805519625544548,
          0.0492284819483757,
          -0.03193804621696472,
          -0.060310013592243195,
          -0.019508380442857742,
          0.11359818279743195,
          0.14882174134254456,
          -0.2749343514442444,
          -0.15352658927440643,
          0.10086310654878616,
          0.015234419144690037,
          0.012206625193357468,
          0.016858017072081566,
          -0.04906259477138519,
          -0.06344747543334961,
          -0.027528326958417892,
          -0.0022900751791894436,
          -0.007891518995165825,
          -0.004173664841800928,
          -0.013723802752792835,
          -0.025900987908244133,
          -0.002402094192802906,
          0.015127062797546387,
          -0.022419065237045288,
          -0.011616894043982029,
          0.02066030725836754,
          0.04990033060312271,
          -0.011566555127501488,
          -0.04422222077846527,
          0.029233990237116814,
          0.006582365836948156,
          -0.1662745177745819,
          0.061546649783849716,
          0.2099573314189911,
          0.12174050509929657,
          -0.03584853932261467,
          -0.1845434010028839,
          -0.08038336038589478,
          -0.018242906779050827,
          0.00991553533822298,
          0.030319344252347946,
          0.015512261539697647,
          -0.04142199084162712,
          -0.002988377120345831,
          0.01659904606640339,
          0.0009993171552196145,
          -0.01549864187836647,
          0.013243108056485653,
          -0.041380625218153,
          -0.0052215405739843845,
          -0.009059191681444645,
          0.03748198226094246,
          0.005559610668569803,
          0.07013304531574249,
          0.043746817857027054,
          0.027262059971690178,
          0.004020733293145895,
          -0.008042584173381329,
          -0.03302298113703728,
          -0.17976944148540497,
          0.11275950074195862,
          0.08919558674097061,
          -0.20887364447116852,
          -0.04179149493575096,
          -0.05604682117700577,
          -0.17470714449882507,
          -0.02734336070716381,
          0.05967269092798233,
          0.05699077993631363,
          0.10282585769891739,
          0.05521366745233536,
          0.03389271721243858,
          0.06411541998386383,
          -8.205063204513863e-05,
          0.048297278583049774,
          0.025366390123963356,
          -0.0539921410381794,
          -0.0056670475751161575,
          0.01308946218341589,
          -0.0170738622546196,
          0.03254783898591995,
          0.049768347293138504,
          0.09401107579469681,
          0.04874637350440025,
          0.007917393930256367,
          0.03220536187291145,
          -0.12189628928899765,
          -0.2274017184972763,
          -0.08965731412172318,
          -0.05079776048660278,
          -0.06427926570177078,
          -0.11939150094985962,
          -0.16692860424518585,
          0.03179440647363663,
          0.03126393258571625,
          0.07452020049095154,
          0.048348087817430496,
          0.026534397155046463,
          0.008704380132257938,
          -0.005733131431043148,
          0.0034682443365454674,
          0.024792110547423363,
          0.02044505812227726,
          -2.854674676200375e-06,
          0.00695451395586133,
          0.034424249082803726,
          0.01689021661877632,
          0.01290684100240469,
          0.03735600784420967,
          0.03517633303999901,
          0.039230432361364365,
          0.04964360222220421,
          0.03986882045865059,
          0.07303256541490555,
          -0.07773472368717194,
          -0.14097924530506134,
          -0.2324022501707077,
          -0.007846187800168991,
          -0.12175111472606659,
          -0.19881919026374817,
          0.06490665674209595,
          0.0212937630712986,
          0.10468284040689468,
          0.13671046495437622,
          0.03981781750917435,
          -0.0008681970648467541,
          -0.031030545011162758,
          0.023764126002788544,
          0.01797296665608883,
          0.00969251524657011,
          0.007437706924974918,
          0.0063388291746377945,
          -0.0281368400901556,
          0.012404132634401321,
          0.012510696426033974,
          0.005285276565700769,
          -0.03457076847553253,
          -0.033218756318092346,
          0.0421404205262661,
          0.07714790105819702,
          0.08566835522651672,
          0.035501375794410706,
          -0.06870351731777191,
          -0.06573914736509323,
          -0.19901008903980255,
          -0.2958192527294159,
          -0.17578262090682983,
          0.1307687908411026,
          0.06865496188402176,
          -0.048469915986061096,
          0.12052994966506958,
          0.0650084987282753,
          -0.026967303827404976,
          -0.03824145719408989,
          -0.06154221296310425,
          -0.03948429226875305,
          -0.01978115178644657,
          -0.08568955957889557,
          0.000726373225916177,
          -0.006511006969958544,
          0.02161300927400589,
          0.024804366752505302,
          0.013661690056324005,
          0.027613209560513496,
          0.027555221691727638,
          -0.005880366079509258,
          0.014775224030017853,
          0.010647077113389969,
          -0.007185367401689291,
          0.0029104254208505154,
          -0.0419868640601635,
          -0.03906247019767761,
          -0.04782716557383537,
          0.14016619324684143,
          0.2811937928199768,
          -0.1719873547554016,
          0.0549418181180954,
          -0.000993455178104341,
          0.02284182421863079,
          0.013369976542890072,
          -0.09190825372934341,
          -0.08747267723083496,
          -0.05003288388252258,
          -0.0453990176320076,
          -0.07109475135803223,
          -0.07855311036109924,
          -0.040782276540994644,
          -0.07164391875267029,
          -0.024081800132989883,
          0.04233671352267265,
          0.05567556992173195,
          0.007444621529430151,
          0.029189476743340492,
          -0.05672124773263931,
          -0.02271316386759281,
          -0.07637804001569748,
          -0.04156549274921417,
          -0.08354055881500244,
          -0.06321632117033005,
          -0.05092162266373634,
          0.053119953721761703,
          0.2556447386741638,
          0.2622184157371521,
          -0.16477325558662415,
          -0.03238801658153534,
          0.07570992410182953,
          0.01660277135670185,
          0.013926388695836067,
          -0.02517309971153736,
          -0.03855031356215477,
          -0.06372687220573425,
          -0.08018229156732559,
          -0.08794845640659332,
          -0.1140037551522255,
          -0.03978651016950607,
          -0.03833744302392006,
          -0.0028463471680879593,
          0.08163689076900482,
          0.05372787266969681,
          0.020070116966962814,
          -0.012212097644805908,
          -0.021697532385587692,
          -0.058329179883003235,
          -0.11686480790376663,
          -0.054867230355739594,
          -0.10209338366985321,
          -0.05935900658369064,
          -0.08535165339708328,
          0.00025154283503070474,
          0.059212129563093185,
          0.2856631875038147,
          0.14155341684818268,
          0.0005440889508463442,
          0.09043976664543152,
          0.012985549867153168,
          0.028981877490878105,
          -0.0074792057275772095,
          -0.03541746363043785,
          -0.08501425385475159,
          -0.06891367584466934,
          -0.03486788272857666,
          -0.0168061051517725,
          -0.029108799993991852,
          0.05135083198547363,
          0.03283098340034485,
          0.0933806300163269,
          0.07681922614574432,
          0.012322645634412766,
          0.005558901000767946,
          -0.028776442632079124,
          -0.020732656121253967,
          -0.0864405706524849,
          -0.030608896166086197,
          -0.06372830271720886,
          -0.05385947600007057,
          -0.08076131343841553,
          0.0434480719268322,
          0.027406472712755203,
          0.18240132927894592,
          0.020328279584646225,
          -0.008024732582271099,
          0.04871669411659241,
          0.08135910332202911,
          0.025431962683796883,
          -0.05662653595209122,
          -0.05734133720397949,
          -0.013885444961488247,
          0.0006837457767687738,
          0.0180076751857996,
          0.0021460074931383133,
          0.01575215719640255,
          0.07217550277709961,
          0.0662894994020462,
          0.07171046733856201,
          0.055867042392492294,
          0.038720663636922836,
          0.009447992779314518,
          -0.002892394084483385,
          -0.025870388373732567,
          -0.024812208488583565,
          -0.019873052835464478,
          -0.006535702385008335,
          -0.009343655779957771,
          -0.0451396182179451,
          0.009614363312721252,
          -0.11091635376214981,
          -0.043721284717321396,
          -0.1462961882352829,
          -0.027939341962337494,
          -0.039926763623952866,
          0.03310504928231239,
          -0.012113846838474274,
          -0.0609484501183033,
          -0.029559165239334106,
          -0.03978152945637703,
          0.022039849311113358,
          0.044198162853717804,
          0.06707420200109482,
          0.06593680381774902,
          0.06244521215558052,
          0.048856526613235474,
          0.04077097401022911,
          0.06191384047269821,
          -0.003467585425823927,
          0.01592693105340004,
          0.018605047836899757,
          0.0036067247856408358,
          -0.019898362457752228,
          -0.022791625931859016,
          0.0008063413552008569,
          0.027659915387630463,
          0.04884842783212662,
          0.037757642567157745,
          -0.1015063002705574,
          0.17980849742889404,
          0.04272402077913284,
          -0.15504032373428345,
          -0.11674186587333679,
          0.009632392786443233,
          0.04608505219221115,
          -0.010038190521299839,
          -0.0388290211558342,
          -0.008637972176074982,
          0.019609395414590836,
          0.028285253793001175,
          0.0249924398958683,
          0.027790892869234085,
          -0.012589696794748306,
          0.027379635721445084,
          0.028577296063303947,
          0.01893153414130211,
          0.008501030504703522,
          -0.00048175911069847643,
          -0.004523517098277807,
          0.03774486109614372,
          0.0089832479134202,
          0.010625640861690044,
          0.018306948244571686,
          0.039586637169122696,
          0.030992666259407997,
          0.021477114409208298,
          0.12111562490463257,
          0.08473498374223709,
          0.01141410693526268,
          -0.11810678243637085,
          0.03255916014313698,
          -0.0060804784297943115,
          0.051532648503780365,
          -0.033828239887952805,
          0.003662694711238146,
          0.033896151930093765,
          0.05168480426073074,
          0.05158640816807747,
          -0.019174421206116676,
          0.015425656922161579,
          -0.030259346589446068,
          -0.02651061862707138,
          -0.0548347570002079,
          -0.009989882819354534,
          0.034494850784540176,
          -0.012712277472019196,
          -0.013527370989322662,
          0.009664828889071941,
          0.0037330412305891514,
          0.03725713491439819,
          -0.002118055708706379,
          0.05864093825221062,
          0.04460651054978371,
          -0.051611948758363724,
          0.04039386659860611,
          -0.09339030086994171,
          0.08912695199251175,
          0.05080188065767288,
          0.0471312440931797,
          0.018864532932639122,
          0.02189340442419052,
          -0.036297883838415146,
          0.013718819245696068,
          0.02410564385354519,
          0.005594744812697172,
          0.06065702438354492,
          0.005132280755788088,
          0.0038904768880456686,
          0.024168604984879494,
          -0.02736368402838707,
          -0.0014336862368509173,
          -0.009481786750257015,
          0.00046408723574131727,
          0.026672273874282837,
          -0.017825616523623466,
          0.037018805742263794,
          0.014312377199530602,
          0.014152108691632748,
          0.010177290998399258,
          0.010090984404087067,
          0.023540711030364037,
          0.07118714600801468,
          -0.16599847376346588,
          -0.07595473527908325,
          0.04047412797808647,
          -0.05120822787284851,
          0.03749413415789604,
          0.0022875110153108835,
          0.09586215019226074,
          0.16718927025794983,
          0.033231351524591446,
          0.003990114666521549,
          -0.04485509172081947,
          0.012316272594034672,
          -0.015568779781460762,
          -0.0009612799040041864,
          0.02436414361000061,
          -0.08385837823152542,
          -0.06425250321626663,
          -0.04093262553215027,
          -0.015880046412348747,
          -0.04062417149543762,
          0.023839792236685753,
          0.027677135542035103,
          0.08534160256385803,
          0.04115723446011543,
          0.023064710199832916,
          0.02158898487687111,
          0.04160919412970543,
          -0.07882361114025116,
          -0.23785622417926788,
          -0.11135527491569519,
          0.03299328312277794,
          -0.020911844447255135,
          0.19769644737243652,
          -0.11632122844457626,
          -0.07980449497699738,
          0.02514292672276497,
          0.029629191383719444,
          0.026282303035259247,
          0.04477902874350548,
          0.04500596597790718,
          0.012343632988631725,
          0.05730853229761124,
          0.0038522600661963224,
          0.05778186768293381,
          -0.018689868971705437,
          -0.06276455521583557,
          -0.018678564578294754,
          0.004335410427302122,
          0.0721874013543129,
          0.08486618101596832,
          0.09223272651433945,
          0.07164271920919418,
          0.06895487010478973,
          0.07781770080327988,
          -0.07445094734430313,
          -0.0998154804110527,
          -0.22797450423240662,
          -0.028996102511882782,
          0.02921997755765915,
          0.013816089369356632,
          0.15704478323459625,
          -0.27280527353286743,
          -0.18776871263980865,
          -0.10114383697509766,
          -0.08645325899124146,
          -0.1449313908815384,
          -0.0032118859235197306,
          0.03673426806926727,
          0.016432566568255424,
          0.0767061859369278,
          0.043037183582782745,
          -0.019406549632549286,
          -0.031581390649080276,
          -0.03619157522916794,
          0.0031012881081551313,
          0.05130024254322052,
          0.06817609816789627,
          0.10715121030807495,
          0.07023023813962936,
          0.05894438922405243,
          -0.002319027204066515,
          0.07304171472787857,
          0.15533077716827393,
          0.2808140814304352,
          0.09789403527975082,
          0.01656029187142849,
          -0.015546922571957111,
          -0.017027318477630615,
          -0.12311708927154541,
          -0.36384814977645874,
          -0.43717947602272034,
          -0.5138382315635681,
          -0.3783606290817261,
          -0.3357837200164795,
          -0.2505283057689667,
          -0.22312697768211365,
          -0.2608048915863037,
          -0.2317759096622467,
          -0.12566430866718292,
          -0.09780066460371017,
          -0.07471020519733429,
          -0.06007816269993782,
          -0.05584939569234848,
          -0.03282567858695984,
          -0.08179695904254913,
          0.03441936522722244,
          0.016110464930534363,
          0.018413802608847618,
          -0.023480834439396858,
          -0.20653536915779114,
          -0.13386133313179016,
          -0.002247945638373494,
          0.11204202473163605,
          -0.02928175777196884,
          0.02077268436551094,
          0.007743933703750372,
          -0.00045573286479339004,
          -0.04144773632287979,
          -0.13904650509357452,
