{
  "format": "mnist_mlp_json_v1",
  "model": {
    "name": "MNISTMLP",
    "input_shape": [
      1,
      28,
      28
    ],
    "layers": [
      {
        "type": "Flatten"
      },
      {
        "type": "Linear",
        "in_features": 784,
        "out_features": 128
      },
      {
        "type": "ApproximateGELU",
        "coefficients": {
          "constant": 0.0676209,
          "linear": 0.5,
          "quadratic": 0.48257484,
          "quartic": -0.06659632
        }
      },
      {
        "type": "Linear",
        "in_features": 128,
        "out_features": 64
      },
      {
        "type": "ApproximateGELU",
        "coefficients": {
          "constant": 0.0676209,
          "linear": 0.5,
          "quadratic": 0.48257484,
          "quartic": -0.06659632
        }
      },
      {
        "type": "Linear",
        "in_features": 64,
        "out_features": 10
      }
    ],
    "outputs": {
      "classes": [
        0,
        1,
        2,
        3,
        4,
        5,
        6,
        7,
        8,
        9
      ],
      "activation": "softmax for probabilities"
    }
  },
  "preprocessing": {
    "input": "white ink on black background",
    "convert": "grayscale",
    "autocontrast": true,
    "crop_threshold": 20,
    "resize_ink_to_max": [
      20,
      20
    ],
    "output_shape": [
      1,
      28,
      28
    ],
    "scale": "pixel values divided by 255"
  },
  "checkpoint": {
    "source": "artifacts/mnist_mlp.pt",
    "test_accuracy": 0.9608
  },
  "tensors": {
    "network.1.weight": {
      "dtype": "float32",
      "shape": [
        128,
        784
      ],
      "data": [
        [
          -0.02998628094792366,
          -0.025527844205498695,
          -0.029383264482021332,
          0.031277675181627274,
          0.025893697515130043,
          -0.00860095489770174,
          0.02147979475557804,
          -0.0321652777493,
          -0.005019401200115681,
          0.009414030238986015,
          0.026799935847520828,
          -0.0010156504577025771,
          -0.016473300755023956,
          -0.0260076355189085,
          0.03250040486454964,
          0.015522575005888939,
          0.010240882635116577,
          -0.032803021371364594,
          -0.035323407500982285,
          -0.018970299512147903,
          -0.018357329070568085,
          0.03457815572619438,
          0.021762635558843613,
          -0.023505156859755516,
          0.0037100615445524454,
          0.01731322519481182,
          0.002594977617263794,
          0.0010745227336883545,
          -0.011005482636392117,
          0.02488042786717415,
          -0.023516392335295677,
          -0.015878647565841675,
          -0.02343667484819889,
          -0.06371016055345535,
          0.021324867382645607,
          -0.0473158098757267,
          -0.058416519314050674,
          -0.09504377841949463,
          -0.10099436342716217,
          -0.1644076704978943,
          -0.16768892109394073,
          -0.10758127272129059,
          -0.009813927114009857,
          0.019747912883758545,
          0.06730706989765167,
          -0.025468504056334496,
          -0.10186141729354858,
          -0.14955687522888184,
          -0.03992500901222229,
          -0.07004128396511078,
          -0.0064389766193926334,
          -0.03924306854605675,
          -0.014259453862905502,
          -0.01345428079366684,
          0.020249713212251663,
          -0.026820465922355652,
          -0.004944426938891411,
          0.01178543921560049,
          -0.05361848324537277,
          0.0030656366143375635,
          -0.0723460465669632,
          -0.13419604301452637,
          0.003588565392419696,
          -0.07492818683385849,
          -0.07941966503858566,
          0.006485575344413519,
          -0.026818562299013138,
          0.0011547592002898455,
          0.01996467262506485,
          0.0526868961751461,
          -0.01142247673124075,
          0.08171134442090988,
          0.1097370982170105,
          0.08116704225540161,
          0.056637611240148544,
          -0.019903024658560753,
          0.024825256317853928,
          -0.006730825640261173,
          -0.03208700567483902,
          0.013687985017895699,
          0.04752518981695175,
          0.052732933312654495,
          -0.03293457254767418,
          0.016542375087738037,
          0.024322250857949257,
          0.005823263432830572,
          0.06081646308302879,
          0.013563869521021843,
          -0.062369924038648605,
          0.05815717205405235,
          -0.024042751640081406,
          0.02640179544687271,
          0.03975433111190796,
          0.04624488577246666,
          0.0648479163646698,
          0.10986112058162689,
          0.062319476157426834,
          0.09366549551486969,
          0.05409374088048935,
          0.014773846603929996,
          0.045453183352947235,
          0.09491866081953049,
          0.17971119284629822,
          0.12669727206230164,
          0.10234171897172928,
          0.015219667926430702,
          -0.011727608740329742,
          -0.16072344779968262,
          -0.08057272434234619,
          0.04074537754058838,
          -0.0722193717956543,
          0.022856177762150764,
          -0.007065006997436285,
          -0.01756015606224537,
          0.13438987731933594,
          0.11433523148298264,
          0.02018914185464382,
          0.13827069103717804,
          0.0202197153121233,
          -0.016212129965424538,
          0.05413631349802017,
          0.03882184252142906,
          0.08422817289829254,
          0.10298702865839005,
          0.041845470666885376,
          -0.03589287027716637,
          -0.09522342681884766,
          -0.04530591145157814,
          -0.0396544374525547,
          -0.016665292903780937,
          0.04930645972490311,
          0.05906989425420761,
          0.11560052633285522,
          0.010374424047768116,
          -0.04066738858819008,
          -0.07651413977146149,
          -0.06337440758943558,
          0.029649954289197922,
          -0.06675650179386139,
          -0.07572109997272491,
          0.004208407364785671,
          -0.006749541033059359,
          0.0784330889582634,
          0.06491498649120331,
          0.0520307682454586,
          0.11070601642131805,
          -0.0041768369264900684,
          0.01930845156311989,
          0.016423584893345833,
          0.04991282895207405,
          0.05121202394366264,
          -0.022119898349046707,
          -0.020938076078891754,
          -0.019702576100826263,
          -0.05281812697649002,
          -0.05003748834133148,
          -0.02306991070508957,
          -0.09932815283536911,
          -0.059520598500967026,
          -0.013944795355200768,
          0.048011038452386856,
          0.08535521477460861,
          0.06791843473911285,
          0.06753723323345184,
          0.035996679216623306,
          0.015501156449317932,
          -0.05324011296033859,
          -0.05877470597624779,
          -0.017808357253670692,
          0.0827622264623642,
          0.09061069786548615,
          0.09833165258169174,
          0.08289775252342224,
          0.07031717896461487,
          0.0026973739732056856,
          0.03039390780031681,
          0.010054956190288067,
          0.028687655925750732,
          -0.024848025292158127,
          0.021086707711219788,
          0.01917687989771366,
          -0.024514582008123398,
          0.044509418308734894,
          0.02125251665711403,
          -0.019963793456554413,
          -0.03474554419517517,
          0.03404443338513374,
          -0.018071375787258148,
          0.018705161288380623,
          -0.016414139419794083,
          0.01935851387679577,
          -0.003745673457160592,
          0.05437921732664108,
          -0.03501325473189354,
          0.023418305441737175,
          -0.019376572221517563,
          -0.04464557766914368,
          0.14186552166938782,
          0.1215130090713501,
          0.05296158045530319,
          0.0159609392285347,
          0.02962879091501236,
          0.02691166289150715,
          -0.03270178288221359,
          -0.034375712275505066,
          -0.0035362429916858673,
          -0.013365930877625942,
          0.024837559089064598,
          0.06254865974187851,
          0.09382040798664093,
          0.042352765798568726,
          0.018968520686030388,
          -0.026078833267092705,
          -0.04564208164811134,
          -0.0010558582143858075,
          -0.006399566773325205,
          0.04414643347263336,
          -0.031919028609991074,
          0.0273821372538805,
          0.024883659556508064,
          0.007100293412804604,
          0.0571155846118927,
          -0.006696690339595079,
          -0.020410891622304916,
          -0.08735235780477524,
          0.08418308943510056,
          -0.0032987522426992655,
          0.014554917812347412,
          0.05190388485789299,
          -0.03183143585920334,
          -0.04428602382540703,
          -0.02576872892677784,
          0.01736113615334034,
          0.019265426322817802,
          0.02768208645284176,
          0.06349742412567139,
          0.030859647318720818,
          0.041172415018081665,
          0.06592503190040588,
          -0.0006687513086944818,
          0.00845215655863285,
          0.017637725919485092,
          0.021600447595119476,
          -0.015857219696044922,
          0.005939111579209566,
          0.001798377837985754,
          -0.0520811602473259,
          -0.0392204113304615,
          -0.046371862292289734,
          0.05611863359808922,
          -0.025136718526482582,
          0.01504573691636324,
          -0.08401945978403091,
          0.037733666598796844,
          0.020367112010717392,
          0.06399888545274734,
          0.01657484844326973,
          -0.11441430449485779,
          0.003636057022958994,
          -0.01888532191514969,
          -0.05983157083392143,
          -0.05037306994199753,
          0.018450899049639702,
          0.021590106189250946,
          -0.029113229364156723,
          -0.029244042932987213,
          0.026152243837714195,
          0.023057270795106888,
          0.03559448570013046,
          0.035825010389089584,
          0.024797268211841583,
          0.030782602727413177,
          0.0018673534505069256,
          0.009111393243074417,
          -0.05686048045754433,
          -0.08076059073209763,
          -0.06001725792884827,
          -0.006317878141999245,
          -0.026923634111881256,
          0.07015867531299591,
          -0.025480065494775772,
          0.05826457589864731,
          0.008665960282087326,
          0.010474788956344128,
          -0.02015899121761322,
          -0.005371259059756994,
          -0.04229980334639549,
          -0.0730249285697937,
          -0.08860321342945099,
          -0.06018726900219917,
          -0.06528962403535843,
          -0.06427723169326782,
          -0.09376160055398941,
          -0.15133601427078247,
          -0.047857169061899185,
          -0.033114027231931686,
          -0.007555720862001181,
          0.02785722352564335,
          0.050423722714185715,
          0.049491509795188904,
          0.05953599885106087,
          -0.011184919625520706,
          -0.08336528390645981,
          -0.10554645210504532,
          -0.0803256556391716,
          -0.05467624217271805,
          -0.11284294724464417,
          0.08951860666275024,
          0.011850615032017231,
          -0.057474009692668915,
          -0.040847133845090866,
          -0.041401248425245285,
          0.00042006204603239894,
          -0.08564041554927826,
          -0.09152776002883911,
          -0.11684022843837738,
          -0.0767860859632492,
          -0.04588949307799339,
          -0.09336230903863907,
          -0.059487249702215195,
          -0.12084994465112686,
          -0.10745127499103546,
          -0.06344500184059143,
          -0.03144565224647522,
          -0.01799711026251316,
          0.029353655874729156,
          0.03850593417882919,
          -0.01739833876490593,
          -0.017805151641368866,
          -0.05633557587862015,
          -0.022536959499120712,
          -0.12290950864553452,
          -0.07511921972036362,
          0.027541810646653175,
          -0.15735580027103424,
          -0.014729635789990425,
          -0.01868344284594059,
          -0.07401472330093384,
          -0.1381671130657196,
          -0.12095888704061508,
          -0.03409107029438019,
          -0.053395599126815796,
          -0.10545109957456589,
          -0.14916802942752838,
          -0.08288881927728653,
          -0.04871704429388046,
          -0.038180965930223465,
          0.005830094218254089,
          -0.051185719668865204,
          -0.030223364010453224,
          -0.004985802806913853,
          0.02581368200480938,
          -0.005993521772325039,
          0.016135985031723976,
          0.06630910187959671,
          0.039958927780389786,
          -0.017166052013635635,
          -0.026477303355932236,
          -0.05970238149166107,
          -0.1317390352487564,
          -0.03620443493127823,
          0.036300573498010635,
          -0.0731208324432373,
          -0.009247521869838238,
          0.04222904145717621,
          -0.0700434073805809,
          -0.12116383016109467,
          -0.07379503548145294,
          0.0011985859600827098,
          -0.10110286623239517,
          -0.05213877931237221,
          -0.07332421839237213,
          -0.006379041820764542,
          0.01004897803068161,
          0.05581034719944,
          0.0271727554500103,
          -0.05054602771997452,
          0.03459550067782402,
          0.05685605853796005,
          0.04115802049636841,
          -0.01261812448501587,
          0.001540191937237978,
          0.01027578767389059,
          0.03468802198767662,
          0.0063210781663656235,
          -0.023506900295615196,
          -0.06899164617061615,
          -0.07269284129142761,
          -0.0470055490732193,
          0.06154431030154228,
          -0.012555673718452454,
          0.055937979370355606,
          -0.02776992879807949,
          -0.011090418323874474,
          -0.05772300437092781,
          -0.016891630366444588,
          -0.022708892822265625,
          -0.06801766157150269,
          -0.011383906938135624,
          0.021670455113053322,
          0.005071679130196571,
          0.044107478111982346,
          0.008664621040225029,
          0.052719298750162125,
          0.00657821586355567,
          0.05094947665929794,
          0.052520085126161575,
          0.07135405391454697,
          -0.00355851580388844,
          0.05145140737295151,
          0.00023892972967587411,
          0.051295481622219086,
          0.016725929453969002,
          -0.025523897260427475,
          -0.0004897181643173099,
          -0.04049982130527496,
          -0.03518086299300194,
          0.09689238667488098,
          0.05534893274307251,
          0.016710447147488594,
          -0.046334389597177505,
          0.06734953820705414,
          -0.05581291392445564,
          -0.029259394854307175,
          0.04482737556099892,
          -0.0368407666683197,
          -0.02018791250884533,
          -0.016767263412475586,
          -0.022718749940395355,
          0.010218534618616104,
          0.03192994371056557,
          0.012972361408174038,
          0.04474423825740814,
          0.10697353631258011,
          0.07363200187683105,
          0.018134888261556625,
          0.02983294427394867,
          0.02514171041548252,
          0.021479938179254532,
          -0.009074902161955833,
          -0.018389089033007622,
          -0.02414245530962944,
          -0.035381101071834564,
          -0.011866968125104904,
          0.033460620790719986,
          0.08658555150032043,
          0.05489731207489967,
          0.09002721309661865,
          0.015644406899809837,
          0.05534831061959267,
          -0.042005494236946106,
          0.052243687212467194,
          0.09166088700294495,
          0.04024035111069679,
          0.038221389055252075,
          0.02295127883553505,
          -0.008805801160633564,
          -0.0079684192314744,
          0.026785513386130333,
          0.037509191781282425,
          0.008637654595077038,
          0.03971220552921295,
          0.03075582906603813,
          0.0030304628890007734,
          0.016875267028808594,
          -0.008623147383332253,
          0.03182563558220863,
          0.034076958894729614,
          -0.00017960638797376305,
          0.0015704156830906868,
          0.013866311870515347,
          -0.030571531504392624,
          0.05085504800081253,
          0.06504064053297043,
          0.09971318393945694,
          0.09690181910991669,
          -0.007492955774068832,
          0.11761551350355148,
          -0.008643172681331635,
          0.013605770654976368,
          0.07508571445941925,
          0.038509681820869446,
          -0.005088268779218197,
          0.030792150646448135,
          0.009297640062868595,
          -0.05321075767278671,
          0.003645764198154211,
          -0.017499711364507675,
          0.02382846549153328,
          0.07525050640106201,
          0.05602950230240822,
          0.052325982600450516,
          0.0027177133597433567,
          0.001655996311455965,
          -0.011141398921608925,
          -0.0014705986250191927,
          -0.03223791718482971,
          -0.03786665201187134,
          0.001319096190854907,
          0.02099892497062683,
          0.03555348142981529,
          0.046994905918836594,
          0.07314047962427139,
          0.12014128267765045,
          0.026161856949329376,
          0.04767858237028122,
          -0.03814473748207092,
          0.09683607518672943,
          0.05466902628540993,
          -0.0043898881413042545,
          0.015817560255527496,
          0.009832832962274551,
          0.00539436424151063,
          -0.03388897329568863,
          -0.029153430834412575,
          0.01236624363809824,
          -0.0032947915606200695,
          0.028160829097032547,
          0.023962507024407387,
          -0.029590988531708717,
          -0.02273661270737648,
          0.01721973717212677,
          0.01611551083624363,
          -0.003387012518942356,
          0.026967959478497505,
          0.004918280523270369,
          0.021636413410305977,
          0.03592713549733162,
          0.028748437762260437,
          0.017334984615445137,
          0.0736476480960846,
          0.11309818923473358,
          -0.017833741381764412,
          -0.05563098564743996,
          -0.032359108328819275,
          0.0989670604467392,
          0.0655781552195549,
          0.04551665857434273,
          -0.026786476373672485,
          0.05871067941188812,
          0.03959286957979202,
          0.028339829295873642,
          -0.0016298498958349228,
          0.02684011496603489,
          -0.0178351029753685,
          -0.034699127078056335,
          -0.0010879295878112316,
          -0.034141656011343,
          -0.004219247028231621,
          0.00885664951056242,
          0.011712286621332169,
          0.008191598579287529,
          0.02280883863568306,
          0.033592525869607925,
          0.005228246562182903,
          0.04644984006881714,
          -0.006606521550565958,
          0.10116356611251831,
          0.12928709387779236,
          0.042400650680065155,
          0.01756056398153305,
          -0.08467933535575867,
          0.021847452968358994,
          0.11419101059436798,
          0.09112124890089035,
          -0.0210691187530756,
          0.033227819949388504,
          -0.011639131233096123,
          0.016933567821979523,
          -0.01158175803720951,
          0.01003517396748066,
          -0.011633902788162231,
          -0.02104436419904232,
          0.013163214549422264,
          -0.013022621162235737,
          0.004916917532682419,
          -0.010734805837273598,
          0.04361593350768089,
          -0.00013126169505994767,
          0.040292318910360336,
          0.03002423606812954,
          -0.020298173651099205,
          -0.03319583460688591,
          -0.02072131074965,
          -0.06722107529640198,
          0.026049988344311714,
          0.00347696035169065,
          0.02271486073732376,
          0.026841992512345314,
          -0.03300062194466591,
          0.15623413026332855,
          0.10046727955341339,
          0.06485570967197418,
          0.019540905952453613,
          -0.013403692282736301,
          -0.011782830581068993,
          0.03471699729561806,
          0.003995887469500303,
          -0.017985131591558456,
          -0.018197618424892426,
          -0.0289334487169981,
          -0.04762649163603783,
          -0.037089891731739044,
          -0.026140891015529633,
          -0.007388564758002758,
          0.04497656971216202,
          0.025381064042448997,
          0.022886525839567184,
          -0.02131134271621704,
          -0.07602332532405853,
          -0.06256792694330215,
          -0.04507561773061752,
          -0.03193299099802971,
          -0.02999889850616455,
          -0.06173059716820717,
          0.03865830600261688,
          -0.0018653391161933541,
          -0.009407139383256435,
          0.09378780424594879,
          0.0378328301012516,
          0.02578817680478096,
          -0.002470980165526271,
          -0.035628791898489,
          -0.03269462287425995,
          -0.025512071326375008,
          0.005271247588098049,
          -0.03998417407274246,
          -0.04706934094429016,
          -0.056232426315546036,
          0.0018428092589601874,
          0.014681698754429817,
          -0.0011485695140436292,
          0.023664399981498718,
          0.04597692936658859,
          -0.0035590180195868015,
          -0.01607089303433895,
          0.016423499211668968,
          -0.05587204173207283,
          0.01039089448750019,
          -0.020481454208493233,
          -0.02765880525112152,
          -0.010629916563630104,
          -0.11867085099220276,
          0.002401116769760847,
          0.025708740577101707,
          -0.012973385863006115,
          0.10101453959941864,
          0.04858174920082092,
          0.01826382614672184,
          0.05034341290593147,
          0.016552941873669624,
          0.01572251133620739,
          -0.02192886918783188,
          -0.02699120342731476,
          -0.019741274416446686,
          -0.05335232615470886,
          -0.08278396725654602,
          -0.0365506112575531,
          -0.07121739536523819,
          -0.00725329527631402,
          -0.04067394137382507,
          -0.015506637282669544,
          0.008750193752348423,
          -0.004081771243363619,
          -0.035742491483688354,
          -0.006975085940212011,
          -0.01137487031519413,
          -0.01929226890206337,
          0.02956375665962696,
          -0.06176839396357536,
          -0.02248157374560833,
          0.021580854430794716,
          -0.012257547117769718,
          0.01306705828756094,
          0.01420963928103447,
          0.02473379857838154,
          0.03826066479086876,
          -0.050282444804906845,
          0.012999698519706726,
          -0.009231054224073887,
          -0.037468358874320984,
          -0.05788421258330345,
          -0.052623748779296875,
          -0.012078394182026386,
          -0.034785427153110504,
          0.014203430153429508,
          0.044302474707365036,
          0.035561349242925644,
          0.013944735750555992,
          0.02760983817279339,
          -0.03801179304718971,
          -0.01446381863206625,
          -0.038152776658535004,
          0.03585898503661156,
          0.006698534358292818,
          0.004919548984616995,
          0.13169081509113312,
          0.052668847143650055,
          0.06897995620965958,
          -0.0235429834574461,
          0.022109348326921463,
          -0.028121480718255043,
          0.04375099390745163,
          -0.09047593921422958,
          -0.014930949546396732,
          0.05739091709256172,
          0.009203210473060608,
          0.014722757041454315,
          0.0864366665482521,
          0.10055922716856003,
          0.03776242956519127,
          0.06068779155611992,
          0.061909936368465424,
          0.08976335823535919,
          0.03516995906829834,
          0.04053901508450508,
          0.15528784692287445,
          0.10289124399423599,
          0.08108237385749817,
          0.11800763756036758,
          0.09444525092840195,
          0.0784006342291832,
          0.015827208757400513,
          -0.012123269960284233,
          0.05715309828519821,
          0.02341517060995102,
          0.023401441052556038,
          -0.009017284959554672,
          0.03410445898771286,
          0.011256818659603596,
          -0.025242818519473076,
          -0.04107523337006569,
          -0.09532535076141357,
          -0.020372740924358368,
          -0.03470646217465401,
          -0.04184463992714882,
          0.008329260163009167,
          0.03720548003911972,
          0.11926668882369995,
          0.03959449753165245,
          0.050110939890146255,
          0.09994329512119293,
          0.11377459764480591,
          0.12182337045669556,
          0.11878953874111176,
          0.11120700091123581,
          0.06417546421289444,
          0.13924652338027954,
          0.12693656980991364,
          0.06644217669963837,
          -0.04173162579536438,
          0.01890569180250168,
          0.04294103384017944,
          -0.0053656683303415775,
          0.009191117249429226,
          -0.00974013190716505,
          -0.025546249002218246,
          -0.011376990005373955,
          0.019969021901488304,
          0.03028826415538788,
          0.02290177531540394,
          0.05257999151945114,
          0.013691585510969162,
          0.09642154723405838,
          0.11497320234775543,
          -0.026180149987339973,
          0.09235679358243942,
          -0.04265426844358444,
          -0.07780473679304123,
          -0.09347695112228394,
          0.009914184920489788,
          -0.05111139267683029,
          -0.00517271738499403,
          -0.02846888080239296,
          -0.12341824173927307,
          -0.09749563783407211,
          -0.10777797549962997,
          -0.07841870188713074,
          -0.1438971310853958,
          -0.04685165733098984,
          0.002683567348867655,
          0.016512764617800713,
          0.012173104099929333,
          0.022441677749156952
        ],
        [
          0.01582857221364975,
          -0.021464668214321136,
          0.028063233941793442,
          0.007350521627813578,
          0.02604564279317856,
          -0.008150790818035603,
          -0.006846257951110601,
          -0.0316697433590889,
          -0.024274490773677826,
          0.035614263266325,
          0.0039345454424619675,
          -0.018719593062996864,
          0.019930364564061165,
          0.020212555304169655,
          -0.014585522934794426,
          0.03243865445256233,
          0.02179151028394699,
          0.017962409183382988,
          0.023777123540639877,
          -0.0242921132594347,
          -0.005081875249743462,
          0.012323827482759953,
          -0.03404762223362923,
          0.0051060449331998825,
          0.011058901436626911,
          -0.02022399753332138,
          0.02047876827418804,
          0.027552541345357895,
          -0.0016692536883056164,
          -0.023680629208683968,
          -0.03176148235797882,
          -0.007001625839620829,
          -0.0005678130546584725,
          -0.0033036035019904375,
          0.11391335725784302,
          0.0861576646566391,
          0.06850437074899673,
          0.07678790390491486,
          0.11195526272058487,
          0.05721845477819443,
          0.12249952554702759,
          0.023100489750504494,
          -0.09628943353891373,
          -0.06789618730545044,
          -0.04145089164376259,
          0.042267944663763046,
          0.1575760543346405,
          0.1069280207157135,
          0.14057986438274384,
          0.0780218318104744,
          0.10807433724403381,
          0.025838647037744522,
          -0.031132038682699203,
          -0.00797770731151104,
          0.018824344500899315,
          -0.0037201133091002703,
          -0.008076761849224567,
          -0.024127181619405746,
          0.019413523375988007,
          0.12936805188655853,
          0.09470275789499283,
          0.02725769393146038,
          0.09293850511312485,
          0.1122339516878128,
          0.026208166033029556,
          0.03251577913761139,
          0.08981721848249435,
          0.08181092888116837,
          0.027955150231719017,
          0.08981484919786453,
          0.046268608421087265,
          0.05233445018529892,
          0.09107016772031784,
          0.1244112029671669,
          0.12215317785739899,
          0.1577639877796173,
          0.1119241788983345,
          0.05940961837768555,
          0.11861216276884079,
          0.16308537125587463,
          -0.07757063955068588,
          -0.0446636900305748,
          -0.024997103959321976,
          0.011617166921496391,
          0.030848409980535507,
          0.013666264712810516,
          -0.05260726809501648,
          0.14305035769939423,
          0.06983688473701477,
          -0.09320415556430817,
          -0.038475144654512405,
          -0.024178653955459595,
          -0.037411101162433624,
          -0.028880897909402847,
          -0.00275967619381845,
          -0.05101026967167854,
          -0.09101296961307526,
          0.03825503960251808,
          0.06497064232826233,
          0.11625774204730988,
          0.09432966262102127,
          0.14506317675113678,
          0.16603192687034607,
          0.08775721490383148,
          0.03600719943642616,
          0.08869104832410812,
          0.0952502191066742,
          0.11475499719381332,
          0.10731672495603561,
          0.020783448591828346,
          0.040870703756809235,
          0.001208790810778737,
          -0.009651350788772106,
          -0.004094332456588745,
          -0.046682119369506836,
          -0.002611358417198062,
          -0.13458871841430664,
          -0.11900249123573303,
          -0.012707329355180264,
          0.01889493502676487,
          -0.007136918138712645,
          -0.03921902924776077,
          0.023690370842814445,
          -0.07539422065019608,
          -0.038414087146520615,
          -0.03948251157999039,
          0.020693929865956306,
          -0.009786088950932026,
          0.007510562893003225,
          0.010207463055849075,
          -0.013895610347390175,
          0.023268254473805428,
          0.1307583451271057,
          0.10028630495071411,
          0.10645943135023117,
          0.14462541043758392,
          0.14741161465644836,
          0.10590281337499619,
          0.1462855488061905,
          0.099977508187294,
          0.007931573316454887,
          -0.0017574855592101812,
          0.019698726013302803,
          -0.10305389016866684,
          -0.11483297497034073,
          -0.07777944952249527,
          -0.049226827919483185,
          -0.025094741955399513,
          -0.0012074472615495324,
          -0.03921063244342804,
          -0.025938324630260468,
          -0.013283012434840202,
          0.0224439837038517,
          -0.021334333345294,
          0.000550675205886364,
          -0.06279879808425903,
          -0.06110551953315735,
          0.014545240439474583,
          -0.051263440400362015,
          -0.010244881734251976,
          0.09344964474439621,
          0.10088004916906357,
          0.10651884227991104,
          0.11878829449415207,
          0.07508885860443115,
          0.09882320463657379,
          0.21527308225631714,
          0.10857690125703812,
          -0.003226186614483595,
          -0.07369977980852127,
          -0.04565265402197838,
          -0.10369744896888733,
          -0.13981345295906067,
          -0.06484208256006241,
          -0.09787677973508835,
          -0.0262577086687088,
          -0.027960309758782387,
          -0.043085552752017975,
          0.025109320878982544,
          -0.008645210415124893,
          -0.005456693936139345,
          -0.01292803417891264,
          -2.991362453030888e-05,
          0.015256740152835846,
          0.011221587657928467,
          0.02473606914281845,
          0.021760929375886917,
          0.010980397462844849,
          0.08210846781730652,
          0.10359258204698563,
          0.10546264052391052,
          0.09821891784667969,
          0.09305890649557114,
          0.11580482870340347,
          0.08606193214654922,
          -0.010983319953083992,
          -0.009835963137447834,
          -0.07659915089607239,
          -0.07442126423120499,
          -0.0999983549118042,
          -0.1265241801738739,
          -0.08482253551483154,
          -0.03403439000248909,
          -0.03365254029631615,
          0.02520599588751793,
          -0.020339354872703552,
          0.05913455784320831,
          0.044948384165763855,
          0.00624186173081398,
          0.01389178168028593,
          0.01236298680305481,
          0.034803878515958786,
          0.000273187062703073,
          0.021761026233434677,
          0.005110295955091715,
          -0.003679183078929782,
          0.055072251707315445,
          0.08669226616621017,
          0.07092523574829102,
          0.10084684193134308,
          0.1669219583272934,
          0.09702116996049881,
          -0.0070173535495996475,
          0.05331505089998245,
          -0.08217570930719376,
          -0.044611286371946335,
          0.018297480419278145,
          -0.03847562149167061,
          -0.11260133981704712,
          -0.02460344508290291,
          -0.022182736545801163,
          0.008356784470379353,
          -0.0030467791948467493,
          0.06945282965898514,
          0.02475314773619175,
          0.03167479485273361,
          0.01645156554877758,
          -0.02197711542248726,
          -0.0034638710785657167,
          -0.004453900270164013,
          -0.04332714527845383,
          0.023152083158493042,
          0.023985164240002632,
          -0.007034688722342253,
          -0.02980351820588112,
          -0.019105082377791405,
          0.037836067378520966,
          0.07341357320547104,
          0.12690363824367523,
          0.1652025580406189,
          0.10302788019180298,
          0.07238965481519699,
          -0.017979539930820465,
          -0.04350109025835991,
          -0.008450438268482685,
          -0.025882653892040253,
          -0.07059662789106369,
          -0.08203785121440887,
          -0.02007915824651718,
          0.006714239716529846,
          0.016473298892378807,
          0.029772590845823288,
          0.04282620549201965,
          0.027805762365460396,
          -0.018703224137425423,
          -0.08277422189712524,
          -0.08817533403635025,
          -0.13933385908603668,
          -0.11147557944059372,
          -0.07981834560632706,
          -0.08285965025424957,
          -0.04475511237978935,
          -0.05019398778676987,
          -0.041125405579805374,
          -0.09633344411849976,
          -0.05793523043394089,
          0.11601406335830688,
          0.07161692529916763,
          0.049217622727155685,
          -0.012716260738670826,
          -0.021725637838244438,
          0.018338467925786972,
          0.023358182981610298,
          -0.07269065827131271,
          -0.00271787540987134,
          -0.0373711884021759,
          0.018914716318249702,
          -0.0007793058175593615,
          0.014864418655633926,
          0.023643434047698975,
          0.09408912062644958,
          0.00015818442625459284,
          0.01574188657104969,
          -0.024317391216754913,
          -0.052143778651952744,
          -0.12143446505069733,
          -0.13904178142547607,
          -0.15048779547214508,
          -0.09206197410821915,
          -0.12907592952251434,
          -0.1517772674560547,
          -0.06024762615561485,
          -0.08330297470092773,
          -0.14411959052085876,
          -0.07370046526193619,
          -0.04504380002617836,
          0.053701046854257584,
          -0.06575535237789154,
          -0.0007311543449759483,
          -0.08273333311080933,
          -0.02288046106696129,
          -0.015791399404406548,
          0.031027380377054214,
          0.0750102773308754,
          0.10564958304166794,
          0.0845659151673317,
          0.04077398404479027,
          0.05570925772190094,
          0.03307740017771721,
          -0.006498046685010195,
          -0.001140035456046462,
          0.014974038116633892,
          0.0026647683698683977,
          -0.028154855594038963,
          -0.07107922434806824,
          -0.09397785365581512,
          -0.06969109177589417,
          -0.12981106340885162,
          -0.0945548340678215,
          -0.10467994213104248,
          -0.09045562893152237,
          -0.1390952467918396,
          -0.17369267344474792,
          -0.05159316956996918,
          0.04665210843086243,
          0.050768058747053146,
          0.0004216122906655073,
          -0.0672253966331482,
          -0.1258220374584198,
          -0.010057788342237473,
          0.004115922376513481,
          0.11702272295951843,
          0.09073226153850555,
          0.050070926547050476,
          0.05993352830410004,
          -0.0031084695365279913,
          -0.013795018196105957,
          0.02274126373231411,
          -0.005686826538294554,
          0.005193606019020081,
          0.02799919620156288,
          0.040576908737421036,
          -0.00914015993475914,
          -0.011413767002522945,
          -0.01641022600233555,
          -0.0470905564725399,
          -0.021476535126566887,
          -0.02052353508770466,
          -0.024467945098876953,
          -0.10539671778678894,
          -0.08192651718854904,
          -0.15770310163497925,
          -0.028825141489505768,
          -0.04571438580751419,
          0.017267776653170586,
          -0.03426413610577583,
          -0.12129143625497818,
          0.03455489128828049,
          0.054495327174663544,
          0.06532282382249832,
          0.03204217180609703,
          0.010042808949947357,
          0.000896734360139817,
          -0.014744647778570652,
          0.026889754459261894,
          0.024415867403149605,
          0.008555985055863857,
          0.013698090799152851,
          0.05338430032134056,
          0.03134845197200775,
          0.05607027933001518,
          0.06975480914115906,
          0.06293637305498123,
          0.032308824360370636,
          0.013207637704908848,
          -0.011325179599225521,
          0.00403784541413188,
          -0.07259414345026016,
          -0.008125805296003819,
          -0.046097978949546814,
          -0.13068710267543793,
          -0.03421170264482498,
          0.06750129908323288,
          -0.06291557103395462,
          -0.14293012022972107,
          -0.00320970406755805,
          0.05343175306916237,
          0.01536440011113882,
          -0.021720340475440025,
          -0.007847261615097523,
          -0.016611289232969284,
          -0.02199668437242508,
          0.026475654914975166,
          0.0006521663744933903,
          0.0059990729205310345,
          0.09337428212165833,
          0.051562756299972534,
          0.06438546627759933,
          0.0751308724284172,
          0.016199905425310135,
          -0.0005417561624199152,
          0.005564981605857611,
          0.005619377829134464,
          -0.028978662565350533,
          -0.012379721738398075,
          -0.04131806269288063,
          -0.009936024434864521,
          -0.022119639441370964,
          -0.10715611279010773,
          -0.038848698139190674,
          0.04646243900060654,
          -0.024510959163308144,
          -0.11837044358253479,
          -0.012972705066204071,
          -0.026336494833230972,
          -0.0354745127260685,
          -0.07433620095252991,
          -0.041360579431056976,
          -0.06464023888111115,
          -0.010514311492443085,
          0.03019978478550911,
          0.03889257460832596,
          0.02466716058552265,
          0.07531566172838211,
          0.0755155012011528,
          0.04972711205482483,
          0.06802321970462799,
          0.09168712794780731,
          -0.0043248143047094345,
          -0.02068621665239334,
          -0.006869214121252298,
          0.014684136025607586,
          -0.016125593334436417,
          -0.05338806286454201,
          -0.023619942367076874,
          -0.05648002400994301,
          -0.1347343772649765,
          -0.07767702639102936,
          -0.009607682935893536,
          -0.037443701177835464,
          -0.12320559471845627,
          -0.03609435632824898,
          0.05601015314459801,
          -0.06940219551324844,
          -0.0669751837849617,
          -0.0419023260474205,
          -0.060519084334373474,
          -0.04380470886826515,
          -0.009323690086603165,
          0.051426105201244354,
          0.07994942367076874,
          0.051172517240047455,
          0.0766870379447937,
          0.045119885355234146,
          0.07341580837965012,
          0.048051223158836365,
          -0.02539818175137043,
          -0.006289659067988396,
          -0.04498624801635742,
          0.012034703977406025,
          0.003472759388387203,
          -0.05089380964636803,
          -0.017794471234083176,
          -0.06649556010961533,
          -0.12235861271619797,
          -0.01557198353111744,
          -0.01966239884495735,
          -0.0468289814889431,
          -0.07733728736639023,
          0.026750830933451653,
          -0.015338693745434284,
          -0.10502716153860092,
          -0.05935030058026314,
          -0.030293304473161697,
          -0.032560013234615326,
          -0.03632021322846413,
          0.05973433330655098,
          0.13301488757133484,
          0.09251250326633453,
          0.04266687110066414,
          0.008616366423666477,
          0.04074198752641678,
          0.030375218018889427,
          -0.01618073880672455,
          -0.011524875648319721,
          -0.02122686244547367,
          0.016032882034778595,
          0.004196422640234232,
          -0.02052270621061325,
          -0.01924455724656582,
          0.008253815583884716,
          -0.01798636093735695,
          -0.03508180007338524,
          -0.11670927703380585,
          0.02806488797068596,
          -0.06688066571950912,
          -0.0276934951543808,
          0.0028852801769971848,
          0.04134845733642578,
          -0.10893741250038147,
          -0.06332371383905411,
          -0.08470919728279114,
          -0.006864431779831648,
          0.02293885126709938,
          0.0009750049212016165,
          0.10090899467468262,
          0.09461019188165665,
          0.06566174328327179,
          -0.016862083226442337,
          0.005754520185291767,
          0.015552975237369537,
          0.03853192552924156,
          0.0343274362385273,
          -0.024004878476262093,
          0.0013524448731914163,
          -0.039812296628952026,
          0.01791444979608059,
          0.00592071283608675,
          -0.04174966737627983,
          -0.07138422131538391,
          -0.04561031609773636,
          -0.08600623160600662,
          -0.024100735783576965,
          -0.14326684176921844,
          0.02904936484992504,
          -0.011230433359742165,
          0.06759114563465118,
          -0.03644189611077309,
          -0.04932336136698723,
          -0.03548722341656685,
          -0.028299005702137947,
          -0.0058151911944150925,
          0.07272186130285263,
          0.043788790702819824,
          0.028414633125066757,
          0.019504373893141747,
          0.0039495304226875305,
          0.015112606808543205,
          0.0266891922801733,
          0.006148765329271555,
          -0.024277737364172935,
          0.006004936993122101,
          0.028549913316965103,
          -0.005830495152622461,
          0.006917409133166075,
          -0.014960598200559616,
          0.02238539420068264,
          -0.09060832858085632,
          -0.09449899196624756,
          0.0005293057765811682,
          0.02829458937048912,
          -0.055872973054647446,
          0.027395619079470634,
          0.0635000616312027,
          0.028728468343615532,
          -0.06013476476073265,
          -0.07721707224845886,
          -0.06254415959119797,
          0.016485121101140976,
          0.008493633940815926,
          0.06071937456727028,
          0.027865994721651077,
          -0.0007275390671566129,
          -0.010549677535891533,
          -0.04709390178322792,
          -0.017413750290870667,
          -0.02585921250283718,
          -0.013078850694000721,
          0.01681298203766346,
          -0.012509545311331749,
          -0.013065982609987259,
          0.0034470760729163885,
          0.024866102263331413,
          0.03630721569061279,
          -0.03230162337422371,
          0.013638239353895187,
          -0.10598146170377731,
          0.01035570353269577,
          -0.0026871829759329557,
          -0.014857185073196888,
          -0.021225545555353165,
          0.060430463403463364,
          0.06737998127937317,
          -0.0260508731007576,
          -0.07441241294145584,
          -0.034472305327653885,
          0.001831193221732974,
          0.01196469459682703,
          0.007776476908475161,
          0.04389670491218567,
          -0.0010945581598207355,
          0.04193331301212311,
          0.00840063113719225,
          0.04083225876092911,
          0.01410992443561554,
          0.0006437230622395873,
          0.012463537976145744,
          -0.024628743529319763,
          0.02992107719182968,
          0.04575739800930023,
          0.04775148630142212,
          0.03214920312166214,
          -0.01095044519752264,
          0.03310961648821831,
          -0.08639251440763474,
          0.030523205175995827,
          0.016370799392461777,
          -0.0043351780623197556,
          -0.035782501101493835,
          0.030790461227297783,
          0.09024427831172943,
          -0.03673114627599716,
          -0.09553731232881546,
          -0.08975669741630554,
          -0.036162324249744415,
          -0.008511392399668694,
          -0.05699263885617256,
          -0.0037702142726629972,
          0.05938725173473358,
          0.008423354476690292,
          0.029803793877363205,
          0.029459087178111076,
          0.03680886700749397,
          0.03071611002087593,
          0.030954796820878983,
          0.008680570870637894,
          0.003919533453881741,
          0.05048169940710068,
          0.005361535120755434,
          -0.03589962422847748,
          0.009956425055861473,
          0.08799310028553009,
          0.06005530059337616,
          0.03965934365987778,
          0.023923339322209358,
          0.025599097833037376,
          -0.03430037945508957,
          0.04676229506731033,
          0.07150402665138245,
          0.006322952453047037,
          -0.03329387307167053,
          -0.07400728762149811,
          -0.02122223563492298,
          -0.03591572493314743,
          -0.03638941049575806,
          -0.018650930374860764,
          -0.04162672907114029,
          0.010725317522883415,
          0.011917323805391788,
          0.024865474551916122,
          0.07858002185821533,
          -0.004390033893287182,
          -0.01879684440791607,
          0.017975883558392525,
          0.03380948305130005,
          0.024634161964058876,
          0.020178353413939476,
          0.07282304763793945,
          0.08134117722511292,
          0.10434937477111816,
          0.06435325741767883,
          -0.025516021996736526,
          0.012950480915606022,
          -0.0012319557135924697,
          -0.03479155898094177,
          -0.05627148598432541,
          -0.031773872673511505,
          0.005657915957272053,
          -0.044661521911621094,
          -0.03816986083984375,
          -0.03380372002720833,
          0.010082495398819447,
          0.03452498838305473,
          0.025413652881979942,
          0.05067746713757515,
          0.04846921190619469,
          0.039514847099781036,
          0.009988851845264435,
          0.07374236732721329,
          0.009765083901584148,
          0.01452494878321886,
          0.061533667147159576,
          0.05665327608585358,
          -0.013799823820590973,
          0.032060056924819946,
          0.010856135748326778,
          0.10132549703121185,
          -0.13882994651794434,
          -0.09645543247461319,
          -0.026291580870747566,
          0.006369804032146931,
          -0.028606820851564407,
          0.05242743343114853,
          -0.004221845883876085,
          -0.0068343449383974075,
          0.014464075677096844,
          -0.00015149315004236996,
          0.009415648877620697,
          -0.08371169120073318,
          -0.06713716685771942,
          0.01604294590651989,
          0.02370489574968815,
          0.08219049870967865,
          0.07344356924295425,
          0.11458763480186462,
          0.18609972298145294,
          0.13076628744602203,
          0.18497604131698608,
          0.18813762068748474,
          0.09963515400886536,
          0.052549753338098526,
          0.07564115524291992,
          0.11021067947149277,
          0.10740438848733902,
          0.12951742112636566,
          -0.002309430157765746,
          -0.013323232531547546,
          -0.02874971367418766,
          0.026304174214601517,
          -0.017132878303527832,
          -0.015780944377183914,
          0.06950174272060394,
          0.0499279648065567,
          -0.0018589507089927793,
          0.0001878405746538192,
          0.03391260653734207,
          0.07157307863235474,
          0.04350701719522476,
          0.008338834159076214,
          0.1313130110502243,
          0.1714913249015808,
          0.0826449990272522,
          0.11578086763620377,
          0.12667162716388702,
          0.13626264035701752,
          0.12985052168369293,
          0.05500727891921997,
          0.01901630312204361,
          -0.03706074506044388,
          0.07465589046478271,
          0.0783902257680893,
          0.12492240965366364,
          -0.0038974208291620016,
          -0.03526035323739052,
          -0.00542687950655818,
          -0.022587232291698456,
          0.017781104892492294,
          0.033286552876234055,
          0.02019904926419258,
          0.005721015855669975,
          0.062009941786527634,
          0.027817772701382637,
          -0.012196049094200134,
          -0.017377331852912903,
          -0.02846347726881504,
          -0.01723380945622921,
          -0.04594448208808899,
          0.038503024727106094,
          0.04265629127621651,
          0.020566301420331,
          0.06859785318374634,
          0.07237160950899124,
          -0.026679040864109993,
          -0.017545010894536972,
          0.022999681532382965,
          -0.01827392540872097,
          -0.07877890765666962,
          -0.11809935420751572,
          -0.058691345155239105,
          0.1273043006658554,
          -0.030936170369386673,
          0.004284160677343607,
          -0.0024514582473784685,
          -0.027312910184264183
        ],
        [
          0.01227238867431879,
          -0.02807767130434513,
          -0.02554178796708584,
          0.03410033509135246,
          -0.0060829948633909225,
          -0.002019184175878763,
          -0.0108882961794734,
          0.027600625529885292,
          0.035511549562215805,
          0.029905984178185463,
          -0.014074679464101791,
          0.00592789938673377,
          0.028868308290839195,
          0.05706588923931122,
          -0.04880756884813309,
          -0.03206340968608856,
          -0.011978554539382458,
          -0.024991359561681747,
          0.006540183909237385,
          0.01252847071737051,
          0.029727600514888763,
          -0.019607234746217728,
          -0.012593436054885387,
          -0.030886109918355942,
          -0.02716202102601528,
          0.022593248635530472,
          -0.005509921815246344,
          -0.0006711185560561717,
          -0.02626923657953739,
          0.02001725509762764,
          0.001920717186294496,
          0.0030657565221190453,
          0.049551721662282944,
          0.014757060445845127,
          0.013911925256252289,
          0.03941597044467926,
          0.17521782219409943,
          -0.00010248120088363066,
          -0.05804020166397095,
          -0.009641502052545547,
          0.005237523466348648,
          0.026079362258315086,
          -0.09504326432943344,
          -0.04740162938833237,
          -0.04463735595345497,
          0.05026993900537491,
          0.08163011819124222,
          0.08403335511684418,
          0.10028672218322754,
          -0.012906673364341259,
          -0.0650704875588417,
          -0.011187405325472355,
          0.003774608951061964,
          0.009322592988610268,
          0.015862030908465385,
          -0.011896444484591484,
          -0.029954928904771805,
          0.029134981334209442,
          0.022357016801834106,
          -0.08451762050390244,
          0.02524906024336815,
          0.03147755190730095,
          -0.011131740175187588,
          0.029717285186052322,
          0.05503474920988083,
          0.06364896893501282,
          0.0017318156315013766,
          0.030413145199418068,
          -0.028832128271460533,
          0.005431549623608589,
          0.10383489727973938,
          0.13855493068695068,
          0.052741166204214096,
          0.10761851817369461,
          0.07472360879182816,
          -0.03926043212413788,
          -0.046203117817640305,
          -0.050287097692489624,
          -0.03298477083444595,
          -0.03940104693174362,
          -0.03304620459675789,
          0.01527034118771553,
          0.029297880828380585,
          0.018856167793273926,
          0.006940352264791727,
          -0.007660921663045883,
          -0.0827816054224968,
          -0.05317682400345802,
          -0.028904223814606667,
          -0.03166719898581505,
          -0.04900037869811058,
          -0.06624070554971695,
          0.025158321484923363,
          0.02833530865609646,
          0.02901841141283512,
          0.06962940096855164,
          0.03751000761985779,
          0.022022254765033722,
          0.18091395497322083,
          0.12497789412736893,
          0.08609607815742493,
          0.06549017131328583,
          0.016957998275756836,
          0.013548782095313072,
          -0.03368876874446869,
          -0.06443450599908829,
          -0.03477032482624054,
          -0.07610323280096054,
          -0.12995466589927673,
          0.01955784671008587,
          -0.05159882828593254,
          -0.014635776169598103,
          0.019691651687026024,
          -0.018875788897275925,
          -0.09446650743484497,
          -0.02428862825036049,
          0.06050889939069748,
          -0.007110943086445332,
          -0.06412690877914429,
          -0.007505884859710932,
          0.010020545683801174,
          0.008408072404563427,
          -0.05721442401409149,
          0.005334286019206047,
          -0.06686168164014816,
          -0.11222902685403824,
          -0.02464812994003296,
          -0.03905220702290535,
          -0.04463164135813713,
          -0.027578679844737053,
          -0.05373508483171463,
          -0.08299566805362701,
          0.003053188556805253,
          -0.031095284968614578,
          -0.027743691578507423,
          0.06358859688043594,
          0.008361700922250748,
          -0.03578352928161621,
          -0.05616037920117378,
          -0.02004265785217285,
          -0.01231348142027855,
          0.026245195418596268,
          -0.09445054084062576,
          -0.13191498816013336,
          0.019716639071702957,
          0.04545168951153755,
          -0.03860821947455406,
          -0.03088424541056156,
          0.04280224069952965,
          0.003212859621271491,
          0.003287938656285405,
          0.03559243306517601,
          -0.02021213062107563,
          -0.0386665053665638,
          0.0031111447606235743,
          -0.05808938667178154,
          -0.055641982704401016,
          -0.11469880491495132,
          -0.0992380902171135,
          -0.057230934500694275,
          -0.07050718367099762,
          0.008092454634606838,
          0.0006727424333803356,
          0.036115601658821106,
          0.011128297075629234,
          0.03493879362940788,
          -0.08773143589496613,
          -0.049831323325634,
          -0.00277417479082942,
          -0.08826810866594315,
          0.042174164205789566,
          -0.03180970251560211,
          -0.06641680747270584,
          -0.06583584100008011,
          -0.0451214537024498,
          0.019044363871216774,
          0.029385026544332504,
          0.05236710608005524,
          0.04608936235308647,
          0.044087521731853485,
          0.04098081588745117,
          0.026262162253260612,
          0.054343074560165405,
          0.023670822381973267,
          0.04832933843135834,
          0.013488435186445713,
          -0.020279573276638985,
          -0.02723703719675541,
          -0.051484718918800354,
          -0.013224337249994278,
          -0.004535469226539135,
          0.020256100222468376,
          -0.03237222135066986,
          -0.04211593046784401,
          0.04703391343355179,
          -0.14584611356258392,
          -0.01810901053249836,
          -0.04044713079929352,
          -0.003497027326375246,
          -0.03328276798129082,
          -0.08419393002986908,
          -0.06952348351478577,
          -0.10226384550333023,
          -0.06619184464216232,
          -0.010534035041928291,
          0.009940609335899353,
          0.019328730180859566,
          0.060881175100803375,
          0.0735384151339531,
          0.028460411354899406,
          0.08373112976551056,
          0.08218934386968613,
          0.020490331575274467,
          0.051093194633722305,
          0.017368806526064873,
          0.005413070786744356,
          -0.02839072234928608,
          -0.07002869248390198,
          -0.04444693401455879,
          -0.06869082152843475,
          -0.07363205403089523,
          -0.049935173243284225,
          0.0703844204545021,
          -0.14964599907398224,
          -0.06683740019798279,
          0.013921759091317654,
          -0.006161739118397236,
          -0.07771724462509155,
          -0.025300681591033936,
          -0.1385759562253952,
          -0.09095987677574158,
          -0.04627998173236847,
          -0.056920554488897324,
          -0.03577321022748947,
          0.006597442552447319,
          0.04662301018834114,
          0.034015852957963943,
          0.0036724901292473078,
          0.015740826725959778,
          0.002942595863714814,
          0.013213347643613815,
          -0.036913029849529266,
          0.042501356452703476,
          -0.06124046817421913,
          -0.028238445520401,
          -0.06747622042894363,
          -0.08266820013523102,
          -0.053007885813713074,
          -0.015525410883128643,
          -0.04917817935347557,
          -0.057034630328416824,
          -0.09164354205131531,
          0.04373863339424133,
          0.05811803787946701,
          -0.06993423402309418,
          -0.009281136095523834,
          0.0024227499961853027,
          -0.05639345943927765,
          -0.08097768574953079,
          -0.02032197080552578,
          -0.00754875922575593,
          0.011037969961762428,
          0.017260178923606873,
          0.004067143425345421,
          0.02098822593688965,
          -0.026995299383997917,
          0.03476038947701454,
          -0.016517117619514465,
          0.02076302468776703,
          0.050553686916828156,
          0.06129463016986847,
          0.04557809978723526,
          -0.0046157436445355415,
          0.007664112374186516,
          -0.07004663348197937,
          -0.11911959201097488,
          -0.02862395904958248,
          -0.053309258073568344,
          -0.11668318510055542,
          0.007279169280081987,
          0.024666212499141693,
          0.07741395384073257,
          -0.019801326096057892,
          -0.05145327001810074,
          -0.0035011149011552334,
          -0.07221449911594391,
          -0.007149725221097469,
          -0.01713516376912594,
          0.0048398119397461414,
          0.04492286220192909,
          0.04273693263530731,
          -0.012944807298481464,
          0.03317970409989357,
          -0.022908058017492294,
          -0.0258627999573946,
          0.0071950312703847885,
          0.07675644755363464,
          0.0603010319173336,
          0.08503338694572449,
          0.03403840586543083,
          0.07524079829454422,
          0.04888826608657837,
          -0.06907805055379868,
          -0.06818512827157974,
          -0.10607808083295822,
          -0.15049104392528534,
          -0.21372029185295105,
          -0.04479699209332466,
          0.028526393696665764,
          0.048513464629650116,
          0.031853437423706055,
          0.01583205722272396,
          0.023399442434310913,
          -0.05394275113940239,
          0.061755288392305374,
          0.033938027918338776,
          0.05989350751042366,
          0.028591390699148178,
          0.054793402552604675,
          0.07663197070360184,
          -0.03827213868498802,
          -0.05596320703625679,
          -0.062086280435323715,
          0.015475479885935783,
          0.13907445967197418,
          0.10661496222019196,
          0.06923122704029083,
          0.005322808865457773,
          0.04346480220556259,
          0.06289161741733551,
          0.026167018339037895,
          -0.0233139805495739,
          -0.18741941452026367,
          -0.168047696352005,
          -0.20327162742614746,
          0.0737561509013176,
          -0.04134567826986313,
          0.05909895524382591,
          0.14073166251182556,
          0.0370512381196022,
          0.02166995406150818,
          0.009136124514043331,
          0.03032173030078411,
          0.052643682807683945,
          0.027496105059981346,
          0.027874941006302834,
          0.07300412654876709,
          -0.01858307234942913,
          -0.10019370913505554,
          -0.10035666823387146,
          -0.022158659994602203,
          0.03879263252019882,
          0.14323115348815918,
          0.05027122423052788,
          0.054321710020303726,
          0.01940399967133999,
          0.08308931440114975,
          0.0980607345700264,
          0.05255895107984543,
          -0.03703469783067703,
          -0.0527227483689785,
          -0.13734588027000427,
          -0.18575458228588104,
          0.04047990217804909,
          -0.08850283920764923,
          0.026581306010484695,
          0.09199059009552002,
          0.08091725409030914,
          0.1145811453461647,
          0.030926814302802086,
          0.04926702380180359,
          0.027514241635799408,
          0.0024028329644352198,
          0.03493122756481171,
          0.05421354994177818,
          -0.02983730472624302,
          -0.029907627031207085,
          -0.011899319477379322,
          0.005538600962609053,
          0.08319326490163803,
          0.07729750871658325,
          0.02215513214468956,
          0.05227465555071831,
          0.04486045241355896,
          0.0848190188407898,
          0.0774039626121521,
          0.053009603172540665,
          0.003644399344921112,
          -0.008386921137571335,
          0.052467744797468185,
          -0.17855313420295715,
          -0.05480377376079559,
          -0.09953286498785019,
          0.04527043178677559,
          0.051087405532598495,
          0.08436647802591324,
          0.044529493898153305,
          0.009544681757688522,
          0.03801066428422928,
          -0.02587665431201458,
          0.04395745322108269,
          0.03417932987213135,
          0.02399269863963127,
          -0.04182767868041992,
          -0.006625026930123568,
          -0.060004036873579025,
          0.008778469637036324,
          0.05043641850352287,
          0.01880062371492386,
          0.008244202472269535,
          0.04528570920228958,
          0.020389316603541374,
          0.05537032335996628,
          0.11378217488527298,
          0.07927203923463821,
          0.03663235157728195,
          -0.01618654653429985,
          0.06614654511213303,
          -0.1761072427034378,
          -0.07779768109321594,
          -0.04340332746505737,
          -0.06038372218608856,
          -0.11864791065454483,
          0.029785992577672005,
          0.018441058695316315,
          0.010275055654346943,
          0.04405849799513817,
          0.010500029660761356,
          -0.04112187772989273,
          -0.06736830621957779,
          -0.00635269982740283,
          -0.0514080785214901,
          -0.01989240013062954,
          -0.035923849791288376,
          -0.015633035451173782,
          0.011357255280017853,
          -0.011566982604563236,
          0.033862289041280746,
          0.08028655499219894,
          0.07190971821546555,
          0.047265082597732544,
          0.08842559158802032,
          0.09943818300962448,
          -0.020329948514699936,
          -0.049899544566869736,
          0.01598191447556019,
          -0.0924062430858612,
          -0.059327639639377594,
          0.058743756264448166,
          0.008359966799616814,
          -0.06663084030151367,
          -0.05498482659459114,
          -0.014151540584862232,
          -0.05154944956302643,
          -0.014683599583804607,
          0.0065498678013682365,
          -0.03387807309627533,
          -0.024279367178678513,
          -0.047618504613637924,
          -0.016560638323426247,
          -0.008884602226316929,
          -0.03703444078564644,
          0.01713070459663868,
          -0.011025823652744293,
          -0.017818596214056015,
          0.03772278502583504,
          0.03601926192641258,
          0.04768303409218788,
          0.0728624239563942,
          0.059128161519765854,
          -0.0036098856944590807,
          -0.06108192726969719,
          -0.06042516976594925,
          0.050672393292188644,
          -0.015294484794139862,
          -0.051477521657943726,
          0.017856024205684662,
          -0.0832069143652916,
          -0.12592175602912903,
          -0.08550354093313217,
          -0.019238468259572983,
          -0.04590645805001259,
          -0.01693013869225979,
          0.007704876828938723,
          -0.04360279440879822,
          -0.042715344578027725,
          0.007013294380158186,
          0.003369735088199377,
          0.008224619552493095,
          0.007381775416433811,
          -0.015704259276390076,
          0.0397191196680069,
          -0.04301295801997185,
          -0.016839835792779922,
          0.015329484827816486,
          0.036071889102458954,
          -0.0010333650279790163,
          -0.01612236350774765,
          -0.042009834200143814,
          -0.11536561697721481,
          -0.01664602942764759,
          0.11068960279226303,
          0.08468671888113022,
          -0.04924435168504715,
          0.06615263968706131,
          -0.03304455056786537,
          -0.11616498231887817,
          -0.06771024316549301,
          0.0010380876483395696,
          -0.10148070007562637,
          -0.06337679922580719,
          -0.07779845595359802,
          -0.04702102392911911,
          -0.0070936065167188644,
          0.002038222039118409,
          0.02806135267019272,
          0.0419212244451046,
          0.038676146417856216,
          0.05206844583153725,
          -0.03629007562994957,
          -0.05732518061995506,
          -0.028051195666193962,
          0.002996062161400914,
          0.005738032050430775,
          -0.06000082194805145,
          -0.047465115785598755,
          -0.057591818273067474,
          -0.10306515544652939,
          -0.04153742641210556,
          0.014897450804710388,
          0.14811983704566956,
          -0.12014127522706985,
          -0.07683680206537247,
          0.05446896329522133,
          -0.0727727934718132,
          -0.03668633848428726,
          -0.003091437043622136,
          -0.004982681944966316,
          -0.05237594619393349,
          -0.05494778975844383,
          -0.046319104731082916,
          -0.07516878843307495,
          -0.02191748470067978,
          0.05489463731646538,
          0.06518340855836868,
          0.034214433282613754,
          -0.010696280747652054,
          -0.06137389689683914,
          -0.059274110943078995,
          -0.06259053200483322,
          -0.004460571333765984,
          -0.05313077196478844,
          -0.03920069709420204,
          -0.0550096221268177,
          -0.07912153750658035,
          -0.05471446365118027,
          -0.021190794184803963,
          -0.02127879112958908,
          -0.008381911553442478,
          -0.09931138902902603,
          0.01603218913078308,
          -0.05107514560222626,
          -0.11343885958194733,
          -0.05397096276283264,
          -0.04094617813825607,
          -0.009916522540152073,
          -0.04720692336559296,
          -0.03133024275302887,
          -0.06619436293840408,
          -0.10977456718683243,
          -0.09058675915002823,
          -0.041320327669382095,
          0.022036194801330566,
          0.06107831373810768,
          0.04357991740107536,
          -0.06388320028781891,
          -0.0397588349878788,
          -0.06734513491392136,
          -0.06141426041722298,
          -0.02235483191907406,
          -0.037901315838098526,
          -0.10737697035074234,
          -0.09841882437467575,
          -0.09159903973340988,
          -0.028479265049099922,
          0.00808719638735056,
          0.014435257762670517,
          -0.05003512650728226,
          -0.05919749662280083,
          -0.06635823100805283,
          -0.07237985730171204,
          -0.11322436481714249,
          -0.08509567379951477,
          -0.023415859788656235,
          -0.03355880081653595,
          -0.03248234838247299,
          -0.030277429148554802,
          -0.022004082798957825,
          -0.12463637441396713,
          -0.073239266872406,
          -0.024281175807118416,
          -0.006347831338644028,
          0.0072243707254529,
          0.009487629868090153,
          0.007587131578475237,
          -0.024884557351469994,
          -0.06905707716941833,
          -0.08880401402711868,
          -0.10495389997959137,
          -0.09300339221954346,
          -0.04999494552612305,
          -0.07617314159870148,
          -0.02169008180499077,
          0.022533131763339043,
          0.07405899465084076,
          -0.02798398770391941,
          -0.055082496255636215,
          -0.016978034749627113,
          -0.023061692714691162,
          -0.1578560471534729,
          -0.015126754529774189,
          0.060804471373558044,
          -0.039754319936037064,
          -0.0009593141730874777,
          -0.019686037674546242,
          0.02695675566792488,
          -0.03635068237781525,
          -0.07564254850149155,
          -0.04779055342078209,
          -0.004991940688341856,
          -0.0005310458363965154,
          -0.04802478477358818,
          -0.05766429007053375,
          -0.07019270211458206,
          -0.11051757633686066,
          -0.12697291374206543,
          -0.11584796011447906,
          -0.06461002677679062,
          -0.06067711487412453,
          -0.02521493099629879,
          0.04508066177368164,
          0.05500828102231026,
          0.1256990134716034,
          0.008487837389111519,
          0.006289052311331034,
          -0.021470049396157265,
          -0.06231744587421417,
          -0.07744083553552628,
          -0.002823593094944954,
          0.07307486236095428,
          0.0730489045381546,
          0.008942968212068081,
          -0.009320794604718685,
          -0.02089677006006241,
          0.006625059060752392,
          -0.019431382417678833,
          -0.04626621678471565,
          0.021219128742814064,
          0.040602464228868484,
          -0.060850709676742554,
          -0.03385162726044655,
          -0.04267596825957298,
          -0.04595908150076866,
          -0.054365579038858414,
          -0.06314779818058014,
          -0.06471952795982361,
          -0.014756779186427593,
          0.04454993084073067,
          0.06609266251325607,
          0.108173668384552,
          0.02997151017189026,
          0.024199070408940315,
          -0.008410845883190632,
          -0.027065660804510117,
          0.029208015650510788,
          -0.05192781239748001,
          0.057632919400930405,
          0.15213705599308014,
          0.09288755059242249,
          0.050208088010549545,
          0.003235218580812216,
          -0.03960220888257027,
          0.06492886692285538,
          0.05218668654561043,
          0.05260181427001953,
          0.04898560792207718,
          0.052528265863657,
          0.03081631101667881,
          0.01556694507598877,
          0.03498321771621704,
          -0.06664817035198212,
          -0.05923456326127052,
          -0.04646838456392288,
          0.05305054411292076,
          0.04745561629533768,
          0.009547844529151917,
          -0.02111240103840828,
          -0.04517173767089844,
          -0.012622657231986523,
          0.024736741557717323,
          -0.01287692878395319,
          0.028879184275865555,
          0.028474068269133568,
          0.05360487103462219,
          0.045447882264852524,
          0.10764535516500473,
          0.06618188321590424,
          0.08691134303808212,
          -0.025223571807146072,
          -0.04441584274172783,
          0.028649672865867615,
          0.043504748493433,
          0.053018976002931595,
          -0.010691344738006592,
          -0.006203541532158852,
          0.03408005088567734,
          0.0187393631786108,
          0.15668612718582153,
          0.048453669995069504,
          0.0222930945456028,
          0.01119592972099781,
          0.07902827858924866,
          0.013902680948376656,
          -0.0337044820189476,
          -0.04386426880955696,
          0.019637256860733032,
          -0.030680837109684944,
          0.015530599281191826,
          0.03068726137280464,
          -0.002650665584951639,
          0.005219361744821072,
          0.029677866026759148,
          0.03095271624624729,
          0.1509590446949005,
          0.1748925894498825,
          0.11565004289150238,
          0.09913374483585358,
          0.12541139125823975,
          0.13724949955940247,
          0.08174788951873779,
          0.07380259037017822,
          0.04331080988049507,
          0.02998041920363903,
          -0.011081643402576447,
          0.060616593807935715,
          0.11398514360189438,
          0.07939682900905609,
          -0.0023707235231995583,
          0.10303755104541779,
          0.14179526269435883,
          0.11448164284229279,
          0.1793694943189621,
          0.06177161633968353,
          0.01176439505070448,
          -0.0012903724564239383,
          0.006127604749053717,
          -0.02651672437787056,
          -0.031298741698265076,
          -0.008434032090008259,
          -0.00222038384526968,
          -0.02276967652142048,
          0.006845870520919561,
          0.06768281757831573,
          0.08516738563776016,
          0.08772609382867813,
          0.0475567989051342,
          0.11640826612710953,
          0.004969825502485037,
          0.026163047179579735,
          0.13474209606647491,
          0.17182381451129913,
          0.1542569100856781,
          0.14219143986701965,
          0.09527881443500519,
          0.11337966471910477,
          -0.0008283562492579222,
          0.1185358464717865,
          0.14475131034851074,
          0.14661534130573273,
          0.080234594643116,
          0.00285970326513052,
          0.0054891156032681465,
          -0.006310326978564262,
          0.0009664680692367256
        ],
        [
          0.016011912375688553,
          0.007737722247838974,
          -0.02312219701707363,
          -0.011609550565481186,
          0.028667613863945007,
          -0.01573329046368599,
          0.009182317182421684,
          0.016635959967970848,
          0.019244689494371414,
          0.00956751685589552,
          -0.02849724143743515,
          0.015238771215081215,
          -0.020317943766713142,
          0.0189209021627903,
          0.0032278839498758316,
          -0.027173958718776703,
          0.0013046350795775652,
          -0.027724847197532654,
          0.00661690765991807,
          0.017165355384349823,
          0.01270675752311945,
          -0.020827140659093857,
          0.015400988981127739,
          0.030737021937966347,
          0.032416507601737976,
          -0.01801428757607937,
          -0.0023745682556182146,
          -0.02041768655180931,
          -0.032715827226638794,
          -0.03205031901597977,
          0.0201957356184721,
          0.02817038632929325,
          -0.018531005829572678,
          -0.01788649894297123,
          0.05946335941553116,
          0.11443296819925308,
          0.0646761879324913,
          0.012154964730143547,
          0.04020998999476433,
          -0.020350944250822067,
          -0.02434626966714859,
          0.07402649521827698,
          -0.02674795687198639,
          0.003762339474633336,
          0.1030619889497757,
          0.054954893887043,
          -0.0136833805590868,
          0.05786675587296486,
          0.06392475217580795,
          -0.0007085665129125118,
          0.04870506748557091,
          0.044105976819992065,
          0.002437204122543335,
          -0.004234637599438429,
          -0.016819128766655922,
          0.0012482362799346447,
          -0.02011561393737793,
          -0.030306361615657806,
          0.020771190524101257,
          -0.03431351110339165,
          0.0038096315693110228,
          0.002685388782992959,
          0.006270655896514654,
          -0.006047348957508802,
          0.0146091403439641,
          0.014232357032597065,
          0.03765787556767464,
          0.04421984404325485,
          0.03391726687550545,
          0.15363749861717224,
          0.173305943608284,
          0.06196870654821396,
          0.02649560570716858,
          -0.01649392768740654,
          -0.0018909081118181348,
          0.0007642754935659468,
          0.039418917149305344,
          0.041660841554403305,
          0.08891322463750839,
          0.10151936858892441,
          0.07589608430862427,
          0.03496323898434639,
          0.012379046529531479,
          -0.0062113874591887,
          0.023425336927175522,
          -0.0163277480751276,
          -0.09795490652322769,
          0.027201171964406967,
          0.014451127499341965,
          0.046876635402441025,
          0.01798461750149727,
          0.04042017459869385,
          -0.006836266722530127,
          0.045821886509656906,
          0.06973791867494583,
          0.10976450145244598,
          0.07745642960071564,
          0.09944657236337662,
          0.22388429939746857,
          0.09561052918434143,
          0.16202786564826965,
          0.1637682169675827,
          0.09018565714359283,
          0.06114675849676132,
          0.030179258435964584,
          0.12043812870979309,
          0.05065726861357689,
          0.08210762590169907,
          0.02037043869495392,
          -0.0032252648379653692,
          0.05714862048625946,
          -0.0280635803937912,
          -0.03132515400648117,
          0.010948102921247482,
          -0.062172334641218185,
          0.025149213150143623,
          0.08620336651802063,
          0.19076234102249146,
          -0.019601991400122643,
          -0.036385368555784225,
          0.025376083329319954,
          0.09860904514789581,
          0.10511741787195206,
          0.032764796167612076,
          0.08953054994344711,
          0.05529279634356499,
          0.004451440647244453,
          -0.09826405346393585,
          -0.09478149563074112,
          -0.1336113065481186,
          -0.08964527398347855,
          -0.026855386793613434,
          0.11302217096090317,
          0.09664840996265411,
          0.02230932004749775,
          0.03749910742044449,
          0.09221817553043365,
          0.0005917056114412844,
          0.0520051047205925,
          0.0870399922132492,
          -0.034734200686216354,
          -0.019488804042339325,
          -0.03568444401025772,
          0.0759158506989479,
          0.12268944829702377,
          0.10420383512973785,
          0.015027363784611225,
          0.015458768233656883,
          0.06782042980194092,
          0.06305339187383652,
          0.059905361384153366,
          0.01986965350806713,
          0.07019509375095367,
          0.03705973923206329,
          -0.04315982013940811,
          -0.07974803447723389,
          -0.14793260395526886,
          -0.07941403239965439,
          -0.10970647633075714,
          -0.07594797760248184,
          -0.0014634801773354411,
          0.07759934663772583,
          0.09887144714593887,
          0.04097862169146538,
          0.032082755118608475,
          -0.04286520928144455,
          0.061528708785772324,
          0.0696040466427803,
          0.01762135699391365,
          0.03743389621376991,
          0.044152893126010895,
          0.007795254699885845,
          0.06394405663013458,
          0.07428701221942902,
          0.015728097409009933,
          0.015683475881814957,
          0.024812059476971626,
          0.027998479083180428,
          -0.006650269962847233,
          0.009722648188471794,
          0.03821118175983429,
          0.03345617279410362,
          0.04671163484454155,
          0.06335049122571945,
          0.034804489463567734,
          -0.012073860503733158,
          -0.015149127691984177,
          -0.08886686712503433,
          -0.044938329607248306,
          -0.025373835116624832,
          -0.033219095319509506,
          0.03906114026904106,
          0.041391413658857346,
          0.01769326627254486,
          -0.02336207590997219,
          -0.023509735241532326,
          0.05826842412352562,
          0.10904227197170258,
          -0.010725879110395908,
          0.050409283488988876,
          0.13072234392166138,
          0.017539244145154953,
          0.026778463274240494,
          0.0184685867279768,
          -0.026563197374343872,
          -0.019899651408195496,
          -0.01767819933593273,
          0.017873011529445648,
          0.05236208811402321,
          0.05248130112886429,
          0.06272437423467636,
          0.12311014533042908,
          0.06479408591985703,
          -0.021412335336208344,
          -0.020850712433457375,
          -0.07282564789056778,
          -0.06406733393669128,
          -0.08163505047559738,
          -0.04107240214943886,
          -0.09373681992292404,
          -0.014024737291038036,
          0.021354302763938904,
          -0.009104207158088684,
          -0.06610780954360962,
          -0.08764082193374634,
          0.1438605934381485,
          0.07950570434331894,
          0.04056819528341293,
          0.07708161324262619,
          -0.0021827511955052614,
          -0.025556709617376328,
          0.04324488341808319,
          0.0382319912314415,
          -0.01595381461083889,
          0.027829516679048538,
          0.04635903984308243,
          0.047070346772670746,
          0.04806594178080559,
          0.13567276298999786,
          0.09230475127696991,
          -0.0013591315364465117,
          -0.08258151262998581,
          -0.002192680025473237,
          0.0213380865752697,
          -0.06876778602600098,
          -0.05197402089834213,
          -0.1059628278017044,
          -0.10713081061840057,
          -0.036716755479574203,
          0.00610154215246439,
          0.0429835319519043,
          0.08273044228553772,
          0.01823992095887661,
          0.04055967554450035,
          -0.012544029392302036,
          0.05272432416677475,
          -0.017695769667625427,
          -0.05573689937591553,
          0.022699229419231415,
          0.04878375306725502,
          0.04452459141612053,
          0.04580729827284813,
          0.016367822885513306,
          0.04379281774163246,
          0.009904228150844574,
          0.043751079589128494,
          0.12224579602479935,
          0.033703312277793884,
          -0.04275258257985115,
          -0.02754879929125309,
          0.02067033387720585,
          0.026899894699454308,
          -0.019079580903053284,
          -0.04315423220396042,
          -0.07914676517248154,
          -0.10092034935951233,
          -0.08032148331403732,
          0.03392978757619858,
          0.13022631406784058,
          0.0637018010020256,
          -0.011971745640039444,
          0.03295549377799034,
          -0.03628917410969734,
          0.06655313819646835,
          -0.05682048201560974,
          -0.03910550847649574,
          0.09587131440639496,
          0.04924026131629944,
          0.00903506763279438,
          0.01861821673810482,
          0.0020973053760826588,
          -0.02876635640859604,
          0.03638363257050514,
          0.036353547126054764,
          0.041664570569992065,
          -0.050957195460796356,
          -0.017695769667625427,
          -0.05022886022925377,
          0.0158121008425951,
          0.03673649579286575,
          0.03203245624899864,
          -0.06103133782744408,
          -0.06949841231107712,
          -0.08964277803897858,
          -0.08443881571292877,
          0.02829754911363125,
          0.00028385440236888826,
          0.07578299194574356,
          0.024077504873275757,
          0.06008951738476753,
          -0.030696077272295952,
          0.026628319174051285,
          0.053114037960767746,
          0.05131674185395241,
          0.0717332735657692,
          0.001604176708497107,
          -0.02438165806233883,
          -0.04578157141804695,
          -0.03185725584626198,
          -0.011169238947331905,
          -0.009868337772786617,
          -0.015601839870214462,
          0.0346345491707325,
          0.008089427836239338,
          -0.02930610440671444,
          0.01287547592073679,
          0.09199747443199158,
          0.07198932766914368,
          0.07412217557430267,
          -0.0063205016776919365,
          -0.004980769939720631,
          -0.054603103548288345,
          -0.04633498936891556,
          0.0036745297256857157,
          -0.056622181087732315,
          -0.02219749242067337,
          -0.009342242032289505,
          0.04741588979959488,
          0.036735933274030685,
          0.046232789754867554,
          0.11781878769397736,
          0.08727189898490906,
          -0.008372622542083263,
          -0.03757988661527634,
          -0.014440925791859627,
          0.0010897860629484057,
          -0.03564617410302162,
          -0.015054786577820778,
          -0.02081538736820221,
          0.005907230544835329,
          0.06527505815029144,
          0.028277777135372162,
          0.007753135170787573,
          0.07013984769582748,
          0.08883543312549591,
          0.028818290680646896,
          0.01874561980366707,
          0.028811439871788025,
          0.06850284337997437,
          -0.017944788560271263,
          -0.010845884680747986,
          0.08975373953580856,
          -0.11353722959756851,
          0.05677223205566406,
          -0.05542833358049393,
          -0.0070244912058115005,
          0.02888401597738266,
          -0.009525501169264317,
          0.06559596210718155,
          0.03999003767967224,
          0.019432056695222855,
          -0.07418300956487656,
          -0.06599776446819305,
          -0.08045176416635513,
          -0.055043671280145645,
          -0.07475264370441437,
          -0.008964224718511105,
          0.07228390872478485,
          0.09988738596439362,
          0.04743092507123947,
          0.09243693947792053,
          0.1410357505083084,
          0.12970897555351257,
          0.03135518357157707,
          -0.04718363285064697,
          0.03662819042801857,
          0.0007095911423675716,
          -0.04839624464511871,
          0.02005585841834545,
          0.07405989617109299,
          -0.044763412326574326,
          0.006253586150705814,
          -0.07881366461515427,
          -0.030700255185365677,
          -0.04856540262699127,
          -0.015510295517742634,
          -0.04000048339366913,
          -0.04195825383067131,
          -0.04044760763645172,
          -0.08176320791244507,
          -0.07332068681716919,
          -0.002125828294083476,
          -0.04891515150666237,
          -0.029779203236103058,
          -0.02867651917040348,
          0.08685227483510971,
          0.07228829711675644,
          0.10180402547121048,
          0.07917419075965881,
          0.16089360415935516,
          0.08409136533737183,
          0.0030858307145535946,
          -0.05047254264354706,
          0.02752283588051796,
          0.006641164887696505,
          0.006245726719498634,
          -0.014749591238796711,
          0.00782175175845623,
          0.05110597610473633,
          -0.016928667202591896,
          -0.03542762249708176,
          0.0544714629650116,
          -0.1156381294131279,
          0.01907593384385109,
          -0.0851902961730957,
          -0.03570707142353058,
          -0.05092346668243408,
          -0.0794634222984314,
          -0.04638008028268814,
          -0.02771763689815998,
          -0.008376440033316612,
          0.0034054883290082216,
          0.009711028076708317,
          0.07422792166471481,
          0.06818149238824844,
          0.08030083775520325,
          0.052483364939689636,
          0.0691509023308754,
          0.016423163935542107,
          -0.06149045377969742,
          0.016537949442863464,
          0.025646265596151352,
          -0.014522046782076359,
          -0.061806369572877884,
          -0.07109230756759644,
          0.0180821493268013,
          0.003884909674525261,
          0.10549350082874298,
          0.04680617153644562,
          0.04889415577054024,
          0.034618739038705826,
          0.03907862305641174,
          -0.08671875298023224,
          -0.01823481358587742,
          -0.03390907868742943,
          -0.02984955720603466,
          -0.04885053262114525,
          -0.06128143519163132,
          -0.028892885893583298,
          0.07720649242401123,
          0.06690402328968048,
          0.037649668753147125,
          0.035325244069099426,
          0.04609780013561249,
          0.05790354311466217,
          0.029854511842131615,
          -0.032278042286634445,
          0.016719799488782883,
          0.016240885481238365,
          -0.01650346629321575,
          -0.05965275689959526,
          -0.03322411701083183,
          -0.05166780576109886,
          0.014118878170847893,
          -0.032954029738903046,
          0.06892979890108109,
          -0.010150096379220486,
          0.026463907212018967,
          0.042738981544971466,
          0.110722616314888,
          -0.05060252919793129,
          -0.05993003398180008,
          -0.028424952179193497,
          -0.1050274595618248,
          -0.000569534779060632,
          -0.04183564707636833,
          -0.015400161035358906,
          0.12964828312397003,
          0.12059999257326126,
          0.03277168050408363,
          0.04111327975988388,
          0.06090452894568443,
          -0.01567940227687359,
          0.045179374516010284,
          -0.013975320383906364,
          -0.010433577932417393,
          0.009596145711839199,
          0.000609411858022213,
          -0.047011297196149826,
          -0.010068238712847233,
          -0.03349704667925835,
          0.03200777992606163,
          0.0021213891450315714,
          0.05335069075226784,
          0.08816038072109222,
          -0.028172746300697327,
          -0.007149096578359604,
          0.11185885220766068,
          0.0025148610584437847,
          -0.053111787885427475,
          -0.05564537271857262,
          -0.04158438742160797,
          -0.05137435719370842,
          0.001908765290863812,
          0.08888997882604599,
          0.07719765603542328,
          0.08603718876838684,
          -0.03967081755399704,
          -0.0041449787095189095,
          0.02113039791584015,
          0.03870921581983566,
          0.027388721704483032,
          0.00024013906659092754,
          0.04539318010210991,
          -0.00941493734717369,
          0.016445225104689598,
          -0.019089465960860252,
          -0.026686346158385277,
          -0.007876844145357609,
          0.04184691980481148,
          -0.027953743934631348,
          0.066134512424469,
          -0.059230707585811615,
          -0.06548997014760971,
          0.0016847962979227304,
          0.06609750539064407,
          0.09848432242870331,
          -0.06772170215845108,
          -0.10558619350194931,
          -0.024152308702468872,
          -0.040527280420064926,
          -0.04841743782162666,
          0.06917384266853333,
          0.045141007751226425,
          0.02391650527715683,
          -0.007232306990772486,
          -0.003893261542543769,
          0.0012170710833743215,
          0.037955641746520996,
          -0.005649292375892401,
          -0.0050519476644694805,
          -0.00845669861882925,
          0.014482204802334309,
          -0.02105109393596649,
          0.03191496059298515,
          -0.014957912266254425,
          -0.020339416339993477,
          0.06492529809474945,
          -0.008350968360900879,
          0.03945884853601456,
          0.02450827695429325,
          -0.09270954877138138,
          0.04231978580355644,
          0.07913821935653687,
          0.07617800682783127,
          -0.006937725469470024,
          -0.054369110614061356,
          -0.01138664036989212,
          -0.07503613829612732,
          -0.05250559002161026,
          -0.07635453343391418,
          -0.041889116168022156,
          -0.05217807739973068,
          -0.020049944519996643,
          0.00710774352774024,
          -0.03822925686836243,
          0.01209309697151184,
          -0.01014983095228672,
          -0.02068856544792652,
          0.0045659891329705715,
          -0.014741390943527222,
          -0.008219992741942406,
          -0.041117943823337555,
          -0.009708193130791187,
          -0.001533586299046874,
          0.05049875006079674,
          -0.029855461791157722,
          -0.06707945466041565,
          -0.03367985039949417,
          0.04993820935487747,
          0.05054248869419098,
          0.0070024291053414345,
          0.055391766130924225,
          -3.778366226470098e-05,
          -0.03368813171982765,
          -0.05048200860619545,
          -0.09013637155294418,
          -0.10938172042369843,
          -0.11479975283145905,
          -0.06755930930376053,
          -0.0554657056927681,
          -0.032234326004981995,
          -0.04178265482187271,
          -0.01324716117233038,
          -0.059688273817300797,
          -0.06638364493846893,
          -0.03944672644138336,
          -0.05222082510590553,
          0.003364171599969268,
          -0.02985227294266224,
          0.010715874843299389,
          -0.02822640910744667,
          -0.05153581127524376,
          -0.022728651762008667,
          -0.030030807480216026,
          0.04285960644483566,
          -0.040744662284851074,
          0.039303842931985855,
          0.1311720311641693,
          0.03760894387960434,
          0.1077834814786911,
          0.02065400965511799,
          -0.014349816367030144,
          -0.018766772001981735,
          -0.038816630840301514,
          -0.04218519479036331,
          -0.03352723270654678,
          -0.019374869763851166,
          -0.020907584577798843,
          -0.006805491168051958,
          -0.012396717444062233,
          -0.03032195195555687,
          -0.012288186699151993,
          -0.0006484137265942991,
          -0.02517017163336277,
          -0.012397617101669312,
          -0.03936805576086044,
          -0.012753713876008987,
          0.03291229158639908,
          -0.03926537185907364,
          0.008317265659570694,
          -0.043424274772405624,
          -0.10161338001489639,
          0.027123013511300087,
          0.004163031466305256,
          0.030245330184698105,
          0.07692290097475052,
          0.007899660617113113,
          0.09209773689508438,
          0.014775131829082966,
          -0.05154041573405266,
          0.0149485869333148,
          -0.016696536913514137,
          -0.029413245618343353,
          -0.05952173098921776,
          -0.07275199890136719,
          -0.023406488820910454,
          -0.01720086671411991,
          -0.03778909519314766,
          -0.051380906254053116,
          -0.029383759945631027,
          -0.02423686534166336,
          0.04896888509392738,
          0.05150393769145012,
          -0.02932041324675083,
          0.06400410830974579,
          0.034709177911281586,
          -0.057629380375146866,
          0.06022264063358307,
          -0.02765173278748989,
          -0.08178984373807907,
          0.029802927747368813,
          0.030145302414894104,
          -0.0008883306290954351,
          0.07640974223613739,
          -0.04341066628694534,
          0.030207283794879913,
          -0.06087417155504227,
          -0.05964595451951027,
          0.1196630671620369,
          0.13365501165390015,
          0.11977630108594894,
          0.08073005080223083,
          0.10991597920656204,
          0.062289219349622726,
          0.04338522627949715,
          0.01601126231253147,
          0.004403600934892893,
          0.01451902836561203,
          0.033302657306194305,
          -0.0001003917059279047,
          0.004825722426176071,
          0.0021386088337749243,
          0.04460607469081879,
          -0.0157740768045187,
          -0.04809098318219185,
          0.03627210855484009,
          -0.04123044013977051,
          0.013832886703312397,
          0.019839445129036903,
          0.008677883073687553,
          0.03485294058918953,
          0.08072495460510254,
          -0.06971879303455353,
          0.0697280541062355,
          0.1965913325548172,
          0.05606289952993393,
          0.06803207844495773,
          0.18420471251010895,
          0.10555046796798706,
          0.10754057765007019,
          0.04292093589901924,
          0.08213843405246735,
          0.07530289143323898,
          0.04335082694888115,
          -0.008789995685219765,
          0.09316855669021606,
          0.04766232147812843,
          0.03940955176949501,
          0.1060834527015686,
          0.036759816110134125,
          -0.013502614572644234,
          -0.07479603588581085,
          -0.08579278737306595,
          -0.06115308403968811,
          0.02679191157221794,
          0.06955207884311676,
          -0.012552943080663681,
          0.015483031049370766,
          -0.006170017644762993,
          -0.0073227290995419025,
